-0.109326
0.176316
0.049868
0.147302
-0.347493
0.591611
-0.309983
0.321687
0.282940
-0.086356
-0.658214
0.605585
-0.407591
0.271873
0.383865
-0.073073
-0.612926
0.144111
-0.406788
0.396605
0.479812
-0.166384
-0.005163
0.169438
-0.556662
0.176985
0.612512
0.072348
0.332755
0.070435
-0.089888
0.099412
0.157732
0.036276
-0.606689
0.661915
-0.256652
0.336791
0.093891
0.243362
-0.700432
0.508471
-0.177933
0.570021
0.047033
0.067030
-0.561424
0.237764
-0.288551
0.520942
0.143674
-0.139157
0.079249
0.160195
-0.084740
0.415103
0.450451
-0.090199
0.342095
0.092168
0.136681
0.014843
0.088462
0.241487
-0.709314
0.226101
0.285378
0.494239
0.059546
0.291392
-0.726083
0.066981
0.002655
0.254436
-0.068315
0.017115
-0.320458
0.132170
0.166040
0.518632
-0.007072
0.179868
-0.202484
0.027621
0.285632
0.223182
0.071615
0.063485
0.379059
-0.040173
0.455235
-0.120540
-0.192307
0.098838
-0.729780
-0.307982
0.620244
0.141054
-0.513815
0.202062
-0.428000
-0.305334
0.683675
0.226398
-0.404184
0.214434
-0.093682
-0.161102
0.662411
0.006809
-0.449283
0.120756
0.266703
-0.366212
0.708049
0.135771
-0.376439
-0.101214
0.462524
-0.106589
0.375303
-0.159030
-0.450881
-0.088645
-0.379389
-0.539509
0.422674
-0.103409
-0.218999
-0.047280
0.089910
-0.491172
0.461099
-0.446710
-0.555935
0.136748
0.441718
-0.296557
0.295254
-0.275070
-0.534547
0.085812
0.417445
-0.222583
0.265541
-0.471054
-0.213063
0.083772
0.495835
0.029572
