0.026982
-0.016596
-0.003306
0.029011
-0.002706
0.026283
0.063330
0.042393
0.019148
0.021950
-0.009359
0.016960
-0.008920
-0.003626
-0.026624
-0.004757
-0.044429
0.004277
0.017583
0.022534
-0.000416
-0.025241
0.024419
0.021466
-0.016339
-0.036149
-0.007151
0.068414
0.035743
0.049085
-0.041925
-0.042087
-0.031991
-0.092117
0.005423
-0.002664
-0.031881
0.041383
0.003123
0.041982
-0.010129
-0.018466
-0.006862
0.036668
-0.030688
-0.003647
-0.026255
0.022085
-0.006757
0.033594
0.035558
0.001042
-0.010573
0.046314
-0.036800
0.024221
-0.006872
0.012536
0.018685
-0.008700
-0.068796
0.036614
0.039540
0.053813
-0.030849
-0.024114
0.016436
0.018293
-0.008050
0.006479
0.019347
0.007435
-0.009160
-0.047131
-0.058233
0.027884
0.015509
0.036588
0.006977
0.013904
0.030274
0.015928
0.020950
-0.039999
-0.042680
-0.022086
0.000448
0.051727
-0.012496
0.013725
0.000841
0.022839
0.042774
-0.040103
0.007395
0.019909
0.025845
-0.011572
0.003754
0.020587
0.041422
-0.009330
-0.023012
-0.059873
-0.016890
-0.042874
0.035530
0.001210
-0.022722
0.034394
-0.010013
-0.053403
0.031531
0.001520
-0.013513
-0.049872
0.000545
-0.015050
-0.010235
0.030248
-0.021429
-0.011876
-0.004195
-0.017716
0.001511
0.014684
-0.023777
0.002700
0.037408
0.018812
0.005744
-0.081946
-0.047314
-0.013017
-0.055372
0.042793
-0.012552
0.021398
0.014735
-0.003111
-0.006054
0.038188
-0.016321
-0.010724
0.042663
-0.044661
0.011468
-0.014155
-0.021181
-0.012613
-0.060717
-0.028011
-0.026547
-0.073324
-0.035540
-0.042616
-0.001335
-0.008965
-0.038808
0.010469
-0.000884
0.021713
-0.021063
-0.010288
0.028095
-0.008809
0.018514
0.006723
-0.008171
-0.039367
0.016798
-0.037613
-0.016016
-0.031978
0.028838
0.014265
0.005380
-0.028727
0.027944
-0.040743
0.019223
0.022169
0.015402
-0.026086
-0.009458
-0.057212
0.023583
0.025623
0.017610
0.018491
-0.001549
0.085802
-0.002269
0.016394
-0.006104
0.055212
0.011115
-0.072765
-0.029551
0.077706
0.009076
0.035173
-0.008539
-0.023624
-0.065298
-0.042749
-0.061572
0.027608
-0.041293
-0.004078
-0.032949
-0.007561
-0.050869
-0.093311
0.061953
-0.015041
0.066425
0.063208
0.003577
-0.031950
-0.011526
0.024700
0.080335
-0.091894
-0.026226
0.007833
-0.002471
-0.043539
0.024835
0.046289
0.034901
-0.065694
0.077976
-0.004487
-0.053633
-0.048979
0.054954
-0.005442
0.057717
0.060180
-0.012017
0.010730
0.004038
-0.023551
0.025253
0.010767
0.049226
0.025854
0.039826
0.037784
-0.002318
-0.015944
-0.040144
0.048778
0.005053
0.012310
-0.038974
0.004257
0.043581
0.014598
0.042637
-0.068973
-0.024581
0.004054
0.023153
-0.001179
0.026602
-0.004975
0.009967
-0.038180
0.000577
-0.055820
0.008018
0.021623
0.014453
0.000848
0.009509
-0.021495
0.038582
0.010574
-0.027048
-0.044718
-0.019964
-0.011546
-0.018480
0.011776
0.012822
0.043864
-0.017417
0.017656
0.014913
0.004449
0.030242
-0.030716
-0.042444
0.030439
0.062780
-0.021709
-0.016420
-0.023924
0.005446
-0.001350
-0.023857
0.034619
0.020074
0.064348
0.007864
-0.038340
0.014809
-0.005389
-0.048455
-0.029336
0.012339
-0.022051
-0.012907
0.051293
-0.027295
-0.039690
-0.021378
0.041375
0.024488
-0.046349
0.029983
0.005859
0.052654
0.015698
0.017692
-0.033731
-0.048648
-0.000593
-0.025860
0.017277
0.060253
0.045836
-0.018388
0.042286
-0.040947
0.039218
-0.031698
0.004065
-0.038704
0.005122
-0.051035
-0.000119
0.023431
-0.008460
-0.024766
-0.010003
-0.010917
-0.004395
0.045371
-0.033617
-0.003314
0.046671
-0.050433
0.000703
-0.011768
0.023857
0.006906
-0.003987
-0.041428
0.063888
-0.021166
-0.020149
0.019468
0.022193
0.027967
0.031287
0.014078
-0.054609
-0.033973
-0.011366
-0.011976
-0.011859
-0.013021
0.027055
-0.032735
0.002217
0.046907
-0.040326
-0.023827
0.045476
-0.084462
-0.006185
0.025494
-0.020238
-0.035700
-0.030169
0.000395
0.043042
0.002784
0.001001
-0.021686
0.071655
-0.018628
-0.032108
0.011706
-0.024983
0.035887
0.025942
-0.018370
0.042403
-0.077321
-0.054605
0.032408
-0.077769
-0.101757
-0.013315
0.023267
-0.016884
-0.071683
-0.021742
-0.060263
0.000013
-0.039580
-0.037026
0.037036
0.045963
0.077529
0.043844
-0.032943
-0.004767
0.055850
-0.004061
0.003466
-0.071363
-0.082112
0.056747
0.049736
-0.001793
0.019842
0.031179
-0.042874
-0.009849
-0.028534
-0.014347
0.009269
-0.013219
0.005096
-0.045123
-0.081185
-0.018302
0.026983
0.040050
-0.056899
-0.009451
-0.028681
0.029099
0.024771
-0.038915
-0.017485
-0.014666
-0.048805
-0.037859
0.007187
0.042135
0.023246
0.019275
-0.033155
0.023120
-0.027390
-0.088666
0.000090
0.019856
-0.029941
-0.002135
-0.046854
0.088140
-0.066748
-0.053530
-0.107415
0.004033
0.066837
-0.051570
-0.002741
0.054332
0.085664
-0.050051
0.013611
0.030379
-0.010087
-0.039946
-0.020015
-0.047532
-0.043433
-0.012261
0.029883
-0.008958
0.043117
-0.003931
0.041962
0.050574
0.051590
0.031811
0.042035
-0.044056
-0.000754
-0.000941
0.001995
-0.018647
0.036550
0.018652
0.003480
0.024049
-0.032523
-0.004020
0.002058
-0.040134
0.014535
-0.023462
0.012397
0.023879
0.026118
0.020915
-0.016079
0.000333
0.012344
-0.006089
0.032918
-0.028997
-0.035980
-0.023118
0.025189
0.071521
-0.046018
0.034217
0.031427
0.016291
0.029835
-0.018499
-0.041642
0.010453
-0.026383
0.043870
0.033794
-0.043282
-0.057888
0.001538
0.015197
-0.005059
-0.037938
0.018644
0.010856
-0.023283
-0.029705
0.016822
0.003172
-0.024505
0.024003
0.009584
0.020029
-0.037552
0.015448
0.042057
0.011634
-0.017438
0.011653
0.035717
-0.000614
-0.024603
-0.032540
-0.002445
-0.030531
0.006147
0.008123
0.016461
-0.035042
0.034822
0.022566
0.028342
-0.019296
0.020052
0.007053
-0.034119
0.027145
0.013047
0.009031
0.007899
0.045727
-0.012385
-0.012364
-0.000355
-0.057835
0.004739
-0.022807
0.021451
0.049953
-0.015123
-0.008816
0.013228
0.018777
0.028995
-0.003977
0.006539
0.001688
-0.059507
0.024759
0.005009
-0.002486
-0.028304
-0.045619
0.057916
-0.018293
-0.075976
-0.046167
0.022292
0.084143
-0.010388
-0.003836
-0.068071
-0.011123
0.000599
0.002793
-0.022937
0.002497
-0.045919
0.025246
0.003005
-0.045433
0.009312
0.009341
0.077236
-0.031968
-0.036809
-0.007765
0.004830
-0.080576
0.005021
-0.018273
0.043177
-0.065366
-0.029767
0.005545
-0.041523
-0.047521
-0.003171
-0.024191
-0.025801
0.059311
-0.028856
-0.001347
0.018007
-0.091757
0.060356
0.031455
-0.016842
-0.025859
-0.022173
0.082558
-0.004969
-0.074027
0.086333
0.028442
-0.046639
-0.025196
0.014200
0.029121
0.056742
0.036790
-0.000328
-0.085281
0.006326
0.059361
0.009436
-0.043390
-0.043934
-0.044610
0.035666
0.063440
-0.046384
-0.012349
-0.039955
-0.022309
0.023097
-0.002538
-0.059670
0.061057
-0.051711
0.004177
-0.054612
-0.046156
0.018553
0.040767
0.006305
-0.063352
-0.056145
-0.015453
0.042029
-0.010520
-0.010397
-0.031594
0.102277
-0.054522
0.014671
0.028147
0.046021
0.045683
0.083127
-0.024765
-0.023259
0.026053
-0.077016
-0.056292
-0.046370
-0.001932
0.028649
0.038870
0.090734
-0.035691
-0.034339
-0.072548
0.004860
0.011631
-0.027226
-0.018450
0.006690
0.052292
-0.064726
-0.009379
0.005791
0.018984
-0.014653
0.001679
0.016046
0.005223
-0.028031
0.022716
0.033481
-0.009506
-0.021801
0.034759
0.012771
-0.046060
0.009041
0.024966
0.022604
-0.012931
0.004805
0.002909
0.020560
0.016130
-0.051960
-0.018098
0.043395
0.034924
-0.007680
0.059917
0.009379
-0.016792
0.006445
-0.008197
-0.070764
0.010298
-0.064083
0.013183
0.032198
-0.024458
0.018216
0.026531
-0.022854
-0.028404
-0.057575
-0.003743
0.001412
0.046193
0.022586
-0.006361
-0.026861
0.007018
0.029550
-0.026880
0.006675
0.050783
-0.007783
-0.022601
0.038978
0.063200
-0.006587
-0.046438
-0.023963
0.033413
0.039704
0.031887
0.008679
-0.022491
-0.042217
0.067902
0.032079
0.003104
0.009385
-0.068195
0.038098
-0.016574
0.031089
0.015742
0.016193
-0.026437
-0.033359
-0.011380
0.008876
0.017280
0.022691
0.006390
-0.013544
0.050367
-0.035937
-0.041036
0.019969
-0.046330
-0.020853
0.008453
-0.047033
0.013204
-0.022036
0.045291
-0.077465
0.019238
-0.000801
0.042489
-0.027958
-0.029516
-0.004506
-0.019375
-0.024090
0.003316
0.020940
0.002205
-0.010762
-0.005905
0.000177
0.007969
-0.072693
0.034370
-0.004325
-0.055796
-0.029290
-0.042271
0.005244
0.035504
0.014987
0.014870
-0.040384
-0.018680
-0.002839
-0.026228
0.036141
-0.030683
-0.032459
-0.023579
0.014423
0.002945
-0.036277
-0.014935
-0.015953
-0.013536
0.005068
0.035054
-0.006731
-0.006728
-0.023175
-0.029018
-0.014673
0.031099
-0.025276
0.023472
0.038326
-0.042204
-0.020275
0.004086
0.002871
-0.019429
0.000353
-0.002615
-0.000161
0.009173
-0.038602
-0.013194
0.040134
-0.068908
0.044639
0.028251
0.050916
-0.008580
-0.036726
-0.023947
0.010654
0.004133
-0.018256
-0.008179
-0.024350
-0.016491
0.023258
0.062599
0.004829
0.035183
-0.016351
-0.039989
-0.055744
-0.006823
0.031090
-0.027351
0.016384
0.017035
-0.052980
0.004866
0.000458
0.048957
-0.018962
0.012628
0.031878
-0.003537
0.012214
0.066483
-0.016939
-0.010235
-0.015584
0.020690
0.038820
0.042915
0.032645
0.022789
-0.024564
-0.023757
-0.047900
0.021967
0.009524
0.014313
-0.002463
0.012242
-0.016567
0.031019
-0.017239
-0.083379
0.029661
0.034090
0.027618
0.032305
0.010794
0.011195
0.049105
0.037611
-0.022645
0.033260
-0.018371
-0.041691
0.022896
-0.016948
-0.007592
0.016459
-0.002571
0.047038
0.032765
-0.048142
0.032234
-0.005508
-0.012622
-0.006360
-0.036325
0.005137
-0.026714
-0.003738
0.029567
0.002016
0.021606
-0.023489
0.002796
0.056400
-0.023882
-0.048179
-0.054682
0.006525
0.100177
-0.015878
-0.000601
0.032876
0.038850
0.056273
-0.042206
0.024636
-0.007259
-0.028682
0.039724
-0.060078
-0.050719
-0.031812
0.023778
-0.015577
0.014598
0.036957
-0.002308
-0.005192
0.036274
0.014840
0.092001
-0.069768
-0.000512
-0.043708
-0.070006
0.069303
0.048081
0.055625
0.027906
-0.003398
-0.002023
-0.019514
0.009231
-0.026363
0.007832
0.028264
-0.021389
-0.063046
0.038731
-0.062011
0.000161
-0.045337
-0.041964
0.041589
0.033515
-0.003072
-0.016543
-0.043044
-0.005632
-0.027916
-0.001201
-0.025224
-0.052953
-0.093711
-0.032301
0.022449
-0.002818
0.045587
-0.083908
-0.037079
0.007504
-0.062499
-0.053730
0.032679
-0.000731
-0.044421
-0.042126
-0.065209
-0.102079
0.033887
0.013164
-0.000663
0.001371
0.015323
-0.043070
0.065715
0.001716
0.021209
0.062624
-0.010965
0.098427
-0.053167
0.058005
-0.021062
-0.018093
-0.046462
-0.018204
-0.049958
-0.010421
-0.052596
0.010254
0.024052
0.032862
0.046751
0.041613
0.005806
-0.042877
-0.068269
-0.013318
-0.055287
-0.032324
-0.033282
0.022903
0.028952
-0.056733
-0.006720
-0.030857
-0.003789
0.075041
0.040721
-0.057878
-0.046278
-0.022607
-0.005349
-0.030385
0.009771
-0.043054
0.007435
-0.001361
0.020475
0.018156
0.055316
-0.028881
-0.046553
0.020593
0.027838
0.006430
-0.059670
-0.044209
-0.002609
-0.030161
-0.030588
0.017087
-0.061557
-0.031318
-0.021380
0.052752
-0.068980
0.001269
-0.011628
0.022586
-0.011623
-0.070514
0.027249
-0.036678
-0.025685
0.053213
-0.044463
0.042211
-0.034984
-0.051104
0.014175
0.006805
-0.072624
-0.001307
0.068345
-0.014425
-0.068081
0.078124
-0.031467
-0.051269
0.016186
-0.043195
-0.011971
-0.011096
-0.023446
0.014532
-0.043337
-0.043693
0.022773
-0.034960
0.007210
-0.079329
-0.029645
0.066592
0.005617
-0.002445
0.042217
0.075203
0.049947
-0.035487
0.028391
-0.032315
0.008987
0.001175
-0.075764
-0.036208
0.028079
-0.018454
0.042929
0.021875
0.015872
-0.043712
0.033442
-0.006110
-0.040599
-0.008836
0.035059
0.024727
-0.136782
-0.031304
0.076228
-0.035600
-0.025652
0.045954
-0.015367
0.022097
0.049326
-0.038250
-0.005457
-0.026762
-0.053881
0.038254
0.017416
0.065363
-0.027073
-0.012070
-0.037898
0.057563
-0.004535
-0.028401
-0.025175
-0.003630
0.088089
-0.037868
0.025619
0.026207
-0.000476
0.027407
-0.047660
-0.000219
-0.079626
0.027328
0.028168
0.010046
0.008109
-0.078291
0.004638
0.012813
0.021566
-0.051437
-0.045377
-0.073060
-0.014492
-0.056892
0.018164
0.012678
0.013825
-0.023438
-0.058929
0.046994
-0.032927
0.033913
-0.057286
0.060753
0.032648
0.006587
-0.061121
-0.008476
0.035055
-0.082381
-0.002478
0.032123
0.032920
-0.027535
0.066231
0.010348
0.016532
-0.067158
0.006080
0.029762
0.009131
-0.081314
-0.003348
0.002868
-0.036667
0.038063
-0.019503
0.055949
-0.017847
0.028328
-0.032440
0.028834
-0.008358
-0.033035
0.037605
0.003576
-0.038216
-0.068485
0.049188
0.028576
-0.049844
-0.031859
-0.012896
0.006509
0.093515
-0.073009
0.013692
0.014088
-0.041912
0.028076
0.030404
0.016971
-0.056124
-0.004700
0.023436
0.008807
0.026517
0.036843
0.017661
-0.017174
0.057438
-0.109968
-0.053819
-0.033118
-0.005353
-0.022910
0.003248
0.034946
-0.031490
0.006944
-0.008353
0.004216
0.005061
0.033252
-0.013915
0.025840
0.026835
-0.090351
-0.011610
-0.045949
-0.047080
-0.025728
0.006972
-0.002615
-0.047468
0.017490
0.060076
0.035623
0.016471
-0.020607
-0.034359
0.005148
0.001124
-0.035738
-0.017596
0.035034
0.028945
-0.033705
-0.034754
0.048226
0.000995
-0.002116
0.024225
-0.014834
-0.011679
-0.036469
0.010620
0.023696
0.030711
-0.006719
-0.018542
-0.093567
-0.090854
0.008100
0.002848
0.018733
-0.017932
-0.035747
0.001038
0.047773
0.022981
0.005383
0.014654
-0.034098
-0.028536
-0.049451
-0.055589
-0.050692
-0.042479
-0.052042
-0.032787
0.035865
0.006954
0.028368
-0.083536
0.000432
0.013695
-0.001519
0.014729
0.018274
-0.023685
0.024703
-0.024641
0.027382
-0.059357
0.044152
0.031748
0.021078
0.023707
-0.021464
0.043960
0.029311
0.000366
-0.039373
0.016922
-0.012072
0.014339
0.012762
-0.014797
-0.035831
0.039536
-0.030737
-0.010219
0.040557
-0.009637
-0.025657
0.007361
0.039117
0.021891
0.042187
0.006564
0.039546
0.009249
0.038958
0.026093
0.018924
0.023812
0.015984
0.026023
-0.071381
0.020602
-0.035294
0.035965
-0.054294
-0.059684
0.024984
0.037791
0.004647
0.005282
0.039642
0.040211
-0.007880
-0.028438
-0.001557
-0.053614
0.025901
0.104441
-0.009580
0.037876
-0.025433
-0.050434
0.005992
-0.020715
-0.054564
0.008807
0.023697
0.063502
0.061087
-0.001321
-0.000094
-0.008009
0.028775
0.011654
0.023605
0.064742
0.007870
-0.012982
0.085279
0.066503
-0.018836
0.025341
0.001016
0.027889
0.004993
-0.000906
0.025113
-0.006020
-0.041767
-0.005954
-0.041717
0.029203
0.011468
-0.010554
0.060418
-0.072291
0.002228
-0.009829
0.073915
0.015759
-0.016914
-0.019066
0.030929
-0.017559
-0.000826
0.030521
0.001990
-0.068632
-0.043702
0.056925
0.004192
-0.031482
-0.078792
-0.044167
0.026567
0.001355
0.017904
-0.078400
-0.042552
-0.037008
0.074598
-0.001978
0.009541
-0.067516
-0.029188
0.033579
-0.083415
0.013921
0.051432
0.042823
0.019801
-0.057723
-0.036025
0.006714
-0.010419
-0.032690
-0.001508
-0.028980
0.030171
0.016381
0.037121
0.024515
-0.056900
-0.054902
0.062779
0.013429
0.006152
0.017400
-0.011535
0.002197
0.017127
-0.058868
0.006144
0.026225
-0.040773
-0.081601
0.026073
-0.003979
-0.002190
0.014204
-0.037621
-0.058406
0.006236
-0.015481
0.066394
0.015699
0.069857
-0.013724
0.019042
-0.109486
-0.058292
0.101349
-0.029417
0.048543
0.076382
-0.011081
-0.065196
-0.059362
-0.048992
-0.020619
-0.009120
-0.038770
-0.000745
0.019651
-0.006359
-0.082482
-0.043536
-0.029854
0.031617
-0.010791
0.013735
0.013026
-0.031195
0.040858
-0.005307
-0.001667
0.017543
0.023188
-0.038189
-0.027972
0.006787
-0.002743
0.022257
-0.033141
0.047460
0.001219
0.017138
0.004249
-0.028678
0.003908
-0.022485
0.025432
-0.003732
0.043617
0.002360
0.053925
0.009526
-0.016173
-0.060367
0.005766
-0.033121
0.031535
0.002060
-0.012248
-0.028141
-0.016675
0.056853
-0.052944
0.014966
-0.021955
0.036361
0.049208
0.009147
-0.029199
-0.029402
-0.033036
0.012547
0.020920
0.029556
0.012571
-0.043543
0.000162
-0.017270
-0.059420
0.026105
0.005286
0.002634
-0.025742
-0.059143
-0.019642
-0.019532
0.025051
0.006455
0.035429
-0.008841
0.015279
0.011315
-0.026398
-0.010111
0.030912
-0.065007
0.005494
0.010300
-0.015775
0.024326
-0.042327
-0.026107
0.009556
0.019639
0.007322
0.018032
0.032988
-0.011696
0.028423
-0.033059
-0.020927
0.045296
0.009547
0.021425
-0.001192
0.023135
-0.047568
-0.018037
-0.041184
0.041135
-0.010265
-0.021798
0.039109
-0.053040
0.001186
-0.061479
0.026861
-0.037837
0.047949
-0.016107
0.008458
-0.039731
-0.042510
0.033211
0.047670
-0.046998
-0.010241
0.003998
0.018683
0.013168
-0.025392
0.043942
-0.016152
0.000135
0.000767
-0.009586
-0.045823
-0.008272
0.045992
0.028520
0.011338
0.030526
-0.035990
-0.025283
-0.000390
-0.001422
0.062554
0.021685
-0.085949
-0.062872
-0.010276
-0.033495
-0.017408
-0.005079
0.000659
0.046140
0.029797
-0.039436
-0.035212
-0.027388
-0.009394
0.002486
0.002515
0.059030
-0.012240
0.036526
-0.009020
-0.065361
0.038039
-0.006867
0.006937
-0.013097
0.081050
0.029622
-0.054809
0.011266
0.051499
0.002570
0.015930
-0.023898
-0.031155
0.052007
0.016447
0.000791
0.045009
-0.063162
-0.006863
0.022910
0.056185
0.056014
-0.023027
-0.009643
-0.048490
0.004624
-0.088580
0.032608
0.048453
0.013765
-0.045401
-0.025661
0.060169
0.051757
-0.008107
0.003485
-0.045141
-0.003908
-0.042574
-0.012986
-0.005904
-0.001203
0.031833
-0.028295
0.046647
0.055644
-0.007981
0.055288
0.052006
-0.022815
0.015729
0.040449
0.059500
-0.024043
-0.021151
0.033880
-0.000925
0.035543
0.021723
-0.020485
-0.006923
-0.067898
-0.008911
-0.002160
-0.067214
-0.050311
0.019050
0.041679
-0.073005
0.076997
0.006545
-0.042149
0.034380
0.022069
0.044724
-0.030959
0.022209
0.011667
0.015975
0.032631
-0.001768
0.018101
0.061495
0.016021
-0.002575
0.016844
-0.031940
0.009923
0.000757
0.040957
0.005962
-0.020351
0.047225
0.052842
0.010336
0.006176
-0.004377
-0.029155
-0.041666
0.035600
-0.048264
-0.009448
-0.000593
-0.088722
0.046669
0.017974
0.006892
-0.044036
-0.033327
-0.114512
-0.076690
-0.008788
-0.008311
-0.017790
-0.050040
-0.102057
0.045598
-0.000344
-0.059037
0.052078
-0.029237
0.005401
0.040711
-0.032470
-0.020669
-0.031316
-0.064707
-0.067953
-0.020370
-0.014784
0.012640
0.016219
-0.006926
-0.022584
-0.006719
-0.046257
-0.022690
-0.001798
0.028643
0.015698
-0.013907
-0.008229
-0.017495
0.080146
0.051319
0.060954
0.037873
0.012208
-0.010461
-0.045951
-0.055529
-0.029560
-0.008273
0.007431
-0.024761
-0.017235
0.000373
-0.023829
0.018290
0.002501
-0.004074
0.025008
0.015034
-0.028518
0.016119
0.018436
-0.008375
0.032687
-0.001639
0.003024
-0.024630
0.048801
0.005974
0.006009
0.013426
0.091633
0.022410
-0.062737
-0.000876
-0.009652
0.017066
-0.042456
-0.042678
-0.032240
-0.039876
0.025846
-0.007254
0.004259
0.049550
-0.054205
-0.014017
-0.008940
-0.071171
0.008411
0.080805
-0.040197
0.056948
-0.101117
-0.040500
0.066292
0.015645
-0.054264
0.006558
-0.024537
0.051714
0.065672
0.007157
0.025610
-0.001078
0.022546
0.021080
0.007891
0.004126
0.041811
0.005955
-0.010980
0.034473
0.018421
0.025429
0.038975
-0.007346
0.036440
0.011698
0.068257
0.034083
-0.035454
-0.069306
-0.002661
-0.007633
-0.062908
0.000618
-0.019473
-0.016283
0.028386
-0.009872
-0.024074
0.049951
-0.047546
-0.001548
0.045331
0.034230
0.048745
-0.008189
0.019707
-0.027437
-0.036849
0.028808
-0.028750
-0.018324
-0.031145
-0.113489
-0.016937
0.048644
-0.018057
0.042377
0.047390
0.042457
0.006530
-0.007834
0.017506
-0.026781
-0.008055
-0.019398
-0.030459
0.054705
-0.107851
0.021330
0.000957
0.013058
-0.007108
0.089667
0.001917
0.025123
-0.008539
0.073437
-0.057782
-0.054684
-0.011356
0.008381
-0.033236
0.042095
-0.013401
-0.014007
0.049368
0.010528
0.040018
-0.009369
-0.022992
0.002810
0.027826
-0.041102
-0.006287
-0.047265
0.019150
0.042368
-0.041286
0.009046
0.008427
0.003334
0.061003
-0.028165
0.015357
-0.027824
-0.032332
-0.008605
0.024262
-0.034241
-0.002019
0.024609
-0.070042
-0.033386
0.004115
-0.027718
0.023483
0.029951
0.029629
0.096572
0.040692
-0.001985
0.053922
0.017143
-0.032222
0.019482
0.050598
-0.003562
0.003206
0.067861
-0.042829
-0.049472
0.024867
0.007009
0.010335
0.032703
0.004466
0.047540
-0.047967
0.006883
0.011478
-0.000767
-0.035706
0.044257
-0.047409
0.010181
-0.023475
0.026034
0.018282
0.039041
-0.029459
0.060078
-0.003363
-0.008891
0.043976
-0.030734
-0.058913
0.000141
-0.048164
-0.060844
-0.042916
0.029879
-0.006912
-0.019371
-0.027421
-0.012394
0.055615
-0.016516
-0.028272
0.033377
-0.020901
-0.004322
-0.068348
0.026819
-0.002213
-0.037629
-0.009373
-0.043215
-0.017787
0.039357
-0.024867
0.036499
0.041979
-0.000538
-0.009856
0.010963
-0.017071
0.025383
-0.001631
0.032183
-0.029549
0.024576
0.006412
-0.024280
-0.031827
0.011057
0.010826
0.024365
0.009318
0.024911
-0.046473
-0.006758
-0.125261
0.014718
0.066513
0.025741
0.001169
-0.003228
0.081224
0.025893
0.020803
0.005582
-0.015914
0.073118
0.032731
0.012360
0.051765
0.003455
0.033963
-0.000386
-0.043382
-0.055658
0.033357
0.015289
-0.021452
-0.004793
0.028874
-0.038420
0.036492
-0.047236
0.007380
0.057725
0.001394
-0.002803
0.062736
-0.056572
0.052953
0.037866
-0.037464
0.079610
0.021838
-0.008449
0.015987
0.009738
0.009432
-0.015550
0.011012
0.024869
-0.011947
-0.023887
0.057196
-0.035774
-0.018666
0.046499
-0.010995
0.056170
-0.002563
-0.045378
-0.053732
-0.013179
0.011118
-0.023504
0.045629
0.034961
-0.031177
-0.018963
0.014215
0.008945
0.040695
0.029705
-0.031914
-0.028678
0.023164
-0.016251
-0.029935
0.057659
-0.001040
0.073715
-0.057237
0.003404
0.037048
0.021722
-0.019914
0.034239
-0.023133
0.026368
-0.013605
-0.016962
-0.000081
-0.010662
0.049708
0.027818
0.013535
-0.038050
-0.063581
0.096138
-0.011731
0.009898
-0.049538
0.064751
0.049750
0.003781
0.001496
0.069090
-0.010692
0.015714
0.002089
-0.041630
-0.043370
0.043937
0.027166
0.012334
-0.043721
0.071089
-0.038465
-0.060608
0.011183
-0.025415
0.002598
0.001893
0.030428
0.007958
0.033672
0.038284
-0.025694
-0.059308
-0.019080
-0.039327
-0.054745
0.008678
-0.126740
-0.036462
0.005858
-0.060275
-0.011521
0.004694
0.005249
0.072156
-0.004039
0.020120
-0.018490
0.066034
-0.036984
0.055917
-0.048513
-0.020509
0.069410
-0.003040
-0.032851
0.032034
0.073064
-0.004610
-0.041564
-0.085838
-0.069532
0.011796
0.035436
-0.027367
-0.002226
-0.061001
0.001824
0.031021
-0.031626
0.019679
0.024695
0.032525
0.022338
0.011183
-0.008350
0.014208
0.012412
-0.023541
-0.091659
-0.092622
0.033902
0.002530
-0.005912
-0.013858
0.020166
0.012720
-0.018062
0.059923
0.011086
0.046941
-0.038161
0.002048
-0.065239
-0.069773
-0.024800
0.031756
0.026017
-0.031192
-0.102954
-0.037426
0.033523
0.006829
0.031624
-0.117077
0.064347
-0.020715
-0.024077
-0.029340
-0.031836
-0.010710
-0.022454
-0.044864
0.029718
-0.074515
-0.067963
-0.061619
0.024071
-0.045139
-0.033082
0.104132
0.030321
0.009133
-0.047586
-0.010632
-0.048713
-0.017530
-0.057569
0.021616
-0.000767
0.001876
-0.022440
0.002321
0.000518
-0.064249
-0.009557
-0.076556
-0.008536
0.011030
-0.023073
-0.034666
0.015952
0.027745
-0.019402
0.041965
0.041725
0.004133
-0.069719
-0.031007
-0.100337
-0.069819
0.079742
0.092246
0.014263
0.013941
0.043189
-0.030068
0.098631
0.035417
-0.071011
-0.001592
-0.044126
-0.057705
0.007673
-0.065906
-0.042603
0.009826
0.055759
-0.034948
-0.099546
-0.033086
-0.065229
0.023817
-0.027267
-0.088294
0.047712
-0.059022
-0.067766
0.025977
-0.043040
0.103329
0.007828
-0.097258
0.026531
0.054745
0.000209
0.110534
0.012828
-0.060412
0.024948
-0.066635
0.040019
-0.000247
0.034214
0.119013
0.040628
0.093192
-0.022199
-0.080276
0.007187
0.010007
0.063443
0.029887
0.119429
-0.021563
-0.029628
-0.059378
0.019941
-0.028656
-0.020202
0.030192
-0.013165
0.034200
0.015268
0.014817
0.047074
-0.007662
-0.007762
-0.020488
-0.024977
0.006480
0.020771
-0.049448
-0.012310
-0.001176
-0.029598
0.009805
-0.002804
-0.010458
0.027998
0.003460
-0.003126
-0.012949
0.027798
-0.067258
-0.052232
-0.011537
-0.000209
-0.027804
-0.014010
-0.007692
-0.027506
-0.006487
0.010178
0.016560
0.008241
-0.008182
-0.025573
-0.009448
0.008258
-0.051348
-0.017524
-0.011004
0.032301
-0.056949
-0.042647
-0.016813
-0.038394
-0.002244
-0.013311
0.054866
-0.007142
-0.034103
0.016270
-0.031418
0.008257
-0.008002
0.061890
0.039614
0.021649
-0.003750
0.026074
-0.015416
-0.030025
-0.001796
-0.052325
0.030651
-0.000202
-0.042439
-0.014274
-0.023026
-0.000282
-0.028615
0.012754
0.021592
0.015703
-0.016830
-0.005045
0.048907
-0.021792
-0.010884
-0.031191
-0.012363
0.001000
0.022102
0.006644
0.012010
-0.002536
-0.041270
-0.026757
-0.022621
0.047248
-0.076223
-0.004363
-0.005538
0.039292
-0.016604
-0.018653
-0.044424
0.023167
0.039177
0.037666
-0.016995
-0.023237
-0.014561
-0.023173
0.008194
-0.044258
0.024686
0.057444
-0.022302
-0.003047
0.029725
0.010233
-0.042718
0.087523
-0.024134
-0.043907
0.012296
-0.025719
0.135649
0.049833
-0.018560
-0.018217
-0.014362
0.041034
-0.010612
-0.014511
0.061238
-0.096216
-0.069188
0.013415
-0.019730
0.047477
-0.084279
0.076062
-0.074508
-0.071088
0.000138
-0.029010
-0.024071
0.059708
-0.031876
-0.010851
-0.134923
-0.060059
-0.018006
0.004809
-0.009126
0.004870
0.062387
-0.005716
-0.017387
0.028629
-0.048472
0.008268
-0.109588
-0.002751
0.006767
-0.010106
-0.047843
0.050989
0.064434
-0.053585
-0.075486
0.060611
-0.040028
-0.069537
-0.041639
-0.009629
0.035348
0.032926
0.072247
0.001476
-0.040074
-0.022669
0.007907
0.011357
-0.013360
-0.104327
-0.066052
0.073416
0.089893
0.006805
0.040782
0.062569
-0.057008
0.047866
-0.015661
-0.036366
0.046425
-0.072171
-0.105582
-0.011187
0.001498
0.033702
-0.002745
-0.044307
-0.025497
-0.061919
-0.030193
0.052041
0.033518
-0.028842
-0.020780
0.090819
-0.124121
-0.079799
0.089430
-0.049853
0.088952
0.102107
-0.116869
0.011253
-0.001893
-0.075344
0.061610
-0.068631
-0.042001
0.074981
-0.039976
0.039101
-0.039589
-0.011687
-0.072236
-0.069642
0.083731
0.011317
-0.064472
0.000834
0.116664
-0.018860
0.090495
0.018438
0.020640
0.031652
0.069515
0.037515
0.020529
0.045560
0.061926
-0.043858
0.034784
0.053414
0.025093
-0.057375
0.025874
0.000187
-0.011560
-0.011741
-0.029412
0.021826
0.006657
-0.004681
-0.038071
-0.000077
-0.015981
-0.003211
0.011895
-0.048007
0.022357
-0.013885
-0.033661
0.016124
0.016123
0.020874
0.053863
-0.031292
-0.029324
-0.034761
-0.011291
0.028214
0.052700
-0.043039
-0.042132
-0.039979
-0.031292
0.009644
-0.019498
0.030660
-0.000427
0.038663
0.038992
0.022821
0.042558
-0.024702
0.047834
0.005898
0.017843
-0.021992
0.061146
0.003022
0.062031
0.001867
0.004659
-0.017673
-0.031334
0.048456
-0.030486
-0.050330
0.008473
0.043663
-0.035169
-0.021390
-0.062217
0.007014
-0.052515
-0.082442
-0.015342
0.059621
-0.041457
0.025233
0.030475
0.002521
0.043569
0.016769
0.035650
-0.016379
-0.056835
0.004851
-0.026116
0.009558
0.010447
0.003233
-0.019693
0.089387
-0.004347
0.010377
0.035828
-0.049945
0.014093
-0.020051
0.004934
0.010438
0.007794
-0.002058
-0.001319
0.008238
0.037773
0.022065
-0.003099
0.037356
0.015008
-0.016214
-0.025358
0.025106
0.056001
-0.008874
-0.031313
-0.017377
-0.032317
-0.012076
0.027168
0.024647
0.031590
-0.011620
-0.030113
0.003933
-0.047375
0.035907
-0.105416
-0.007038
0.026222
0.015088
0.017725
-0.011227
0.025339
-0.021076
-0.044495
0.007557
-0.000662
-0.011376
0.037852
0.044523
0.024921
-0.064603
0.071034
0.069418
-0.011217
0.036593
0.018961
-0.014110
0.058553
0.004659
-0.026709
0.030580
-0.004616
0.050474
0.007621
-0.027207
0.048523
0.020514
0.003551
-0.033558
0.053123
0.053296
0.014326
-0.011157
0.027038
-0.005251
0.002653
-0.069316
-0.015086
0.042770
-0.002867
-0.017781
0.062063
0.024155
0.025937
-0.002947
-0.086386
-0.014614
-0.037123
-0.008639
0.058890
-0.009918
0.033157
-0.019905
0.026890
0.044436
0.042807
-0.040716
-0.036770
0.026196
0.007034
-0.056720
0.052845
0.017982
0.024654
0.021482
0.032964
0.088341
0.009713
0.033469
0.048629
0.045718
0.000814
-0.021873
0.055266
0.008743
0.016488
0.006402
-0.032952
-0.011542
0.084658
-0.021642
0.019078
0.047359
0.020646
0.048090
-0.041864
-0.062331
-0.022540
-0.010438
0.000937
0.026484
0.012086
0.048593
0.037254
0.004795
0.003822
-0.060613
-0.001653
-0.031926
-0.019419
0.028680
-0.079934
0.049999
0.046730
0.024756
-0.010822
0.022424
-0.076755
-0.049984
0.028669
0.025756
0.027551
0.041213
-0.000326
-0.042579
-0.038509
-0.002795
-0.043087
-0.039222
-0.033461
0.059665
-0.045097
0.032496
0.041731
-0.016501
0.033998
-0.018892
0.070941
0.030019
-0.049046
0.028016
-0.028893
-0.082679
-0.008616
0.016226
0.058151
-0.005765
-0.038969
-0.018901
-0.010761
0.066096
-0.043048
0.016639
-0.027369
0.036094
0.004316
-0.034331
0.007838
0.007109
0.040223
0.041780
0.028101
-0.131082
0.007697
-0.053244
-0.050373
0.015715
0.028805
0.044891
-0.047949
0.004969
-0.058452
0.015043
0.019209
-0.019228
-0.014585
0.001711
0.059776
0.015624
0.032095
0.013226
-0.067371
-0.037309
-0.032670
0.048742
-0.043794
0.033485
0.010531
-0.052620
0.027868
0.016710
-0.014043
0.034684
0.023445
-0.050651
0.003038
-0.000382
-0.030548
-0.040474
-0.088477
-0.108996
0.014186
0.035674
-0.008165
0.027689
-0.002561
0.009195
0.019763
-0.016073
-0.008760
-0.049207
-0.032972
0.025020
-0.017557
-0.014376
-0.087631
-0.056267
-0.038524
0.010656
-0.026843
-0.051236
0.015934
0.051985
0.045472
0.002858
0.002938
0.016115
-0.009484
0.040599
-0.071232
-0.041783
0.028861
-0.034890
-0.034328
0.057520
-0.000813
-0.018192
0.032357
-0.072277
0.016907
0.003633
0.021107
-0.005351
-0.004001
0.013191
-0.068331
-0.004221
-0.006564
-0.059070
0.037590
-0.003744
0.028516
0.004074
-0.008108
-0.053302
0.007112
-0.035459
-0.028090
0.017377
-0.068343
-0.025894
-0.011823
-0.036394
-0.071055
0.031380
-0.032541
-0.002899
-0.054173
0.044780
-0.026277
-0.035039
-0.073743
-0.029269
-0.016143
-0.023462
0.064575
0.040947
-0.048676
0.003076
-0.008029
0.043238
-0.013656
-0.008458
-0.019525
0.002496
-0.083704
-0.050208
-0.013711
0.078569
-0.018053
-0.003192
-0.003623
0.004435
0.061526
0.022953
-0.026038
-0.016876
0.019150
-0.001473
0.003627
0.007324
-0.008776
0.009692
0.041723
0.026322
0.039778
-0.004445
-0.051918
-0.010498
0.085862
0.068181
-0.009355
0.038322
0.077977
-0.028799
0.003731
0.043738
0.014154
0.014137
-0.016785
0.040872
0.027090
-0.010949
0.012320
-0.038654
-0.040730
-0.073993
0.022526
-0.067962
0.008079
-0.021711
-0.119916
0.049808
0.022760
-0.011016
0.008926
-0.039736
-0.038250
0.020410
0.082366
-0.019437
0.047266
-0.040140
0.007616
0.085887
-0.014063
-0.075414
0.015105
0.012694
0.015413
0.072509
0.004939
0.022941
-0.028263
0.050934
0.017805
0.014643
-0.010134
-0.076063
0.011550
-0.068212
-0.025248
0.056660
-0.082552
0.050059
0.051903
-0.022623
-0.086860
-0.081317
0.019211
0.086961
-0.028218
0.024201
-0.006101
-0.121904
-0.098453
-0.104200
-0.041178
-0.002114
0.043003
-0.113817
-0.019740
0.064989
-0.075161
-0.037317
0.004472
0.021632
0.020897
0.002892
-0.016332
-0.079295
-0.000236
-0.076258
-0.032971
0.097644
0.020249
0.015758
-0.016150
0.023715
0.074679
-0.067758
0.018322
-0.005889
0.005237
-0.093587
0.044798
-0.031359
-0.021021
0.140979
0.038433
0.016086
-0.063779
-0.010762
-0.017820
-0.000107
0.044328
-0.057719
0.046666
-0.039778
0.006744
-0.047055
0.040838
0.074808
0.026186
-0.004066
0.007746
0.012895
0.059802
-0.047846
0.002847
0.030186
-0.116275
-0.039618
0.036337
-0.035495
-0.105972
0.038259
-0.010795
0.000350
0.015863
-0.005978
0.030619
-0.045013
0.039605
-0.110461
-0.020105
-0.121848
-0.055152
-0.007625
-0.086716
0.051064
0.055337
0.029159
-0.025275
-0.016848
-0.096044
-0.017344
-0.048382
0.071657
0.159281
0.013128
-0.019010
-0.048596
-0.120056
0.040076
-0.030157
0.006307
0.026462
-0.019679
0.141572
0.046556
0.044271
-0.024047
-0.005135
0.049772
-0.089289
0.041720
0.005600
0.094911
-0.039949
-0.057788
-0.047654
0.034529
-0.047302
0.024051
-0.008319
-0.061037
-0.022304
-0.075071
-0.010298
0.023280
-0.001907
0.021187
-0.047249
-0.047028
-0.060633
-0.041187
0.000427
-0.039931
0.050837
-0.066931
0.016399
0.041727
-0.038759
0.011297
-0.045968
0.024521
0.040088
-0.013321
-0.021120
0.013886
0.035587
-0.021386
0.056749
0.050065
0.006077
0.070050
0.023320
-0.016249
0.019583
-0.045943
0.013892
0.078240
-0.037683
0.008804
-0.025241
-0.039833
-0.084837
0.113744
0.021727
-0.017203
-0.007874
0.060952
-0.016822
0.011501
-0.036046
-0.028390
-0.007915
0.068947
-0.030833
-0.041567
0.004776
0.078655
0.005325
0.109135
0.051950
0.020250
-0.021714
-0.084279
-0.001350
-0.055710
0.053952
-0.063169
-0.043558
0.047123
-0.055396
0.087076
0.085330
-0.005233
0.074403
0.066605
0.052664
-0.007150
0.028774
0.013955
-0.046553
-0.003683
-0.053879
0.025754
0.014247
0.017448
0.020177
0.062680
-0.020357
-0.032992
-0.081201
-0.058176
0.033903
-0.035637
0.026357
0.030747
-0.049937
-0.055820
-0.022179
-0.075511
0.017866
-0.060542
0.018034
-0.048207
-0.015788
0.037497
-0.104305
0.003481
0.019322
0.003281
-0.079258
-0.055690
-0.085275
-0.078824
0.010171
0.002518
0.044166
-0.010865
0.025852
-0.051206
0.065452
0.052500
0.028828
0.045969
0.018062
0.020454
0.028162
-0.074815
0.057770
-0.019526
0.003569
0.023815
-0.073970
0.036630
-0.049369
0.053173
-0.028196
-0.047057
0.007634
0.129608
-0.030986
0.047168
-0.050323
0.059002
-0.036541
-0.036603
0.058003
0.052585
-0.080669
-0.068329
-0.066708
0.002031
0.049611
-0.060613
-0.054261
0.002930
-0.051149
0.058338
0.017484
-0.035896
-0.082445
0.010635
0.096209
-0.031571
0.036970
0.043209
0.093001
-0.029220
0.009978
-0.078198
0.070832
-0.020451
0.006240
0.019282
0.062971
0.000765
-0.066982
0.038292
-0.000146
-0.102996
0.004551
-0.016119
0.044459
0.037284
-0.034603
-0.013797
-0.033000
0.033241
-0.073748
-0.044662
0.063123
0.001625
-0.084941
-0.031882
-0.009362
-0.007289
0.007401
0.035359
-0.089340
0.065522
-0.042822
0.029047
0.009646
0.022546
0.096357
0.096168
-0.119695
-0.040384
0.044240
-0.131887
-0.009705
0.112244
-0.097092
0.039812
-0.024627
0.017445
0.109636
0.041752
-0.021635
0.081892
0.057822
-0.044798
-0.056930
0.022268
-0.052694
-0.009964
0.050426
0.013816
-0.037513
0.024551
0.120510
0.051215
0.070060
-0.069240
-0.037245
0.017885
0.049358
-0.010604
-0.015566
0.031533
-0.037060
0.068310
-0.042776
0.033876
-0.025757
-0.054181
-0.040223
0.035484
-0.011532
0.003575
0.054952
0.037709
0.065453
0.008559
-0.027465
0.038438
0.008204
0.036557
0.052039
-0.012855
-0.015759
-0.021535
-0.005045
-0.029211
0.080029
-0.002232
0.014364
0.062794
-0.012975
-0.010522
-0.017695
0.014073
-0.046773
0.027015
-0.023831
0.081390
-0.031695
-0.054132
0.014002
0.024809
0.028330
-0.027124
-0.008868
-0.062357
-0.031784
-0.015866
0.085747
0.022579
-0.028977
-0.025157
-0.018121
0.036660
-0.043654
-0.027016
0.011493
0.012539
-0.025823
0.018637
0.048189
0.023081
0.034356
-0.053836
-0.040885
-0.015799
-0.033005
0.018621
-0.034862
0.003422
-0.041991
-0.001792
0.012613
-0.003334
0.016200
0.036896
0.021477
-0.001050
-0.044192
-0.041640
0.001312
0.024460
-0.006626
0.027534
0.030324
0.023541
0.028480
0.034867
0.009737
0.024372
-0.006960
-0.003124
0.053965
-0.000792
0.024831
0.029407
-0.054290
0.050519
-0.018097
0.023499
0.012712
-0.006915
-0.034614
-0.041526
0.010239
0.022111
-0.060186
-0.011426
0.030653
-0.011028
0.022243
0.005928
0.010126
0.026345
0.001224
-0.051579
-0.035872
0.040393
-0.037006
-0.041117
-0.007211
0.000233
-0.056137
-0.043468
-0.024146
-0.011012
-0.007578
-0.032109
0.005254
-0.008683
-0.015619
0.084710
0.010114
0.009639
0.050807
-0.045288
-0.039472
0.029950
0.016710
-0.016963
-0.032941
-0.010221
-0.008927
-0.071275
0.003633
0.032241
-0.020572
0.057317
-0.051483
-0.037971
0.037956
0.039981
0.030289
0.031298
-0.043508
0.012065
-0.026753
-0.002847
-0.047844
-0.040648
-0.010529
0.058134
-0.017437
0.051821
0.019703
0.001023
-0.013368
0.085166
-0.086255
0.000260
0.010166
0.014293
-0.030827
-0.033455
-0.011368
-0.002182
-0.024038
0.027785
-0.024777
-0.076320
-0.036884
-0.031120
-0.058173
-0.036610
-0.012142
-0.060652
0.048073
0.048336
0.035698
0.039731
0.069392
0.030963
-0.021990
-0.035329
-0.018552
0.019352
-0.040668
0.003744
-0.003881
-0.015507
0.027511
-0.020585
0.042628
0.013498
0.022636
0.037733
-0.000524
-0.009951
0.010772
-0.043952
0.044008
0.062244
0.088433
0.007298
-0.012408
0.023760
0.010160
-0.000889
-0.048324
-0.043902
0.009523
0.019509
-0.052209
0.007697
-0.005893
-0.050391
0.018907
-0.023996
-0.075336
-0.006511
0.046649
-0.053134
0.066310
-0.016672
-0.028003
-0.028624
-0.026934
-0.093209
0.019545
0.034520
-0.100898
0.036703
-0.064598
-0.041301
-0.013410
-0.063630
-0.021206
0.027853
0.032888
-0.041608
-0.023287
-0.035101
-0.015495
-0.013150
-0.040066
0.026490
0.070000
-0.117027
0.089594
0.037108
0.013628
0.051476
0.001975
0.013932
0.053352
-0.003514
-0.040206
-0.047976
0.006962
-0.043606
0.040343
0.003929
0.002119
0.067086
0.004262
0.042804
0.064391
-0.011098
0.021467
0.026659
-0.020858
-0.001042
0.034912
-0.032816
-0.075685
0.135051
-0.027839
0.027304
-0.006408
0.046844
-0.015814
-0.013698
-0.010240
-0.013850
-0.022890
0.004204
0.025353
-0.077404
-0.011118
0.043968
0.014832
0.100771
0.069021
-0.032261
-0.083378
-0.015247
0.046009
-0.026801
0.015164
-0.035363
-0.021686
-0.020358
-0.018372
0.081866
0.041902
0.032462
0.030492
0.032004
-0.020162
-0.027795
0.112893
-0.030828
-0.016564
-0.016806
-0.034088
-0.014208
0.050933
0.000566
0.018095
0.046264
-0.028876
-0.029181
-0.091483
-0.034695
-0.017892
0.025317
0.097677
0.048037
-0.057084
-0.044351
-0.018363
0.003134
0.026957
-0.075754
-0.065970
-0.009949
0.026900
0.043150
-0.122450
-0.002878
0.049883
0.015969
-0.050267
0.004773
-0.070974
0.012449
0.040902
-0.092147
0.043142
0.050560
-0.011260
-0.049744
-0.048601
0.029293
-0.033081
0.059427
0.027400
-0.023873
-0.029352
0.076405
-0.058533
0.003154
0.101025
0.010453
0.129687
0.034819
-0.009884
0.042523
0.057603
-0.005762
0.014974
0.035509
0.036716
0.007985
-0.072351
-0.023024
0.065054
-0.011881
0.083299
-0.022419
-0.059385
-0.036986
0.006211
0.023116
-0.048132
-0.044503
0.033857
0.044074
0.022105
0.008645
0.032984
0.042224
0.026589
-0.025617
0.004989
0.034324
0.094113
-0.086362
0.077856
-0.024264
-0.030057
0.003897
0.005357
-0.021765
-0.047989
-0.050927
0.119339
-0.013989
-0.004635
-0.004074
0.028372
0.020219
0.118098
-0.059691
-0.021158
0.049473
-0.058141
0.008972
-0.056119
0.064693
0.019640
0.097428
0.001227
0.028718
-0.045606
0.034104
0.053029
-0.035822
-0.025311
0.004260
0.049867
0.032166
-0.040694
-0.026690
-0.084002
-0.044219
-0.012056
-0.040737
0.016610
0.032232
0.050117
0.008203
-0.027565
-0.000265
0.025687
0.010488
-0.013121
0.025256
0.106568
-0.000637
0.016072
0.004968
-0.035045
-0.111150
0.058050
0.033351
0.107598
0.028557
0.088217
0.012602
0.083367
0.025377
0.005040
0.054800
0.025657
0.001916
0.097353
-0.036557
-0.028361
0.019155
0.049992
-0.056227
-0.019648
0.091071
0.001600
0.048818
0.029604
-0.031316
-0.074163
-0.008153
0.054927
-0.049939
-0.010088
0.036479
0.000751
0.055629
-0.005156
-0.021626
0.016687
0.060105
0.031360
0.045479
-0.004146
0.072896
0.004334
0.049145
0.029931
-0.087576
0.033697
-0.036526
0.006854
-0.007010
0.046160
0.015083
-0.065799
0.004927
-0.022384
-0.004373
-0.038091
0.012063
0.045563
-0.025833
-0.038328
-0.046208
-0.074600
0.100205
0.102198
-0.084233
0.051238
0.011439
0.030162
0.035757
-0.037135
-0.081336
0.055296
-0.058355
0.055902
0.006853
0.007534
0.043151
0.025292
0.083133
0.149778
0.033076
-0.004332
0.044218
-0.036996
0.075617
0.002183
0.060250
0.051873
0.027943
0.009801
0.060125
0.019199
0.036805
0.047171
0.010541
0.019733
0.009380
-0.002807
0.090443
-0.060649
-0.053965
-0.084004
-0.052620
0.097620
0.026709
-0.074124
0.017418
0.048210
-0.055075
-0.040509
0.049502
0.011394
-0.006386
-0.000149
-0.017618
0.083669
-0.006694
0.042238
0.041140
-0.017484
-0.067242
-0.008027
0.002075
-0.019900
-0.036139
0.032791
0.045502
0.045054
0.142322
-0.030058
-0.036609
-0.003919
-0.044736
-0.038174
-0.028910
0.004715
0.059945
-0.006709
0.023915
-0.017858
-0.036711
-0.021344
-0.013120
-0.042070
-0.040884
-0.015095
-0.026467
0.036087
0.024774
0.037289
-0.042643
-0.025402
0.028491
0.106282
0.025371
0.035331
0.039785
-0.008510
0.004585
0.029463
-0.038169
-0.023305
-0.054176
0.040734
0.052977
0.012945
0.057048
0.037225
0.004552
0.016271
-0.021631
0.000906
0.014628
0.051747
-0.041808
0.007932
0.069918
-0.041296
-0.027764
0.049974
-0.062198
0.013483
0.023923
0.024491
-0.066928
0.002557
-0.032291
-0.069944
-0.005027
0.061463
-0.026957
-0.048292
-0.007943
0.014899
-0.016984
-0.019840
-0.005435
0.030308
0.071537
-0.007476
-0.028874
0.032563
-0.009013
-0.009649
-0.018517
-0.017911
-0.050704
-0.000626
0.032629
-0.060926
-0.060446
0.009565
-0.007455
-0.030000
0.003307
0.014716
0.016883
0.016094
0.028962
0.017111
-0.067458
-0.022976
-0.035466
-0.004772
0.029838
0.046378
0.017570
-0.063876
0.031765
-0.042968
-0.002162
0.046131
-0.062781
-0.028122
-0.030347
-0.029548
-0.064550
0.001909
0.020255
-0.042556
0.052587
0.014978
-0.016094
0.025021
0.056746
-0.067089
-0.051380
0.019112
-0.032842
-0.067527
-0.054824
-0.001934
-0.006360
0.081521
-0.078480
-0.028949
0.011784
0.050615
0.000022
0.041561
0.035642
-0.022594
0.008657
-0.008980
0.031999
-0.029674
0.044505
0.012767
-0.065442
-0.052370
0.014918
-0.014418
0.045967
0.023236
-0.044353
-0.103775
0.006082
-0.038821
-0.007392
0.049103
0.042370
0.004933
-0.055859
-0.087489
-0.070604
-0.049467
-0.057374
0.038744
0.055803
0.074993
0.052383
-0.033467
-0.043691
-0.002159
-0.027766
0.035872
-0.005795
0.022923
0.034518
0.041172
0.037102
-0.009860
0.022014
0.070761
0.014658
0.027997
0.050830
0.090727
0.051307
-0.060451
-0.062603
-0.007735
0.008336
0.071964
0.015638
-0.037409
0.026720
0.009968
-0.129143
0.047776
0.039474
0.048363
0.073621
0.041240
0.054227
0.016460
0.061987
-0.009912
0.063788
-0.081299
0.012460
-0.042217
0.002324
0.003226
0.013094
-0.046013
-0.003744
-0.013897
-0.036283
-0.006046
-0.112183
-0.021453
-0.018369
-0.068540
0.008090
-0.003448
0.008927
-0.007832
-0.053651
-0.034968
-0.006488
-0.041832
0.105266
0.099113
0.053532
0.100734
-0.023632
-0.010614
0.020282
0.045662
-0.011552
0.069563
0.042965
0.070167
-0.048346
0.050269
0.052989
-0.032479
-0.072749
-0.009266
0.072829
0.033266
0.017138
-0.038666
0.032031
-0.037670
0.041654
-0.022211
0.009307
0.005767
-0.023984
-0.061296
-0.005727
0.004482
0.035412
0.014881
0.019699
0.064667
-0.056977
-0.021283
-0.055512
0.075137
-0.001089
-0.030312
-0.049204
-0.040008
-0.007778
-0.044871
-0.015545
-0.017205
0.007646
-0.026677
-0.036454
0.007434
0.024482
-0.056378
0.001987
0.006521
0.025835
0.038024
0.018494
-0.026678
0.013421
0.009465
0.010041
0.043713
-0.044663
-0.008128
-0.001324
-0.003608
0.015800
-0.033121
0.065542
-0.016649
-0.022361
-0.013520
0.004553
0.042246
-0.015560
0.000344
-0.005981
0.021843
0.019833
0.016940
-0.000110
-0.010288
0.016577
0.008884
-0.027920
0.006975
-0.003738
-0.019078
-0.022417
0.006104
-0.002552
-0.012323
0.011590
0.012153
-0.024024
-0.025872
0.006510
-0.010553
-0.001058
0.009236
0.047752
0.020575
0.019533
0.017737
-0.033533
-0.020968
-0.034624
-0.028359
0.010186
-0.000553
-0.047829
0.037897
0.000230
-0.011850
0.029425
-0.052349
-0.082899
-0.036124
-0.015092
-0.006666
0.014393
-0.006314
-0.014310
-0.010903
-0.037955
0.000830
0.015799
0.024183
0.045954
0.060496
-0.021524
0.007533
0.035093
0.019998
0.014631
-0.051495
0.055463
0.058970
0.050894
-0.013004
-0.045428
0.042453
-0.044343
0.026642
0.048587
0.052529
0.001977
0.004220
-0.056635
-0.060975
0.029250
0.028263
-0.007858
0.030138
-0.045971
-0.024595
0.025167
-0.002315
0.008735
-0.064798
0.015196
-0.015689
-0.056180
-0.010899
0.010011
0.005391
0.006441
-0.100968
0.054722
-0.070948
-0.052744
-0.025471
-0.068490
-0.054517
0.004411
0.044678
0.003160
-0.004709
-0.021706
-0.055659
-0.012815
-0.093018
-0.017803
-0.000849
-0.057742
0.012055
0.011819
0.046936
0.021955
-0.017850
-0.023445
0.024692
-0.004913
0.038963
-0.011691
0.021591
0.032091
0.057912
-0.037830
0.031001
0.029090
-0.023398
0.015695
0.025988
-0.144533
-0.025523
0.082313
0.065589
0.037006
-0.026100
0.016408
-0.083834
0.098641
0.021354
-0.023254
0.024126
-0.069588
-0.073951
0.033083
0.012839
0.000489
0.029350
0.004064
-0.081414
-0.073799
-0.015579
-0.023434
-0.022499
-0.050643
-0.019740
0.134129
-0.084140
-0.045880
0.047892
-0.027773
0.068751
0.082641
-0.082115
0.010109
0.073966
-0.052857
0.054939
-0.038828
-0.030411
0.064508
-0.018523
0.029495
0.045076
-0.017497
0.062666
-0.029357
0.098368
0.009667
-0.104598
0.011454
0.033987
0.054694
0.011545
0.038402
0.025220
-0.046554
-0.029272
0.031473
-0.005286
0.003600
0.001397
-0.019488
0.057082
0.061832
0.022513
0.023696
0.029590
-0.018660
0.015380
0.033418
-0.010853
0.009825
-0.056687
0.006857
0.103864
-0.051220
-0.022193
0.043309
0.002388
0.081225
-0.032874
-0.025008
0.037238
-0.053316
0.034446
-0.001274
-0.027694
0.003417
0.037095
0.009152
-0.038538
0.011283
0.013318
0.042829
0.022253
-0.032447
0.013193
0.048770
-0.001997
0.014473
0.061932
-0.018153
0.012888
0.051398
0.094774
-0.055261
-0.024361
-0.029984
0.019942
-0.026598
0.059004
-0.050771
-0.035009
-0.011213
0.043994
0.014471
-0.020293
0.044219
-0.031874
0.013682
0.065018
0.016410
-0.059576
0.015182
0.032006
-0.052071
-0.020918
-0.047005
0.004324
-0.029211
-0.052481
-0.043488
0.025740
-0.037552
0.024707
-0.054024
-0.066518
0.025224
0.000793
0.026528
0.033340
-0.027528
0.067858
-0.010603
0.040860
0.085715
0.054032
0.010475
-0.053975
0.009797
-0.022091
-0.023843
0.081280
0.003343
-0.034577
-0.021391
-0.034652
0.029532
0.074443
-0.057287
-0.011308
-0.000343
0.093714
0.018025
-0.023414
-0.002848
-0.037550
-0.041884
0.021263
-0.042405
-0.099800
-0.025828
-0.046956
-0.046190
-0.025958
-0.070754
0.012026
-0.031959
-0.063512
0.011957
-0.058992
0.024548
0.077371
0.044475
0.045713
0.027896
-0.008670
0.019381
-0.052751
-0.013991
0.087105
-0.023777
0.058634
0.065721
0.051003
-0.037132
0.030661
0.027711
-0.011577
0.027016
0.016517
-0.002576
0.050408
-0.025440
0.054234
-0.019092
0.046951
0.046248
-0.003064
0.003165
-0.046570
-0.024701
-0.039656
-0.043903
0.038767
0.015538
0.019101
-0.030497
-0.006327
0.010196
0.037699
-0.033058
-0.012241
0.028435
0.013587
0.031634
0.078714
0.010528
0.017539
-0.015882
-0.064555
-0.015825
-0.074590
0.027302
0.001145
-0.042713
-0.005789
-0.065662
-0.008414
0.030950
0.009973
-0.046812
-0.086948
0.059494
0.036081
-0.011715
0.070715
0.011409
0.005589
0.046198
-0.008845
0.031443
0.000336
0.007919
-0.011716
-0.000605
-0.045706
0.010011
0.024592
0.051285
-0.031857
0.015077
-0.033968
-0.049367
0.069800
-0.083610
0.048393
0.026726
0.015270
-0.018143
-0.023945
-0.039928
0.036321
0.013869
0.001175
0.070308
0.021701
0.061423
0.050001
0.007081
0.066609
0.008397
-0.002763
-0.001286
0.050899
0.019477
-0.071257
0.010624
0.026355
0.064643
-0.004808
0.005734
-0.039878
-0.015453
-0.039169
0.018314
0.033571
-0.051890
0.050169
0.012511
-0.022538
0.042416
-0.018353
-0.019267
-0.086992
-0.018532
0.021154
0.073487
0.057987
0.011743
0.034268
-0.026477
0.026062
-0.054583
-0.110818
0.058419
-0.064105
-0.056827
-0.032769
-0.085793
-0.015052
-0.029376
-0.002121
-0.013776
0.072675
0.031952
-0.004041
0.044880
0.013065
0.041076
0.030323
-0.053529
-0.047418
0.067555
-0.057660
0.042404
0.003912
-0.108268
-0.004336
0.009446
-0.064136
0.054256
0.057353
-0.053712
-0.054669
0.055472
-0.022145
-0.045056
0.002993
0.034542
-0.083429
0.006328
0.003180
0.010258
-0.019391
0.111031
-0.040170
-0.066203
-0.045219
-0.009445
-0.019987
-0.029063
0.014050
0.028384
-0.002383
0.063766
0.062942
0.117086
0.083040
0.003496
0.073604
-0.041538
0.034879
-0.052312
-0.093107
-0.006530
-0.047616
0.001790
-0.037887
-0.036449
0.022268
0.016839
0.025417
-0.034982
-0.004470
-0.052357
-0.054053
-0.042438
-0.036372
0.035850
0.119348
-0.004598
-0.013334
0.055985
0.019208
-0.045350
-0.016701
-0.012421
-0.021588
0.029193
-0.068556
0.050268
0.059895
-0.057057
0.004352
-0.019610
-0.016882
-0.011133
-0.041181
0.008621
0.025899
0.038230
0.062391
-0.020278
-0.010424
-0.064457
-0.027848
-0.014249
-0.036562
0.030352
-0.073728
-0.044662
0.034207
-0.098755
-0.011399
0.047509
-0.000033
0.029475
-0.087796
-0.038055
0.041180
0.014825
0.004893
0.044795
0.073668
-0.039447
0.067822
0.030276
-0.032483
-0.017865
-0.002561
-0.039380
0.023755
-0.025865
0.036037
0.017371
-0.031678
-0.080308
0.011896
0.100632
0.025371
-0.003149
0.004178
0.006765
0.045254
-0.077961
0.006949
0.027663
-0.057661
0.015533
0.079884
-0.079964
-0.095113
0.094133
0.023884
0.056394
-0.027159
0.012986
-0.043915
0.004983
-0.036298
0.010097
-0.032439
0.029588
-0.017342
-0.052558
0.004556
0.000129
0.013701
0.072875
0.067914
-0.060078
-0.010107
-0.023403
0.020897
0.017161
-0.036758
0.039136
-0.002120
0.003067
-0.056010
0.070456
0.020664
-0.055851
0.040344
-0.026004
0.037799
-0.048656
0.085985
0.008265
-0.004189
-0.043963
-0.062018
-0.063521
0.000964
-0.023366
0.005192
0.044364
-0.069962
0.024404
-0.054450
-0.024980
0.010167
0.006139
0.006772
0.046533
-0.039738
-0.035199
0.003397
0.008044
0.003855
-0.007738
-0.006818
0.045880
0.044544
0.051994
-0.046099
0.042037
0.048895
0.020792
-0.026894
-0.026014
-0.084432
-0.034426
-0.023504
-0.016910
-0.043225
0.003305
-0.102614
0.067956
-0.045936
-0.021599
-0.012190
-0.012375
0.043180
0.067250
0.012067
-0.012382
-0.034503
-0.034882
-0.016502
-0.020902
0.010127
0.009572
0.086995
-0.101543
-0.013078
0.049993
-0.021984
-0.009125
-0.048061
0.033063
0.056029
-0.076212
0.026843
0.017649
-0.014100
-0.101651
0.035428
0.067337
0.030753
-0.014368
0.067787
-0.015591
0.043822
-0.006308
0.015883
0.159024
-0.045082
-0.052651
0.132304
0.076534
0.004721
0.063049
0.051747
0.035575
-0.087206
-0.005937
-0.103562
0.023182
0.012515
-0.039699
-0.034101
0.017739
-0.024950
-0.051364
0.010346
0.120430
-0.011166
0.045423
-0.088289
0.001609
0.011811
-0.002292
-0.024084
-0.036129
-0.020482
-0.065771
-0.048158
0.021367
-0.073121
-0.019713
0.005339
-0.033325
0.007240
0.008987
-0.001483
-0.016207
0.094855
-0.019550
0.043711
-0.097716
0.025727
0.022209
-0.032866
0.032441
0.066524
0.057026
-0.104042
0.059509
-0.057039
-0.049216
-0.005687
0.003834
0.030458
-0.005690
-0.099741
-0.078062
-0.027790
-0.028128
-0.005730
0.067665
0.021089
0.009554
0.055086
0.031412
-0.065802
0.000091
0.017722
-0.113346
-0.080945
-0.044562
-0.035100
0.021574
-0.018985
0.041088
0.015129
0.043976
-0.053397
0.004560
-0.022251
-0.054307
-0.014152
-0.029886
0.052091
0.006472
-0.031475
0.029913
-0.071964
0.006454
0.027825
-0.019976
-0.072996
-0.009777
0.063275
-0.074656
0.063664
0.016844
-0.010300
0.004167
0.052370
-0.005185
0.088358
-0.039572
0.015195
0.030041
-0.009870
0.018810
0.084281
0.002444
-0.047892
-0.045945
0.011039
0.045958
0.100993
-0.004693
-0.005135
0.071388
-0.055538
0.009710
0.008299
-0.029115
-0.048688
0.006326
-0.007729
0.019904
-0.065326
-0.020644
-0.049369
-0.010509
0.064327
0.018843
0.001179
0.080639
-0.034013
-0.012947
0.013144
0.025501
-0.029318
0.192153
0.033032
-0.010813
-0.072117
-0.041538
0.052491
-0.062983
0.047585
-0.081081
-0.035839
0.017991
0.011818
0.047809
0.037574
-0.007138
-0.011120
0.053030
0.024968
0.041345
0.097484
0.021118
-0.014765
0.026102
-0.001173
0.013294
0.027690
-0.128873
0.085022
0.035315
-0.063065
-0.002816
-0.039296
-0.074388
0.112599
-0.060062
-0.046297
0.012752
-0.042986
0.025026
0.004051
-0.038014
-0.008044
0.044933
0.002709
-0.006381
-0.045025
0.028597
-0.117077
-0.069691
0.042343
0.043187
-0.003682
-0.078346
-0.072579
-0.012035
0.142798
-0.024746
0.056238
0.050889
0.128267
-0.044308
-0.012767
-0.003070
0.071488
0.113079
0.093220
0.017633
-0.011999
0.011623
0.023209
0.005792
0.059562
0.078424
-0.102134
0.063989
-0.019542
0.004594
0.014313
-0.057353
0.032829
0.121272
0.038975
0.077621
-0.023938
-0.017745
0.013234
-0.098196
0.053983
0.001480
-0.045983
-0.029527
-0.048601
0.046765
-0.000712
-0.043115
0.030895
-0.016133
-0.004717
0.088902
0.020411
0.060252
0.003266
0.018884
-0.006079
0.067050
0.102698
-0.079497
0.038167
-0.004590
0.048262
-0.014716
0.128858
0.018708
-0.042624
-0.075979
0.163923
0.073906
-0.025301
0.016012
0.079971
-0.004236
0.118933
-0.063751
-0.033193
0.112291
-0.072231
0.018138
-0.073246
0.007162
0.057514
0.075801
-0.013003
-0.012884
-0.010938
0.021847
0.047516
-0.029934
-0.061455
-0.003643
0.035321
0.063473
-0.014513
0.000222
0.032495
-0.003717
0.069147
-0.030098
-0.024342
-0.065868
-0.062097
-0.128396
-0.102135
0.064846
0.006057
0.012610
-0.042905
0.060152
0.090333
0.070571
-0.011112
-0.012262
0.058379
-0.039084
-0.008419
-0.010534
-0.021632
-0.008207
0.108313
-0.018460
-0.084015
0.002565
0.039844
0.043581
0.010453
0.007972
0.041714
-0.013120
-0.032424
0.021246
-0.059985
0.013874
-0.054305
0.044971
0.007852
0.012932
0.021566
-0.044620
-0.012099
0.047113
-0.011601
0.026991
-0.043968
-0.006491
0.051080
-0.047232
-0.034029
-0.008703
0.068076
-0.028025
0.022825
-0.062307
-0.005168
-0.019954
0.029979
-0.021127
0.016269
0.042949
-0.030581
-0.011241
0.008937
-0.030389
0.009494
0.003392
-0.027521
0.026442
-0.052231
-0.013123
-0.021368
0.011148
0.039270
0.006891
0.023284
0.011490
-0.020594
0.012177
-0.024749
-0.020352
0.047718
0.012001
0.010356
-0.010062
0.035706
0.028702
-0.032605
-0.063789
-0.025863
0.014708
-0.033172
-0.058587
0.054486
0.010121
0.048277
-0.076158
-0.082630
-0.021649
-0.057295
-0.059677
0.047071
0.006646
0.029058
-0.011780
0.015860
0.019115
0.009698
0.029290
0.007671
-0.025099
-0.012473
-0.054343
0.025661
-0.000661
-0.030925
-0.030746
0.019649
-0.044281
-0.029052
-0.082205
0.006900
-0.018803
0.022359
-0.015135
0.072149
0.005451
-0.039555
-0.016477
0.019423
-0.037534
0.036179
0.041750
-0.040422
0.045695
-0.051181
-0.045850
-0.043977
-0.018657
-0.006031
-0.003542
0.034116
0.009048
0.018360
-0.006960
0.037122
0.063168
0.028763
0.020777
0.059510
-0.043047
-0.045943
0.006376
0.026833
0.000998
0.018316
-0.008894
-0.029516
-0.054689
0.003351
0.007550
-0.044339
-0.071152
-0.035993
0.008466
0.009574
-0.007988
-0.005660
0.026764
-0.047422
0.001621
-0.075043
0.006673
-0.016141
-0.048933
0.040510
-0.023110
-0.022167
0.039115
-0.095375
-0.050777
-0.032170
0.004720
-0.005374
-0.023550
0.050242
0.058595
-0.078984
0.026837
-0.018880
0.039445
-0.028011
-0.012285
0.041869
-0.009150
-0.020703
-0.033495
-0.022903
0.052543
0.012546
0.019609
-0.018690
0.016166
0.062811
0.014977
-0.100787
-0.029166
-0.008418
0.001806
0.031292
-0.031801
-0.012731
-0.046384
0.008373
-0.044546
0.027613
0.021729
0.030648
0.027512
0.053050
0.019514
0.070006
0.081657
0.064106
-0.015600
0.045929
0.020322
-0.023981
0.005982
0.018038
0.093186
-0.029749
-0.016460
-0.057818
0.002950
-0.042870
-0.049020
-0.065314
-0.028095
-0.031419
0.082593
-0.024164
-0.017802
0.097793
-0.034363
0.027413
0.049375
0.019468
0.005598
0.050150
-0.037841
0.070100
0.002268
-0.040056
0.039947
0.037914
-0.043706
-0.014811
0.006938
0.058531
0.019048
-0.006890
0.012001
-0.035144
-0.026427
-0.009682
0.027052
0.014359
0.048076
-0.046331
-0.028371
-0.016737
0.089272
-0.158091
0.050539
-0.089348
-0.071504
0.029951
-0.053960
0.007183
-0.013589
0.001189
-0.032675
-0.046981
-0.054239
0.026618
-0.083179
-0.047866
0.028375
0.159949
-0.123438
0.011958
0.084195
-0.079215
0.010318
-0.053329
-0.025424
0.107998
-0.036040
0.002714
-0.003428
-0.008959
-0.062686
0.052339
0.098060
-0.044158
-0.039304
0.048177
0.008301
0.117362
-0.043450
-0.001533
0.080963
-0.050104
-0.060959
0.073244
-0.091058
-0.006150
0.066917
-0.034722
0.029324
-0.054051
0.009692
-0.037502
-0.051506
0.015925
0.006785
-0.061535
0.008333
-0.025793
-0.049192
0.009858
0.052806
0.048906
0.167284
0.011095
-0.024263
-0.038814
-0.036845
0.027307
-0.075577
0.024322
-0.111173
-0.000732
0.018407
-0.122015
0.007360
0.084417
-0.009917
0.048547
-0.008187
0.071819
0.014450
0.137349
-0.016465
0.045917
-0.077902
-0.006141
0.049160
0.008990
-0.154958
0.124015
0.038149
-0.096092
0.007455
-0.110008
-0.063211
0.028412
-0.014686
0.046882
-0.005143
-0.103809
0.002129
-0.019846
-0.087442
0.051895
0.000624
-0.025877
0.041207
0.025245
0.117561
-0.119923
0.028945
0.088223
-0.005854
-0.093559
-0.077474
-0.078833
-0.042601
0.064994
-0.038489
0.038752
0.000685
0.011309
0.032244
0.008988
0.022723
-0.035109
-0.028991
0.065153
-0.008153
-0.059356
0.031217
-0.041353
-0.023631
-0.051193
0.025645
0.051499
0.054294
-0.014482
-0.078850
-0.018039
0.011311
-0.011008
-0.064138
-0.060194
0.035899
-0.092413
-0.029332
0.000717
-0.103870
-0.014102
-0.141621
0.022400
0.063445
0.064035
0.074898
-0.025247
-0.057292
-0.017358
-0.034252
0.003885
0.051776
-0.026917
0.024753
0.063017
0.035256
-0.030344
0.092491
0.095771
0.034552
0.016401
-0.001755
0.008506
0.071117
0.028853
-0.067381
0.035257
-0.031172
0.109194
-0.032831
0.008007
0.040367
0.055141
0.093275
0.132511
-0.017728
-0.022957
0.033349
-0.057516
0.003753
-0.031591
0.024180
0.016662
0.134723
-0.050731
0.010591
0.000993
0.088603
0.011104
-0.017328
0.007950
-0.065281
0.071995
-0.001108
-0.039295
-0.026054
-0.099824
0.001663
-0.026066
-0.125954
0.054517
-0.006975
0.049082
-0.023595
0.066285
0.082342
-0.088349
-0.038504
0.090882
-0.006607
0.062298
-0.060171
-0.056416
-0.002671
0.016840
-0.079940
-0.020819
-0.009669
0.186804
0.030975
0.059131
0.036218
-0.001579
0.031643
-0.025797
0.048955
0.028573
-0.012675
0.068474
0.043867
0.057095
-0.020066
0.051728
0.021799
-0.026130
0.007152
0.043997
0.013211
0.039429
0.023143
0.006439
0.040751
-0.015925
-0.006881
0.012520
0.061893
-0.059497
0.039046
-0.051180
0.040449
0.059784
-0.015026
-0.028614
0.006388
-0.008513
0.028518
-0.002561
0.026609
0.029949
-0.046898
0.038211
0.013348
0.010408
0.038850
0.005625
0.006435
-0.026034
-0.007064
0.046609
0.007175
-0.008037
-0.037518
-0.014136
0.001569
-0.032162
-0.025417
-0.029350
-0.016862
0.074623
-0.030764
-0.047304
-0.022120
0.032254
-0.037601
0.046065
0.072062
0.023885
0.007692
0.066871
-0.035666
-0.012501
-0.003805
0.051868
0.011795
-0.001784
-0.079676
-0.040092
0.039067
-0.044713
0.037876
-0.031558
0.049860
0.004431
0.028456
0.006036
-0.006228
-0.021559
-0.031625
0.011248
0.036506
-0.031550
0.019333
0.020409
0.013236
-0.008970
0.038992
0.037122
-0.063048
-0.011393
-0.079048
0.025153
-0.035617
-0.010530
-0.011091
0.056707
0.071041
0.030731
-0.006891
0.014510
0.071270
0.019604
0.025636
0.005756
0.058199
-0.017611
-0.024766
0.032249
0.014898
0.042624
0.000795
0.026256
0.028021
0.021064
0.007236
0.063102
0.065207
-0.008951
-0.055052
-0.034802
0.077501
0.057029
-0.055052
-0.077845
-0.024333
-0.015951
-0.011331
0.036887
0.012087
-0.042753
0.028483
-0.010619
-0.017245
0.024332
0.051301
0.020379
0.021446
0.031783
-0.035468
0.064740
0.011902
0.012789
0.008827
0.013393
0.007749
-0.001396
-0.052681
0.075714
-0.029635
0.053620
0.028274
-0.038397
-0.002890
0.023266
0.005302
-0.053808
-0.059163
0.022625
0.020799
0.015639
0.081228
-0.031431
0.037970
-0.008660
0.041816
-0.022642
-0.055474
0.012524
-0.077255
-0.020481
0.012493
0.006423
-0.044370
-0.000616
0.003367
-0.016056
0.052769
-0.059200
0.018577
-0.073842
-0.010934
-0.034967
-0.023253
-0.025028
0.063648
-0.034683
0.028135
0.048034
-0.041183
0.021062
-0.013784
-0.026006
-0.013074
-0.005042
-0.034947
-0.009022
-0.042312
0.054748
-0.005593
0.016835
-0.046280
0.071498
0.061674
-0.016738
0.027304
0.044349
0.025129
0.043954
-0.006931
-0.042835
-0.056439
-0.050813
0.028813
-0.012008
0.072866
0.001044
0.000779
0.043889
-0.071336
-0.056459
-0.011600
-0.113120
-0.022966
0.079170
-0.009837
-0.022796
0.030444
0.030354
-0.003111
-0.092924
0.042837
-0.053752
-0.020292
0.073689
-0.041288
-0.020222
-0.091049
-0.026301
0.006494
0.009239
-0.059616
-0.047703
0.052112
0.052672
0.070319
0.031083
0.006070
-0.043922
0.035518
0.017377
-0.010834
-0.072709
-0.107102
0.008438
-0.041291
0.030730
0.007518
-0.109599
0.005295
0.061860
-0.072934
-0.056970
0.038489
0.032369
-0.046127
-0.019483
0.012959
-0.009885
-0.027772
-0.023094
-0.092732
0.046887
0.066403
0.017692
0.018548
-0.004605
0.045506
0.007847
0.036982
0.028100
0.029280
-0.023249
0.053295
-0.027371
-0.042221
0.097694
0.092891
-0.036619
0.065394
-0.006868
0.024073
-0.008775
0.014842
0.037403
-0.025838
-0.023197
0.000255
-0.104422
-0.066062
0.042373
-0.035282
-0.007214
0.021905
0.023497
0.017655
-0.003183
-0.024698
0.051000
-0.021945
0.023924
0.045013
0.005509
-0.002637
0.005750
0.048135
-0.113876
0.012844
-0.039936
0.003515
-0.028601
-0.035142
-0.036834
-0.060974
0.110158
0.026944
0.027782
-0.051256
0.051297
0.046688
0.012837
-0.030585
0.007552
0.072798
-0.043523
-0.022142
-0.106264
0.044802
-0.051641
-0.039307
0.052155
0.015464
0.031758
-0.027337
-0.024185
0.078106
0.008730
-0.016492
-0.001853
0.006115
0.014064
0.068780
-0.035497
-0.071819
-0.047904
-0.102134
0.004174
0.031813
0.036818
0.085988
-0.067536
-0.015294
0.028300
-0.006774
-0.015478
0.001091
-0.015693
0.007634
-0.022327
-0.007212
-0.026541
-0.041901
0.036135
0.063541
0.005959
0.016580
-0.006935
-0.035450
0.057583
-0.024910
0.029775
-0.046291
0.022231
0.004791
-0.048066
-0.048295
-0.003670
-0.035522
0.004794
0.014772
-0.000811
0.016656
-0.024491
-0.060907
0.036127
0.049264
0.015765
0.001830
-0.024401
-0.010420
-0.021776
-0.018413
0.016394
0.026257
-0.017678
0.010017
0.079532
0.044219
-0.058650
-0.063662
-0.024975
-0.011371
-0.021501
-0.016636
-0.050105
0.008574
-0.034683
-0.041135
0.063421
0.033939
-0.049493
-0.020009
0.003142
0.011850
0.023724
0.017522
-0.025299
0.019518
0.004187
-0.030360
-0.040233
-0.010743
-0.026475
-0.026977
0.002607
0.014197
-0.070077
-0.025926
0.056027
0.037735
-0.008560
-0.005920
0.040345
-0.057709
-0.021726
0.003371
0.000690
-0.069040
-0.037095
0.007438
-0.070893
-0.012524
0.038204
0.025776
-0.004743
0.062748
0.075610
-0.034592
-0.047250
-0.047607
0.039981
-0.024098
-0.051151
-0.059060
-0.006633
-0.034150
-0.047676
-0.017522
0.052148
-0.036587
0.017762
-0.036834
-0.046020
-0.021793
0.041546
0.004801
0.001358
-0.001220
-0.025703
0.067730
0.036453
-0.102253
-0.001548
0.051707
0.007898
0.014716
0.008961
0.048398
-0.062987
0.069344
-0.023937
0.037983
0.000519
0.032276
0.022678
0.014009
0.000507
0.029829
-0.016437
0.009596
0.014437
-0.052079
0.010098
0.009213
0.041747
-0.041430
-0.020563
0.032312
-0.052348
-0.035962
-0.019958
-0.050912
0.026026
-0.002270
-0.007527
0.003206
-0.068756
0.096357
-0.021155
0.037267
-0.001918
-0.023549
0.014276
0.056204
-0.029251
-0.049488
0.130773
0.024918
-0.023688
0.027943
0.114445
0.005232
-0.005619
-0.008359
0.055253
0.017279
0.003369
-0.031999
-0.025424
-0.091087
0.121727
0.011041
-0.025618
0.024811
0.035828
-0.060470
0.005516
0.006596
0.019031
0.043397
-0.040875
0.013480
-0.076208
-0.031580
0.003374
0.062024
-0.083892
-0.008275
-0.001795
0.037337
0.062418
0.013250
-0.016931
-0.040468
0.024767
0.028294
-0.018703
-0.106257
-0.037620
0.005422
-0.020942
0.110465
0.067862
-0.009018
-0.031431
-0.073264
0.025189
0.071658
-0.006351
0.123912
0.039258
0.060015
0.054325
-0.050303
-0.041106
0.090479
0.000543
-0.047389
-0.026198
-0.032016
0.084288
-0.020528
0.078532
-0.049503
-0.043084
0.005397
0.005240
0.038614
0.046500
0.067811
-0.001121
-0.048253
0.010501
0.030191
-0.028925
0.014601
-0.010273
0.011603
-0.038641
0.063593
0.026496
0.041114
-0.054672
-0.016021
0.018052
0.044141
0.000112
0.008437
0.038192
0.008864
0.097842
-0.027412
-0.012882
0.018599
0.035466
0.029563
-0.004517
0.055729
0.020774
-0.013611
0.143910
-0.024207
0.055610
0.054711
0.006745
-0.040465
0.011660
-0.004176
0.032694
-0.013812
0.017743
-0.000180
-0.007179
0.016501
0.005880
-0.020915
0.056871
0.000948
-0.036659
0.080445
0.061795
-0.033147
0.012135
-0.016021
0.043902
0.049956
0.027927
-0.013838
0.002582
-0.062117
0.038605
0.011342
-0.036454
0.061204
0.005718
0.123211
0.086856
-0.023307
-0.041867
-0.012654
0.020411
-0.077133
-0.044450
-0.012706
0.028013
0.023382
-0.044149
0.036438
0.018125
-0.032031
0.038408
-0.011694
0.013880
0.090048
0.063675
0.027502
-0.005511
-0.026722
-0.034978
-0.003248
-0.016660
-0.017472
0.108245
0.092396
-0.065530
0.025627
-0.099748
-0.031183
0.112397
-0.010768
-0.055740
0.044675
0.016060
0.045862
0.087636
-0.054026
-0.008322
-0.043459
0.051246
-0.017604
0.035999
0.013836
0.011315
-0.006011
0.013791
0.038630
-0.091591
-0.050729
-0.011178
-0.049117
-0.029461
-0.026509
0.015923
-0.032227
-0.034729
-0.057098
-0.049605
-0.016896
0.033463
-0.057383
-0.023313
0.017714
-0.016535
0.036365
-0.003065
0.020410
0.030851
0.030782
0.057013
-0.039076
-0.062161
0.000109
0.020229
-0.053338
0.005834
-0.041755
0.033466
0.001984
-0.003551
0.035850
0.004061
0.038911
-0.033485
0.038373
-0.017056
0.048912
0.019940
-0.048274
-0.046594
-0.052105
0.022249
-0.044135
0.021134
-0.028956
-0.039644
-0.009647
-0.078076
-0.020723
0.022422
-0.057596
-0.067595
0.024723
0.059196
0.044675
-0.011314
-0.021755
-0.031094
-0.025186
0.016414
0.045822
-0.032530
-0.015026
0.008275
0.012805
-0.003467
0.010087
0.002269
0.032866
-0.025043
-0.006392
-0.032877
-0.044423
0.013593
0.026250
-0.031685
-0.046452
0.042305
0.046697
0.005143
0.033786
0.017568
-0.043885
0.030569
-0.001133
0.019307
0.038101
-0.011305
0.018233
-0.046155
-0.039497
0.042510
-0.103884
0.015490
0.019388
0.087696
-0.011995
0.041941
-0.031174
-0.019379
-0.054079
-0.047007
0.005555
-0.020960
0.065577
-0.019678
-0.020559
0.059741
-0.001283
-0.026095
-0.022479
-0.041150
0.014128
-0.034213
0.080763
0.003183
-0.017892
0.010160
0.033140
-0.029351
-0.079162
-0.036839
-0.022659
-0.026412
-0.073238
0.075044
-0.056482
0.008507
-0.002289
0.038740
-0.001391
-0.099586
-0.068971
0.062693
0.030629
-0.006877
0.052033
-0.055348
0.038128
0.019771
-0.032396
-0.096770
0.072119
-0.065476
-0.031973
0.001094
-0.053775
0.025138
-0.004684
-0.062613
0.011457
-0.042800
-0.000071
-0.047254
-0.031668
-0.019516
-0.061763
0.057407
0.033416
-0.031241
0.050977
-0.032298
0.076793
-0.040756
-0.081787
0.031862
-0.017578
-0.064854
0.026151
-0.003886
-0.078457
-0.077007
0.063210
0.000451
0.020268
0.087644
0.041931
-0.117845
-0.010232
0.000683
0.004877
-0.064170
0.015970
0.006607
-0.083950
-0.082864
-0.037545
-0.049788
0.017326
0.090854
0.028905
-0.001313
0.053079
0.036918
0.117439
0.055563
0.031540
0.043447
0.012741
0.013807
-0.027939
-0.070858
0.065909
-0.033132
-0.039639
-0.082347
-0.041861
-0.032514
0.088094
0.012364
-0.028248
-0.025859
0.001989
-0.082626
-0.095680
0.120494
0.032521
0.160888
0.042354
-0.047742
-0.025145
0.027671
-0.035546
-0.010830
-0.023350
0.012294
0.083761
-0.005643
-0.027807
-0.012470
-0.006568
0.024421
-0.105102
0.024074
-0.050856
-0.017644
0.049513
0.064858
0.075215
-0.011969
0.033198
-0.052973
0.019787
0.025201
0.027953
0.005616
-0.029413
-0.054242
-0.038484
-0.021681
-0.028709
0.026902
0.028015
-0.035253
0.056132
-0.016952
-0.048480
0.035989
0.004548
0.063653
0.029381
-0.017100
-0.072514
-0.035963
-0.030483
-0.032154
-0.040857
-0.017985
-0.025581
-0.007361
0.055494
-0.046237
0.004637
-0.050067
-0.017380
-0.062811
0.109005
-0.025301
-0.042868
-0.017494
-0.020347
0.083384
-0.046189
0.013048
-0.026747
-0.015253
-0.061934
-0.000001
-0.032209
0.040844
0.073125
-0.092063
0.068768
-0.052809
0.045053
-0.049633
0.004076
0.023707
0.045923
-0.023245
-0.008039
0.003600
-0.026490
-0.003087
0.009210
0.051000
0.036881
0.010065
0.054561
-0.058792
-0.033657
0.052568
-0.010646
0.035110
-0.013961
-0.049513
-0.019588
-0.051605
-0.034700
0.041045
-0.041357
0.041665
-0.044771
0.046384
0.024211
0.114041
-0.026584
0.002735
-0.025269
0.006351
-0.007126
0.010339
-0.129698
0.001971
0.054110
-0.026688
0.003153
-0.001630
-0.042888
-0.062093
-0.058257
0.019174
0.054666
0.001229
-0.018740
-0.042094
-0.045671
-0.054027
0.070513
0.032459
-0.021068
0.035658
0.012531
-0.059253
0.040708
-0.038954
-0.032007
0.019557
-0.002249
0.000308
-0.066540
-0.100745
0.060265
-0.030954
-0.026632
-0.082228
0.028291
-0.057939
-0.100990
-0.072638
-0.046971
-0.011123
-0.010188
0.041580
-0.106387
-0.012287
0.013813
-0.001709
-0.037961
-0.048438
-0.019499
0.142595
0.035381
-0.023533
0.074815
-0.017305
0.043967
-0.011759
-0.001343
0.032092
-0.012599
0.011438
0.044784
-0.018756
0.132378
0.034598
0.027988
0.005866
-0.085315
0.048470
0.030429
0.129494
-0.003030
-0.021884
-0.008418
0.007023
-0.089501
0.018575
0.039839
0.036647
0.033186
-0.068215
0.018329
-0.045447
0.008383
-0.011700
-0.046993
0.033402
0.002189
-0.056748
0.055096
-0.112147
-0.050159
-0.046584
-0.013886
-0.028705
0.101094
-0.126432
-0.026142
-0.045915
-0.071426
0.043823
-0.040246
-0.021365
-0.108766
-0.057559
-0.092908
-0.027924
-0.023976
0.045897
-0.071847
-0.016419
0.016412
0.083336
0.014750
0.035770
-0.046336
0.060550
0.010539
0.061729
0.009344
-0.058561
-0.088040
0.059098
0.105887
-0.042501
0.030274
-0.152125
-0.045880
0.074998
-0.057325
-0.046922
-0.003717
-0.153994
-0.057635
0.022948
0.001400
0.002518
0.147985
0.041419
-0.024350
-0.052363
0.082967
-0.122288
-0.092377
0.034903
-0.008126
-0.021320
-0.036446
-0.072401
-0.034586
-0.018667
-0.061723
0.024976
-0.017294
-0.076781
-0.026809
-0.060566
-0.064224
0.092558
-0.075659
0.053043
0.008025
-0.003333
0.069123
-0.066355
-0.027175
-0.045269
-0.059003
0.066993
-0.022164
0.011074
-0.009947
0.069734
-0.033152
-0.077066
0.000424
0.039545
-0.011411
0.064179
-0.019293
0.025699
0.031563
-0.043384
-0.082269
-0.042586
-0.000032
0.062625
-0.027026
0.038865
0.006998
0.052866
0.004203
0.048722
0.060972
-0.025830
0.019897
-0.018489
-0.071183
0.002025
-0.018673
0.007200
0.005828
-0.047903
0.025025
-0.055339
-0.069731
0.000416
-0.071078
0.052363
0.084472
-0.067289
-0.088380
0.032834
0.038050
-0.084881
0.094936
-0.021961
-0.026843
0.010806
-0.038624
0.033924
-0.056736
0.035155
0.010892
-0.021144
-0.071133
-0.008980
0.071000
0.006101
-0.033189
0.060230
0.071307
0.058868
-0.010565
-0.049494
-0.039505
-0.012272
0.050677
-0.037059
-0.019441
0.019441
-0.106403
0.050044
0.005746
0.061077
-0.017164
0.053913
-0.133726
0.081348
-0.004728
-0.007867
-0.018831
-0.086946
0.048698
-0.003985
-0.077161
0.004030
-0.028134
-0.070271
0.061226
-0.017073
0.024107
-0.096955
0.009144
0.064372
0.059792
0.018781
-0.001890
-0.092843
-0.047632
0.099561
0.033558
0.055121
-0.006873
0.042996
-0.003915
-0.029280
-0.029382
0.082737
0.085317
0.062842
0.062644
-0.046289
0.080710
-0.083550
0.009997
-0.018538
0.021569
-0.015440
0.006785
-0.010393
0.001944
0.056131
-0.075041
0.005516
-0.008418
-0.031075
0.052074
-0.015237
-0.031690
0.061789
-0.049225
0.062624
-0.035958
-0.017602
0.059141
-0.061745
0.027938
0.040174
-0.018612
-0.007713
-0.002115
0.018763
0.087400
0.015975
-0.000458
0.034708
0.067664
0.057818
0.013484
0.091703
-0.055214
0.020237
0.033066
-0.036483
0.017701
0.140119
-0.015567
-0.029325
-0.034698
0.112405
0.029944
-0.063453
0.008443
0.064607
0.038514
-0.018800
-0.093456
-0.083088
0.024703
-0.100026
0.029099
-0.044226
-0.045184
-0.017182
0.079856
-0.025919
-0.062847
-0.004326
0.039411
0.041749
-0.121937
-0.075720
-0.018986
0.066287
0.092854
-0.020901
0.005167
0.032796
0.018128
0.026730
-0.171289
0.034598
-0.108990
-0.062138
-0.009921
-0.008191
0.087926
-0.094249
0.097363
0.026488
0.130237
0.065808
0.009994
-0.006977
0.010667
-0.027597
-0.054405
0.060573
0.022580
0.022876
-0.031582
0.037122
-0.026972
-0.051952
-0.011930
0.107089
0.034929
-0.021818
-0.004199
-0.052546
-0.049356
-0.013949
0.022482
-0.039576
0.017841
-0.056135
0.038357
0.022831
-0.014409
0.001175
-0.044675
0.032071
0.014263
-0.013402
-0.007063
-0.009349
-0.045869
0.010670
-0.033225
0.024675
-0.000280
0.031910
0.070422
0.038375
-0.067898
0.043096
-0.039171
0.056574
-0.004432
0.032180
0.088427
-0.010355
0.042271
-0.014910
-0.006584
-0.061523
-0.072267
-0.029300
0.007586
-0.013734
-0.024764
0.004223
0.023882
0.018989
0.023268
-0.023588
0.010009
-0.031645
-0.029413
0.011753
-0.004116
0.034287
0.031501
-0.042580
0.004682
-0.009162
0.002187
-0.034982
0.019417
-0.010985
-0.004535
0.012078
0.006324
-0.025095
0.056848
0.009266
-0.014598
-0.075418
-0.027234
-0.005773
-0.016527
0.023350
-0.004859
-0.049785
-0.029757
0.017769
-0.027507
0.076533
-0.045703
0.030911
-0.008852
-0.010543
-0.018170
-0.004513
0.045688
0.040106
0.009878
0.005883
0.006444
0.011699
-0.086432
0.036287
0.007532
-0.023331
-0.025601
0.032401
-0.016040
-0.000807
-0.035502
0.005781
-0.000045
-0.075294
0.013624
-0.032848
0.005705
-0.046103
-0.043518
-0.007048
-0.010680
0.016831
-0.017447
0.010200
-0.040103
-0.024408
-0.005518
-0.007304
-0.010342
0.001586
-0.033839
0.014006
-0.121632
-0.105885
0.049176
0.061123
-0.063453
0.054050
-0.022186
0.045860
0.056381
0.060888
0.049948
0.021020
-0.047364
-0.033922
-0.019979
0.009209
-0.051254
-0.044203
0.013907
0.006423
-0.071726
0.015204
0.049450
-0.034423
0.045602
0.071784
0.021508
0.087954
-0.012478
-0.052842
-0.061154
-0.026383
-0.033116
0.035873
0.003447
0.010037
0.053573
-0.024999
0.019476
-0.047557
0.018229
0.015154
-0.022745
0.031895
0.070194
-0.009177
0.034689
-0.051567
0.104379
0.067801
-0.014150
-0.025887
0.074653
0.080899
-0.008371
-0.056302
-0.049278
-0.046073
0.008221
0.014815
-0.018991
0.032489
0.040314
-0.013714
-0.058881
0.126721
0.009589
-0.007688
0.063135
0.043813
0.023972
0.073826
0.051333
0.054548
0.013400
-0.062064
0.082175
-0.018364
-0.028498
0.024019
0.070160
-0.029831
-0.019776
0.035677
0.034899
0.050464
-0.067062
-0.033084
-0.058404
0.028924
0.090677
0.034753
0.000663
-0.058062
-0.039748
-0.052262
-0.030824
0.039762
0.046887
0.018317
-0.022256
0.082769
0.055419
-0.008438
0.020711
0.065063
-0.065203
-0.061271
-0.003292
0.067417
-0.007878
0.023448
-0.025824
-0.057962
0.056766
-0.065970
0.074129
-0.002110
0.015115
-0.014158
0.032310
0.050371
0.032785
-0.092382
0.025446
-0.027053
-0.046021
0.065798
-0.084666
-0.012561
-0.039058
0.044670
-0.014095
0.001564
0.018782
0.031289
0.017889
0.031443
-0.005432
0.095134
-0.040283
0.018728
-0.005811
-0.079383
-0.001422
0.013245
-0.072474
0.060981
-0.031766
0.037872
0.073458
0.001281
-0.011330
-0.009483
0.063973
-0.051963
-0.069701
0.060780
-0.048683
0.099744
-0.050979
0.026902
0.053982
0.004540
0.007104
-0.052782
-0.086250
0.044033
-0.023632
-0.125994
0.029225
-0.044044
-0.036194
-0.072813
0.000818
-0.011570
0.036466
-0.021685
0.026239
-0.096347
-0.041035
0.023700
0.015520
0.014957
0.110855
-0.089509
0.053516
-0.069590
-0.076126
0.038424
-0.001499
0.026532
-0.037561
-0.047810
-0.069456
-0.050139
-0.016479
0.014316
-0.035472
-0.005407
-0.054743
0.083565
-0.001305
0.057248
0.033594
0.034649
0.018330
-0.041507
-0.001529
0.052358
-0.113561
0.061362
0.042486
-0.041606
0.078553
-0.035582
-0.062205
0.026096
-0.043892
-0.080555
0.047825
-0.090358
-0.034820
0.012460
-0.052073
-0.034911
0.108643
-0.020684
0.045849
0.002954
0.072730
-0.098931
-0.001499
0.011057
-0.017734
0.009750
-0.118377
-0.022106
-0.005563
0.123201
-0.044433
-0.038410
0.029563
0.086074
-0.002542
0.011328
-0.054816
-0.053176
-0.015134
0.033544
-0.045516
-0.000619
0.003613
0.015309
-0.106925
0.002209
-0.035012
0.002864
0.011138
-0.112468
-0.035074
0.011995
0.026272
-0.023251
-0.099897
0.018115
0.055467
-0.028225
0.002162
-0.112185
-0.130997
-0.022066
-0.083301
-0.010600
0.038769
0.009039
0.115760
-0.037716
-0.006226
-0.056378
-0.011361
-0.021442
0.004596
-0.027807
0.036030
0.029404
0.044390
-0.050378
0.066806
0.024974
-0.047463
0.019757
-0.022430
0.019787
-0.071784
0.000029
-0.027796
0.054144
-0.080949
0.081670
0.008143
0.043436
-0.023910
0.053513
-0.022626
0.089142
-0.012632
-0.012983
0.039535
-0.040639
0.087645
-0.004216
0.005298
0.059506
0.097149
-0.042075
-0.007943
-0.037918
0.042197
0.047451
0.110278
-0.021051
-0.039719
0.035147
-0.027793
0.003896
-0.024305
-0.031199
0.013151
-0.001446
-0.069159
0.009968
-0.015866
0.036782
-0.121059
0.045774
0.094570
-0.081969
0.096549
0.085939
-0.027153
0.061059
-0.076632
-0.077511
0.081623
-0.024880
-0.130191
-0.051749
0.015065
0.051698
-0.022476
0.086246
-0.009440
-0.062250
-0.001344
0.096476
0.054425
0.017722
0.020862
-0.038607
-0.031859
-0.001372
0.037016
-0.033429
-0.050187
-0.029862
-0.025117
0.076694
0.019337
-0.037072
-0.004417
0.010871
0.015373
-0.011623
0.047133
0.029498
0.019600
0.075618
0.010871
0.037147
-0.011579
0.098102
0.041170
0.026224
-0.041616
0.074304
-0.055381
0.039324
-0.000350
0.017876
0.017560
0.034217
-0.016838
-0.031515
0.002061
-0.033710
-0.055214
-0.047334
0.036001
-0.026907
0.002513
0.071983
-0.007177
0.037497
0.034752
-0.024435
-0.033509
-0.024996
0.017678
-0.049858
-0.004435
0.002546
0.017418
-0.076736
0.022566
0.058017
0.021434
-0.089313
-0.013809
0.048283
0.040505
-0.023768
-0.037022
0.018040
0.128098
-0.034836
-0.034626
-0.071681
-0.013714
-0.061605
-0.000952
-0.059983
-0.062653
-0.023070
-0.020352
0.000953
0.006982
0.060375
-0.031897
0.065367
-0.046586
-0.027556
-0.011514
0.047859
0.084253
-0.000400
0.065922
0.023377
0.027815
0.000459
-0.182466
0.035449
-0.014472
-0.088589
-0.058587
-0.031684
-0.051815
0.087571
-0.049294
-0.074217
0.083945
-0.011021
0.018625
0.000407
-0.049135
-0.070120
0.028988
0.013437
0.014725
-0.040423
0.011176
-0.036191
-0.063704
-0.021674
0.022487
0.040264
0.021652
-0.071056
-0.054347
-0.000409
0.061041
-0.009147
-0.021741
-0.062214
-0.004357
0.000059
0.005236
-0.023835
-0.069245
0.051548
-0.022950
-0.025397
-0.023871
0.026951
0.045666
-0.004929
0.011799
-0.003488
0.001124
0.048603
-0.020198
0.028818
0.018132
0.046546
-0.012159
0.037190
-0.071127
0.014388
-0.035140
0.005574
0.030746
-0.040493
0.000802
-0.027546
0.013997
-0.023458
-0.036748
-0.055818
-0.034563
0.029270
0.069023
0.011421
0.065668
0.017338
-0.007075
-0.015643
-0.010901
0.035076
-0.024987
-0.063857
-0.014037
0.050842
-0.046821
-0.012407
-0.006612
0.021446
0.018663
0.003812
-0.033933
-0.040492
-0.050622
0.038681
-0.005194
-0.049215
0.017416
-0.030383
0.043378
0.009912
-0.011675
-0.032828
0.014592
-0.025423
-0.069040
-0.053449
-0.009724
0.030378
0.001899
0.001423
0.034590
-0.016399
0.026014
0.073355
-0.012487
-0.025945
-0.010786
-0.022733
0.028834
-0.017533
0.038370
0.018471
0.008843
-0.011731
0.000560
0.030342
-0.005307
-0.050422
0.000049
0.035031
-0.012212
-0.038484
-0.040960
-0.066403
-0.021704
-0.005345
0.018107
-0.048541
0.081525
-0.031287
-0.019597
-0.074519
-0.005026
0.012731
-0.000143
0.053762
-0.003421
0.016143
-0.052976
-0.027249
0.033482
-0.039624
-0.062960
-0.142967
0.054935
0.031849
0.014400
-0.047319
0.001000
0.036214
0.014686
-0.008731
0.017869
0.064914
-0.042629
-0.072488
-0.025791
0.037043
-0.034762
-0.070554
0.039164
0.080669
0.032233
-0.020143
0.056214
-0.026260
0.008274
0.000574
-0.031944
0.051171
0.037517
0.010948
0.013905
0.019332
0.109736
-0.012741
-0.030756
-0.050095
-0.025630
0.009516
0.082807
0.057997
0.009955
-0.034144
-0.006852
0.027248
-0.000374
0.005120
-0.004253
-0.038432
0.115197
0.082204
-0.040001
-0.018116
0.035460
0.055077
0.019179
-0.041545
-0.038099
-0.071842
-0.005791
-0.034222
-0.015498
-0.019902
-0.009745
-0.002423
0.115813
0.052466
-0.027140
0.017004
-0.011374
0.063800
-0.024977
0.026979
-0.069173
0.006268
0.028455
-0.053493
-0.003048
0.037442
-0.025821
0.016957
-0.003476
0.010738
0.012685
0.053721
0.024456
0.046786
-0.024971
0.048871
-0.008578
-0.024795
-0.012768
0.087319
0.021425
-0.076176
0.009677
-0.070235
-0.039215
0.078022
-0.020233
-0.006033
0.008331
-0.041928
0.039236
-0.006428
-0.003425
0.038395
0.009673
0.011689
-0.006812
-0.018680
0.039787
-0.026074
-0.052960
-0.018858
0.009692
-0.034798
0.003839
-0.053674
0.004038
-0.043875
0.005767
-0.025403
-0.016379
-0.006505
-0.002792
-0.004729
0.046274
-0.079962
-0.011172
-0.057696
-0.063369
-0.007001
-0.083463
0.015153
0.056173
-0.020754
0.073725
0.033170
-0.048605
0.015427
0.043454
-0.025598
0.056136
0.064286
-0.044696
-0.012153
-0.005037
-0.011509
-0.002252
-0.062525
0.026842
0.027668
0.032703
-0.008782
0.016885
-0.019541
-0.052197
-0.020425
0.020976
-0.032072
0.008806
-0.016261
-0.024473
0.003852
-0.007217
-0.011862
0.009429
-0.008785
-0.016411
-0.041212
0.004184
-0.027817
-0.037231
-0.003187
0.056492
-0.074162
0.030796
0.020370
0.014747
-0.020571
-0.000304
-0.031870
-0.034823
-0.001022
-0.010743
-0.041832
0.095457
0.033997
-0.040306
-0.009390
0.031461
0.072623
0.032253
-0.052759
-0.041463
0.050273
-0.030844
0.048147
0.045012
-0.016933
0.001723
0.006650
-0.020720
-0.070003
0.013584
0.026712
-0.007905
-0.050661
0.003738
-0.015600
0.080110
0.007499
-0.009973
0.086050
-0.015731
0.021450
0.039534
0.005362
-0.021615
-0.010468
-0.092295
-0.022385
-0.087176
0.013325
0.029331
0.006580
0.004868
-0.034729
-0.056318
-0.050668
0.000280
0.031543
-0.005386
0.052586
0.014294
0.012122
-0.053974
0.002570
0.064582
-0.005921
0.008642
-0.018785
0.053764
0.029134
0.015700
0.021854
-0.023809
-0.020462
0.041121
0.035938
0.043415
-0.041594
0.001899
-0.040175
0.019355
0.007960
0.029746
-0.003075
0.072438
0.013570
-0.046308
-0.041933
0.035644
0.011545
0.048389
0.007178
0.062485
-0.028820
-0.045556
-0.037270
-0.065894
0.061267
-0.025066
-0.022136
0.048255
-0.072820
0.005556
0.079647
0.064064
0.023967
-0.021080
-0.003409
0.043650
0.011247
-0.074993
0.050413
0.024020
0.030503
0.083476
0.091752
-0.011130
-0.066492
0.047209
0.072379
-0.039166
0.042512
0.028945
-0.060840
-0.065312
0.065912
-0.014111
0.010393
0.035566
0.019443
0.054357
0.002574
-0.069672
0.019699
-0.026010
0.003957
-0.059325
-0.067467
-0.030042
0.029862
0.042513
-0.056878
-0.030741
0.038224
-0.006969
0.000302
-0.010494
-0.045265
0.036075
0.084700
-0.012816
0.035445
-0.049193
0.001257
0.030072
0.008826
-0.066822
0.033740
0.000608
-0.118583
0.003598
-0.050035
-0.005826
-0.001708
0.069035
0.113589
0.033966
0.019352
0.011057
0.002008
0.015502
0.006261
-0.032728
-0.028894
-0.002416
0.008231
0.026422
0.020570
-0.023011
-0.064404
0.000254
0.017940
0.019128
0.002247
-0.050632
-0.015489
0.052862
0.007659
-0.017190
-0.057146
0.016424
-0.007232
-0.008470
0.011191
0.024727
0.033116
0.068846
-0.057154
0.039732
-0.037360
-0.033942
0.038867
0.020893
-0.007297
0.007284
0.051790
-0.030235
0.066425
0.017544
-0.000087
0.044439
0.013628
0.028537
0.034366
0.002981
0.020422
0.006814
0.039132
-0.047669
-0.027113
0.017845
-0.043724
0.002184
0.058828
0.021046
0.013562
-0.021054
0.009362
0.035784
-0.019289
-0.077472
0.064751
0.027136
-0.000801
0.039559
0.062709
0.007215
-0.064982
0.018599
0.020784
-0.055773
0.088536
-0.013524
0.025495
-0.037026
0.027470
-0.033707
0.004125
-0.018188
0.074670
0.097953
-0.064895
-0.000354
-0.022642
0.011239
-0.020466
-0.028207
-0.095498
-0.076889
0.019450
0.070092
-0.095682
-0.012656
-0.010367
-0.029040
0.003076
-0.055636
-0.023050
0.029330
0.131590
0.044046
0.018812
0.007524
0.041736
-0.004286
0.017032
-0.113720
0.050767
-0.019215
-0.066178
-0.004510
-0.007131
0.024363
-0.014533
0.072545
0.056326
0.039397
-0.026520
-0.068066
-0.010643
0.049886
-0.017168
-0.022451
-0.009478
-0.028412
-0.017725
0.041780
0.026041
0.021552
0.010795
0.006760
0.004280
-0.039588
-0.005765
-0.007870
-0.046910
-0.018166
0.056201
-0.045624
-0.043420
0.013104
-0.051091
0.017769
0.024935
-0.000189
-0.021219
0.006985
0.048969
-0.001725
0.014850
0.031439
0.049708
-0.020781
0.099181
-0.042619
-0.033914
0.034267
0.049671
-0.010211
-0.046100
-0.057930
-0.017374
-0.036510
0.031079
0.004917
-0.014509
0.035207
-0.015396
0.027463
-0.063083
-0.022795
0.046184
-0.034785
0.021046
-0.017276
0.037722
0.001016
0.078181
-0.081576
0.004810
0.056996
-0.018790
-0.061801
0.020744
-0.029178
-0.021104
-0.010096
0.096696
-0.024917
-0.016659
0.038834
-0.061203
0.001469
0.038016
0.033159
0.007826
0.023760
-0.046105
-0.015779
0.013650
-0.043371
0.031104
-0.027883
-0.035235
-0.002365
-0.077039
0.021217
0.012630
-0.022634
-0.072702
-0.061875
0.072107
0.072742
0.017030
0.002901
0.035509
-0.011849
-0.009189
-0.042265
-0.036281
0.029959
-0.048106
0.057727
0.002581
0.024024
0.015625
0.000484
-0.019067
-0.024071
0.054688
0.036148
0.032282
-0.041434
-0.046384
-0.047615
-0.066166
0.040236
-0.027215
-0.012540
0.044078
-0.053137
0.063254
-0.017169
0.030792
0.043067
-0.023614
-0.033021
-0.071028
0.088633
0.070710
-0.039732
0.024354
0.053183
-0.020133
-0.010431
0.034751
-0.015804
-0.030927
-0.074926
0.022063
-0.024037
0.043441
0.078103
-0.015263
0.014838
-0.015410
-0.072613
0.002090
-0.008146
0.030767
-0.039451
-0.037973
0.015292
0.023985
0.050350
-0.080143
0.010954
-0.054602
0.019406
-0.014872
-0.031322
0.032660
-0.027043
-0.029146
0.052157
-0.035716
-0.023049
-0.041707
-0.023501
0.026616
-0.013878
0.112578
0.038270
-0.049671
-0.067616
-0.046010
0.015230
-0.019851
-0.079692
0.048410
0.039098
-0.028819
-0.009190
-0.052448
-0.037501
0.032655
-0.004324
0.020734
0.012175
0.108140
0.022194
-0.171587
-0.036054
0.017696
0.000473
-0.025879
0.005284
0.049010
-0.095432
-0.085838
-0.140061
0.014973
0.016540
0.129935
0.026478
0.042704
0.041721
0.100731
0.085443
0.059144
-0.065191
0.100710
0.078558
-0.019189
-0.001125
-0.005713
0.102382
-0.044060
0.001073
-0.089876
-0.036690
-0.060327
0.040256
-0.025573
-0.030871
-0.067317
0.164645
-0.083694
-0.046583
0.076264
-0.101744
0.054804
-0.020527
-0.005389
-0.039564
0.009643
-0.011204
0.053426
0.005781
-0.045835
0.044867
0.044415
-0.040979
-0.040099
-0.020299
0.073567
-0.103243
0.050843
-0.049895
-0.045712
0.038955
-0.062585
0.033725
0.062662
0.004678
-0.070546
-0.011086
0.016387
0.014048
0.013246
-0.002466
0.015259
-0.010329
-0.007662
-0.056805
-0.063786
-0.016825
0.035832
-0.023024
-0.021799
0.032871
0.002557
0.010934
0.042777
-0.090998
0.016447
-0.036714
0.019569
0.040530
-0.009062
-0.034216
0.005785
-0.086947
0.015874
0.012596
0.046973
0.039125
-0.080863
0.038417
-0.002708
-0.038408
0.012195
-0.072678
-0.002697
-0.004192
0.063534
-0.043377
0.070376
-0.075301
0.011005
0.066672
-0.073199
-0.045003
-0.004410
-0.026318
-0.055712
0.037856
0.001560
-0.028071
-0.052231
0.068459
-0.045859
0.031512
0.035981
0.037523
-0.070346
0.050114
0.002712
-0.027783
-0.035272
-0.011015
-0.003920
0.038366
-0.003056
-0.013292
0.078387
0.063679
0.077668
0.010326
-0.053199
-0.069848
0.016351
0.028913
0.050383
-0.024721
-0.022497
-0.006536
0.003955
-0.023053
-0.023769
-0.000485
0.062598
0.049682
-0.020404
0.018198
0.018373
0.049935
-0.073559
0.056253
0.033076
0.067539
0.000180
-0.069573
0.024050
-0.067719
-0.057472
0.018235
0.010565
0.046877
0.019713
-0.078023
0.020817
0.050297
0.033855
0.037865
-0.008952
-0.010058
-0.025788
0.010415
0.048748
-0.011515
0.003116
-0.055848
-0.034884
0.021151
-0.082633
-0.048204
-0.138431
0.004629
-0.095886
-0.008777
-0.017863
-0.085249
-0.021940
-0.064961
-0.085653
0.049632
0.034180
-0.049822
-0.068959
0.015111
0.025166
-0.043392
0.009468
-0.038912
0.122344
0.031718
-0.040131
0.034704
-0.015409
0.004469
0.069952
-0.028781
-0.003410
0.057832
-0.024474
0.053532
0.010481
0.017778
0.013850
-0.039717
-0.051750
-0.013901
0.090224
0.049927
0.047006
0.041299
-0.021750
-0.003650
0.000790
-0.056158
0.040654
0.014324
0.018560
0.046643
0.006841
0.038185
-0.008403
-0.028819
-0.002724
-0.054632
0.027716
-0.063098
-0.038609
0.009338
-0.074648
-0.033833
0.026172
-0.062390
-0.025632
0.049222
-0.056488
-0.025927
0.013560
-0.004622
0.102061
-0.058627
-0.015091
-0.007292
0.025909
-0.038939
-0.075638
0.045490
0.032389
-0.059400
-0.013314
0.029259
0.036385
0.075285
0.008023
-0.058402
0.083954
0.021769
0.063660
-0.039392
0.021232
0.109914
0.029719
0.042603
-0.058367
0.026850
-0.129055
-0.048402
0.060855
0.005029
-0.039000
0.029336
-0.107200
0.008685
-0.065156
-0.032230
-0.010236
0.032276
0.006470
-0.061532
-0.059028
0.054920
-0.032885
-0.017679
-0.001380
-0.051069
-0.007155
-0.024293
-0.090386
0.024458
0.024048
-0.007374
0.001458
0.014982
-0.057283
0.006371
0.036577
-0.031154
0.010515
-0.084086
0.019683
0.019108
0.048279
0.027867
0.073629
-0.076190
-0.065372
-0.098520
0.073317
-0.044235
-0.042701
-0.054196
0.003254
-0.052738
-0.034771
0.030911
-0.021633
-0.006346
0.014061
-0.001637
0.030101
0.012297
-0.022059
-0.034507
0.005507
0.002603
0.086447
0.056868
0.009646
-0.046904
-0.026884
0.015176
0.046504
-0.034919
-0.028483
0.008293
-0.059974
-0.029372
0.047329
-0.040439
-0.004108
0.041850
-0.028968
-0.012997
-0.012599
0.011643
-0.030097
-0.046735
0.086597
0.050893
0.034214
0.021789
0.039098
0.011943
-0.022870
-0.029413
0.009077
-0.034361
-0.031182
-0.048688
-0.014058
-0.003824
0.022780
0.017354
0.019574
-0.005891
0.040011
0.111541
0.020670
-0.023043
0.034245
0.084516
0.021488
-0.042950
-0.050648
-0.078292
-0.062750
0.015574
-0.021372
-0.013831
-0.011752
0.035116
-0.029271
-0.011957
0.074907
0.038783
0.094543
-0.072248
-0.017821
0.061505
0.005010
-0.010808
-0.023998
0.002566
0.044719
-0.031009
0.037169
-0.039625
-0.029045
-0.007083
0.035485
-0.022292
-0.021217
0.087810
0.048848
0.047188
-0.027987
0.027811
0.002499
-0.043497
0.108818
-0.044044
0.100338
0.032287
0.032086
0.013551
0.028846
-0.057263
-0.004424
0.048368
0.015668
0.002098
-0.012445
0.010555
0.016011
-0.026787
-0.037200
0.010512
0.027036
-0.018216
-0.043840
-0.036499
0.025135
-0.093590
-0.032200
-0.011564
-0.035140
0.063144
-0.054049
-0.004162
-0.051940
-0.072495
-0.039363
-0.057299
-0.073381
0.053871
-0.017726
0.022443
0.007332
-0.024627
-0.053900
0.004706
0.008629
0.024056
0.010055
-0.004023
0.037005
-0.056606
0.028805
0.067184
0.075265
-0.026867
0.057875
0.019952
-0.058392
-0.046757
0.046075
-0.005770
-0.014232
-0.063188
0.100977
0.036226
-0.027042
0.046451
0.061956
-0.010871
0.051255
-0.041895
-0.054574
0.037176
-0.078541
0.000953
-0.112318
-0.060399
-0.033481
0.032042
-0.043220
0.008041
-0.015108
-0.034560
0.003425
-0.058568
-0.014160
-0.019632
0.091543
0.013225
0.003170
-0.025441
0.006016
0.022295
0.039322
-0.052921
0.073070
-0.055255
0.019402
-0.047842
0.005473
0.037348
-0.060755
0.040782
0.078525
0.041392
0.033506
-0.054533
-0.003436
-0.014052
0.006577
-0.030246
-0.037133
0.028198
0.052447
0.028891
0.071674
-0.002588
-0.083058
-0.010050
0.040889
0.095256
-0.033918
-0.015444
-0.053733
0.002127
0.045518
-0.021468
-0.028823
0.007105
-0.033181
0.020967
0.005419
-0.001229
-0.050658
-0.025847
-0.009894
-0.043806
-0.016929
0.037960
0.011020
0.057939
0.030552
-0.005846
-0.000435
0.051528
0.012590
0.042161
-0.013339
-0.029484
0.010387
-0.038576
0.004037
0.039735
-0.005219
0.011731
-0.027489
-0.006421
0.026294
-0.037944
-0.056528
-0.023268
-0.067123
0.038302
-0.004084
0.009539
0.020245
0.029830
0.007977
-0.001131
0.020464
-0.041282
0.002370
-0.019129
-0.042093
-0.015501
0.043022
-0.012275
-0.049286
-0.011087
-0.008028
-0.021723
-0.061769
0.013612
-0.059329
0.000558
-0.034945
-0.062217
-0.045508
0.003800
0.011475
-0.005983
0.024754
-0.069622
0.041461
0.031113
0.019842
-0.004013
0.001548
0.020027
0.032635
-0.069766
0.048993
0.044096
-0.030410
0.016919
-0.047728
-0.029540
-0.043947
-0.012140
0.024474
0.061196
0.025851
0.004051
-0.017477
0.017017
-0.051359
-0.074577
0.033479
0.004690
0.043990
0.001699
0.042425
-0.028845
-0.077438
0.017466
0.029856
-0.002629
-0.053029
-0.003195
-0.054771
0.061357
0.018795
-0.027582
-0.033052
0.001916
0.050045
-0.002485
-0.033568
0.016170
-0.013612
-0.047175
0.000683
-0.016960
0.033611
-0.106541
-0.100447
0.004049
0.037637
-0.020860
-0.028939
0.017182
0.083809
0.113749
0.042637
0.010582
0.021721
0.006475
-0.036128
-0.000141
-0.068822
-0.044585
-0.099616
0.077274
0.022852
-0.107726
-0.042718
0.014433
0.013657
0.067987
0.085281
0.019931
0.082348
-0.014479
0.016756
-0.025649
0.006919
0.025453
0.080361
0.062118
0.050364
0.039504
0.053020
0.034678
0.001088
0.021552
0.051765
-0.083440
-0.025683
0.056629
0.035663
0.073101
-0.072163
0.124345
0.073325
-0.025487
-0.001749
0.079998
0.075302
0.033814
-0.063119
0.019003
0.019604
0.018982
0.111518
0.035774
0.000344
0.038417
0.064583
0.041733
0.108594
-0.046268
-0.042021
0.111906
0.002405
-0.003121
0.012951
0.043282
0.104082
0.047372
-0.062489
0.108674
0.014900
0.028870
0.033968
-0.015882
-0.086771
-0.014687
0.045604
0.005689
0.036137
-0.058910
0.002937
-0.003742
-0.041852
-0.074617
0.067554
0.031536
-0.106229
0.030202
-0.017163
-0.037764
0.070514
0.049495
0.050287
0.043793
0.023801
0.134217
0.047792
-0.040430
0.058925
-0.035404
0.030916
0.051287
0.050393
-0.011308
0.000762
0.007055
0.003709
0.040162
-0.027584
0.059633
0.010915
0.001192
-0.075923
0.084983
0.077016
-0.055674
-0.089732
-0.007958
0.006505
0.032285
0.034277
-0.003839
-0.069091
-0.076239
0.003520
-0.060871
0.032356
0.066363
0.030634
-0.010261
0.137642
-0.122268
-0.003930
0.027317
0.047795
-0.048435
-0.047497
-0.008951
-0.034106
-0.061592
-0.028672
0.049016
0.050621
0.121370
0.006275
0.052498
-0.032987
-0.058835
0.002948
-0.109360
-0.007490
-0.057669
0.016387
0.045445
0.038891
-0.023047
-0.004562
0.019675
-0.081108
-0.032165
0.047643
-0.082119
-0.123465
0.056817
0.029069
-0.053830
-0.045351
-0.013876
-0.033712
0.029352
-0.025522
0.048177
-0.102490
0.048260
-0.010357
-0.093831
-0.045247
-0.011271
-0.118327
0.069641
0.010692
-0.058403
-0.000224
0.060870
0.014500
-0.029969
-0.073948
-0.089885
0.075571
-0.075607
0.012443
-0.060561
-0.036839
-0.011422
0.080235
-0.006614
-0.079317
-0.021481
0.024634
0.067367
-0.009559
0.006144
-0.000539
0.007496
-0.103990
-0.040774
0.038198
0.109194
0.067929
-0.088064
0.030680
-0.032401
-0.171249
-0.012346
-0.098911
0.006369
0.060397
-0.060359
-0.024963
0.146133
-0.007065
-0.014445
-0.073365
0.027928
-0.012976
-0.012790
0.057759
0.047379
0.036987
-0.051951
-0.025843
-0.051592
-0.025804
-0.022951
-0.007420
0.044703
-0.067911
-0.014338
0.003648
0.034218
-0.022682
-0.002206
0.054362
0.003147
-0.057579
0.013361
-0.017157
0.002031
0.015193
-0.032721
-0.006489
0.026138
-0.024374
0.039957
-0.021358
0.029579
-0.001140
0.006481
-0.034263
-0.032156
0.038777
-0.029995
0.008685
-0.039248
-0.048105
0.012096
-0.039350
-0.045608
-0.059263
-0.014522
0.055563
-0.032214
-0.025640
0.010460
0.043886
0.018684
0.006597
-0.018502
0.041166
0.047953
-0.026610
-0.034577
0.022473
-0.049395
0.009374
-0.017066
0.035127
0.000097
-0.026526
-0.012103
-0.027414
-0.037730
0.024074
-0.071881
-0.026882
-0.007679
0.004819
0.018579
0.033002
-0.022663
-0.059320
0.021995
0.026030
-0.089893
-0.007012
-0.067605
-0.017938
0.015365
-0.059034
0.012750
0.006780
-0.024193
-0.003664
0.025201
-0.021390
-0.004340
-0.081835
0.027783
0.023243
-0.001994
0.012263
0.042101
-0.009407
-0.021236
-0.001821
0.027046
0.002301
0.050419
0.032984
-0.020386
-0.015909
-0.018268
0.035348
-0.042387
0.015680
0.033713
-0.002248
-0.008827
0.061271
-0.036114
0.015567
0.047136
-0.047497
0.001188
0.017701
-0.032660
0.021747
-0.047965
-0.014402
0.046710
0.009754
0.029202
-0.008539
-0.006120
0.031565
-0.039555
-0.037237
-0.031294
0.005787
0.027562
0.010785
0.022692
0.043643
-0.003885
-0.025630
0.007634
0.009205
0.014605
0.011829
0.010263
-0.056217
0.034696
0.009612
0.029457
0.051471
-0.043399
0.041821
0.005463
0.020028
0.027062
-0.001388
0.022492
-0.013486
-0.012972
-0.013717
-0.027162
0.049642
-0.047840
0.020918
0.032138
-0.076475
-0.042063
0.003034
-0.041768
-0.047637
0.064492
-0.031529
0.031405
0.019364
0.059798
0.026195
-0.040943
0.052694
0.004420
-0.013944
0.031486
0.057199
0.006111
0.019554
-0.003226
-0.005896
0.020794
-0.037783
0.056112
0.004389
0.003664
0.018322
0.004259
-0.041552
-0.020442
0.037393
0.033179
-0.044018
-0.014813
-0.027379
0.037925
0.022295
0.008460
0.036170
-0.071094
-0.036953
0.051854
-0.035352
0.056889
0.015341
-0.029610
0.012056
-0.010796
0.009644
0.040871
0.044860
-0.030301
0.037694
0.038695
0.001735
-0.094365
0.016947
-0.048947
0.060076
0.076046
-0.018614
-0.041213
-0.025533
0.021104
-0.030958
-0.004608
-0.002110
-0.023735
0.006088
-0.077425
-0.015606
-0.033826
0.023397
-0.042869
0.015547
0.014668
-0.032671
-0.036680
-0.013940
0.001029
-0.040366
-0.011345
0.027466
-0.037592
-0.008252
0.034504
0.027808
-0.007372
-0.053251
-0.033143
-0.045936
0.068026
-0.036978
0.016703
-0.037446
0.041409
0.016703
0.076234
-0.033043
-0.042622
-0.033119
-0.069633
-0.076032
0.015326
0.016514
-0.043955
0.020955
0.010127
-0.051964
-0.043490
-0.035291
0.016554
0.037003
-0.008153
-0.027314
-0.012201
-0.014859
-0.037717
0.000309
-0.031873
-0.022992
-0.011630
0.038289
0.045420
0.038619
-0.005556
0.017151
-0.014101
0.012154
-0.005887
0.003438
-0.007895
0.038003
-0.017721
0.027928
0.027187
-0.017052
0.033156
-0.034922
0.021724
0.033072
-0.017200
0.001830
-0.005282
-0.016665
-0.024032
0.013270
-0.042586
-0.006701
-0.031629
-0.005915
0.023123
0.002733
0.029486
-0.009571
0.006132
-0.035571
-0.058427
0.023839
0.026550
0.005947
-0.000330
-0.031594
-0.039094
-0.062186
-0.057394
-0.029551
0.020862
0.021186
0.020836
0.005053
0.032916
0.044961
-0.042011
-0.011359
0.060716
-0.032107
0.029456
0.005042
-0.017276
-0.054468
-0.013162
-0.005471
-0.026875
-0.026809
-0.027926
-0.049140
0.017224
-0.003917
0.006030
0.036267
-0.039073
-0.007531
0.002349
-0.019268
-0.021115
-0.019672
0.013208
0.039467
0.035111
0.033905
0.009556
-0.027147
0.009980
0.046985
-0.020111
-0.050244
0.021855
0.020423
-0.017081
-0.047306
-0.029258
-0.062901
-0.029194
0.017601
0.046741
-0.016348
-0.033925
0.051417
0.010949
-0.002150
-0.014550
-0.053150
-0.007431
-0.009120
-0.025091
-0.054994
-0.019901
-0.003762
0.007617
-0.009659
-0.027270
0.010000
0.065562
0.029890
0.068613
-0.028340
-0.000808
-0.009239
-0.073338
-0.000075
-0.009671
0.012209
-0.006301
0.081362
-0.041617
0.002612
-0.015897
0.016452
0.044302
0.040347
-0.005735
0.011379
0.056423
-0.037454
0.004494
0.016574
-0.020337
-0.040315
-0.015212
-0.022155
-0.021696
-0.002131
-0.024371
-0.069796
-0.090688
0.008450
-0.046323
-0.035858
-0.041327
0.006112
0.004068
0.026561
0.021610
-0.006416
0.062180
-0.001303
0.037445
-0.026221
-0.028948
-0.102503
0.005896
-0.054529
-0.069611
-0.003394
0.039584
-0.029083
-0.012797
0.007094
-0.030118
0.020983
0.036384
-0.034563
0.055999
-0.045974
0.036952
0.018678
-0.024976
0.029843
-0.024259
-0.013991
0.021634
0.089329
-0.002357
-0.000832
0.013429
-0.008859
0.023312
-0.014009
0.027596
0.009685
0.057520
0.063712
0.028501
-0.017016
0.053276
-0.002875
0.014007
0.022407
0.075985
0.012396
-0.010385
0.034619
-0.020559
-0.066879
-0.003268
0.040642
0.005050
0.038629
0.048384
-0.003356
-0.004750
-0.006861
0.030178
0.006650
0.029903
0.002367
-0.010981
-0.046476
-0.010674
-0.000517
0.009703
0.025658
-0.036997
0.004742
-0.000503
-0.025171
0.019135
-0.016586
-0.007317
0.001835
-0.036930
-0.025465
-0.011727
-0.036018
0.012025
-0.004869
-0.013192
0.015256
0.039793
0.032024
-0.006477
0.060570
-0.046879
0.005053
0.098321
-0.022991
-0.035418
0.006005
0.001221
-0.050451
-0.007601
0.031640
-0.037906
0.025128
0.051805
0.001244
-0.054810
0.020549
0.009940
-0.015853
0.000400
0.006589
-0.006769
0.012534
0.046483
-0.002008
0.004237
0.033762
0.050541
-0.042263
0.016543
0.033377
-0.026629
0.008695
-0.074946
-0.044074
-0.007301
0.001531
0.024507
-0.022002
0.033502
0.021257
-0.050693
-0.029539
0.026452
-0.024607
-0.037180
-0.054236
-0.015685
-0.028628
-0.031351
0.042228
0.025871
0.054685
-0.012456
0.031613
0.012883
-0.021575
-0.023552
0.008279
0.002111
-0.033842
-0.001167
-0.024467
-0.029759
0.047040
0.006338
-0.008879
0.004540
0.027939
0.028975
-0.051748
-0.035975
0.011239
0.013312
-0.012874
-0.047391
-0.036485
0.018352
0.008532
-0.007749
0.002276
0.005476
-0.007178
-0.030985
0.043998
0.030581
-0.063672
-0.043649
-0.019588
0.012361
-0.043137
0.028718
0.023815
0.032059
-0.024680
0.023617
-0.007586
-0.023009
0.068951
-0.008560
0.062109
0.063606
0.027934
0.000565
-0.032426
0.014983
0.029773
0.013468
0.004934
-0.052527
0.011098
0.024335
0.030639
0.050854
0.009224
0.049948
-0.041014
-0.025744
0.003300
-0.035136
0.051254
0.049405
0.051561
-0.023492
-0.025408
-0.032484
-0.014357
-0.034488
0.022802
0.008076
-0.016608
-0.009581
-0.007098
0.004170
-0.017168
0.037149
0.048086
0.002491
0.012268
-0.021849
0.027636
-0.004794
-0.058293
-0.040428
-0.022609
0.015580
-0.006276
-0.000995
-0.035432
-0.044246
0.009475
-0.008329
0.028293
0.011451
0.036098
0.038240
0.010785
-0.035494
0.050058
0.031440
-0.031057
-0.038938
-0.044152
0.044100
0.025226
0.009628
0.004591
-0.024566
0.055381
-0.022772
-0.022824
-0.086423
0.062067
-0.016882
-0.062486
0.008517
-0.055253
-0.029146
-0.007525
0.018435
0.023200
0.031396
0.033482
-0.025255
-0.013075
-0.013236
0.026995
0.073559
0.059852
-0.022179
-0.016542
0.019432
0.057139
-0.003444
0.006153
0.034656
-0.028902
0.032824
-0.045490
0.017260
0.036512
-0.041593
-0.018349
0.024503
0.036025
0.017865
-0.073850
-0.007254
-0.026617
0.029698
-0.003567
-0.081598
-0.052028
0.066481
0.028898
0.023354
-0.026025
-0.051930
-0.013856
-0.060544
0.032431
0.000660
-0.004498
0.000233
-0.006833
-0.025686
0.057915
0.024985
0.037824
-0.061559
0.046093
-0.003291
0.018663
-0.082173
0.015546
-0.011740
0.010924
0.045030
-0.084240
-0.001389
-0.081286
0.018408
0.051071
0.043942
0.002361
0.057164
0.067757
0.062355
-0.023542
-0.003582
0.007242
-0.071984
-0.080777
0.009558
0.043306
0.038925
-0.022832
0.035308
0.068891
0.027761
-0.038175
0.013890
0.036937
0.016609
-0.036911
0.025092
0.034810
-0.006684
0.021550
0.000310
0.034575
0.030977
0.009252
0.036757
0.094132
0.000946
-0.012443
-0.027517
0.081883
0.002186
-0.024877
0.079474
-0.034495
0.000179
-0.016314
-0.047989
0.005640
-0.028032
0.032875
-0.022631
-0.050034
-0.059004
0.098450
-0.068387
-0.047312
0.003816
0.081075
-0.016660
0.015171
0.045480
0.087909
-0.001457
0.057036
-0.096215
-0.004710
-0.027590
-0.060033
-0.073221
0.020177
-0.002849
0.034259
-0.006640
0.046563
-0.041158
0.014023
-0.029243
-0.004423
0.035016
-0.012829
0.057195
0.065522
0.029147
-0.008615
0.049747
-0.009925
-0.011617
-0.003873
-0.036861
-0.001676
-0.024518
0.003376
0.044836
-0.018787
0.001839
-0.001798
-0.072719
-0.018482
-0.011623
-0.018288
0.048193
0.003039
-0.076032
-0.009223
0.023455
0.023294
0.017419
-0.009133
0.088668
-0.027679
0.015137
-0.045663
-0.050422
-0.045351
-0.049407
0.078942
-0.065658
0.040620
0.047181
-0.002122
-0.067100
-0.000711
-0.083898
0.016847
-0.012737
0.016579
-0.022519
0.040578
-0.041920
0.010319
0.073105
-0.048590
-0.023775
0.015345
0.059030
0.019377
-0.007033
0.010774
-0.022327
-0.043100
0.026608
0.001868
0.022679
-0.000157
0.008381
-0.003110
0.031626
0.031185
-0.022841
-0.017806
0.025550
0.023574
0.045925
0.003372
-0.058617
-0.046221
-0.013376
-0.012525
-0.003037
0.012642
0.063978
0.036094
-0.008685
0.038778
-0.022510
0.031609
0.006747
