0.000286
-0.001093
0.054315
-0.007746
0.063043
0.004247
-0.041162
0.098143
0.028513
0.098750
-0.030003
-0.137976
-0.038251
0.007079
-0.030936
0.091091
0.061382
0.073346
0.061101
0.013125
-0.021963
0.074856
0.082585
0.005151
0.054377
-0.048491
0.047705
-0.029384
-0.044544
0.028566
0.012731
0.029884
0.039511
0.018448
0.026554
-0.025706
-0.023549
-0.036013
-0.101980
0.008760
-0.076608
0.050843
0.022033
-0.037849
0.009877
0.097083
-0.005081
0.010711
-0.012896
-0.096752
-0.005839
-0.077810
0.085588
-0.014331
0.007380
0.020817
0.042892
0.022060
-0.079459
-0.042951
0.012590
0.053178
0.009950
-0.095344
0.020945
0.031306
0.057163
-0.009950
-0.011917
0.010576
-0.093783
0.073046
0.019034
0.054275
-0.000859
0.061606
0.060294
-0.069249
0.039020
0.046181
0.033666
0.031076
-0.026988
-0.012169
-0.017179
0.057115
-0.018270
0.081063
0.000819
-0.034388
0.015905
-0.083073
-0.014142
-0.116922
0.030216
-0.069351
0.096020
0.039093
0.027913
-0.054660
-0.055097
0.030212
0.040451
-0.000671
0.010612
0.000113
-0.054817
-0.085177
0.022834
0.028016
-0.052293
-0.010405
0.044816
-0.003273
0.004986
-0.002573
0.053672
0.016434
-0.006411
0.011347
