0.225277
0.187807
0.076917
-0.093180
0.198090
-0.055594
0.001700
-0.086830
-0.133768
0.079375
-0.130077
0.027243
0.141547
0.243030
-0.105821
-0.013106
0.001783
0.076366
-0.015520
0.068696
0.123954
0.161073
0.066999
-0.237024
-0.002301
-0.071289
0.112839
-0.064885
0.175519
0.049055
0.005084
-0.032798
0.020846
-0.079959
-0.045203
0.063465
-0.043316
0.049675
-0.100226
-0.081698
0.049252
0.002848
0.153108
-0.006112
-0.109766
-0.131026
-0.057929
0.055977
0.076152
-0.013640
0.023139
-0.020214
0.063209
0.019729
-0.004205
-0.163664
-0.009111
-0.079786
0.039145
0.034111
0.088381
0.053885
-0.003538
-0.017193
-0.068755
0.047393
-0.094101
0.080074
-0.088118
-0.092051
-0.148097
-0.011780
0.008481
0.112176
-0.090457
0.054199
0.131075
-0.006217
0.000073
0.043725
0.033964
-0.124056
-0.015465
0.076315
0.092365
-0.045503
0.058547
-0.078391
-0.063788
-0.180308
0.008795
-0.143034
-0.161821
0.098729
0.030668
0.000785
0.171804
-0.007483
0.098337
-0.065536
0.182493
0.055014
0.147931
-0.083953
0.117532
-0.031532
-0.008091
0.067708
0.090084
0.199747
-0.107470
-0.033244
0.018389
-0.086023
0.159179
0.121387
-0.110921
-0.030405
-0.050877
-0.217398
0.074766
0.020379
0.233027
-0.046180
0.129436
-0.071267
-0.108389
0.093827
-0.080179
0.029403
-0.024622
0.051747
-0.258700
0.042377
-0.164796
0.159816
-0.140353
0.098550
0.105995
0.023030
-0.063562
-0.132127
-0.010068
-0.059882
0.201756
0.041352
0.031779
0.113507
0.097877
0.040047
0.006290
-0.168376
0.108929
-0.002264
0.062822
0.049112
-0.017045
-0.052333
0.005046
0.047901
-0.218094
0.111753
0.094132
-0.009923
-0.165999
0.040523
0.232164
0.174948
-0.125632
0.022244
-0.010468
0.113681
-0.162831
0.039460
0.036278
-0.153913
0.032686
0.000582
0.018211
0.066084
-0.076835
-0.085154
-0.046545
-0.118481
-0.084121
0.004169
0.063012
0.106460
-0.097527
-0.051426
0.138125
-0.086672
-0.070034
-0.043928
0.078904
0.063454
-0.122656
0.210242
0.116563
-0.253225
0.181352
-0.132550
0.110332
0.125607
0.101310
0.057489
-0.183210
0.078845
-0.018892
-0.102278
0.168107
0.043175
-0.194169
-0.088843
0.117353
-0.093869
0.043034
0.012136
0.160280
0.070219
0.085175
-0.184984
-0.060551
-0.008786
-0.016299
0.070248
-0.122640
0.086022
0.071408
-0.094572
-0.076261
0.253037
-0.084382
0.100892
-0.074148
0.103067
-0.006467
-0.122351
0.081346
-0.077519
0.136672
-0.057733
0.130242
0.124600
-0.057352
0.006388
0.121776
-0.158087
-0.006504
-0.146636
0.071999
-0.086092
0.037347
0.072554
-0.103435
0.118056
0.002314
0.191737
-0.026065
0.096287
0.078902
-0.128157
-0.017238
0.155130
-0.318456
0.124169
-0.113819
0.115092
-0.055346
0.105506
0.161169
-0.021023
-0.122066
0.043592
0.060645
-0.015325
-0.031222
-0.003480
-0.103587
-0.062070
-0.189291
-0.040342
-0.056871
-0.021654
0.135433
-0.113559
0.197113
0.063365
-0.190647
-0.087204
0.249533
0.075804
-0.016745
0.117613
0.100011
-0.138779
0.017798
0.021537
-0.068723
0.020349
-0.169665
-0.062895
0.013621
0.022721
-0.212009
-0.027677
0.133334
0.065670
-0.136777
-0.008505
0.166644
-0.068003
-0.059664
-0.123233
0.276967
0.188983
0.172518
-0.108388
0.028961
-0.061716
0.054340
0.042106
-0.045152
-0.148122
0.024464
0.041368
-0.012548
0.228393
-0.037753
0.026337
-0.083040
0.016727
-0.020480
0.136256
0.036374
0.007698
0.053670
0.022291
0.048712
0.107327
-0.156171
0.134893
0.021786
-0.125231
-0.018320
-0.023445
0.058483
0.037110
-0.021379
-0.117164
-0.183281
0.021944
0.083736
0.253816
0.177878
0.104153
0.144843
-0.133749
0.000693
-0.037125
-0.203487
0.137110
-0.276778
-0.036258
0.081235
0.199594
0.258493
-0.056024
-0.078777
-0.010385
-0.113295
0.009788
-0.037974
0.100650
0.127850
0.175556
-0.012888
0.046202
-0.053315
0.169038
-0.038056
-0.035509
0.188157
0.072199
-0.179179
0.046771
0.256964
0.178944
0.024983
0.152647
-0.009813
-0.307955
-0.188929
0.003166
-0.177561
0.181136
-0.096163
-0.159381
0.107379
-0.051612
-0.129468
-0.088003
0.096959
0.216583
0.050728
0.263358
0.309857
0.004608
-0.093440
-0.172250
0.288038
0.072141
0.179777
-0.116857
0.128827
-0.117312
0.010723
0.056274
-0.217413
0.004191
0.010685
0.191773
0.006216
0.278671
0.068459
0.112248
0.156456
0.050405
0.091379
0.151940
-0.119788
-0.019310
0.021956
-0.029698
0.035077
0.068938
-0.124460
0.037716
0.227863
-0.102187
-0.107761
-0.097129
0.080807
0.154797
0.080048
-0.176571
-0.007115
-0.013756
0.073638
0.088941
0.057068
0.042202
0.220278
-0.155838
-0.023318
-0.080163
0.013898
0.005824
-0.336501
-0.141059
0.021650
0.239151
0.110764
-0.095976
-0.038011
0.032465
-0.187492
0.004656
0.057198
0.083885
0.050073
0.159758
-0.127603
0.034972
0.048906
0.070681
-0.077094
-0.120848
0.032530
0.059486
0.150231
-0.059810
0.137877
0.007617
0.121959
0.023605
0.072107
0.024338
-0.001539
0.006234
0.012999
-0.046674
-0.272135
0.035781
0.023754
0.008774
0.121287
-0.092628
-0.049140
-0.088141
0.170567
0.075339
-0.119550
-0.135192
-0.142131
-0.133191
0.082212
-0.078849
0.155839
0.097117
-0.089332
0.097638
-0.177501
0.102910
-0.113426
0.018937
-0.160689
-0.075676
-0.043696
-0.022603
0.018778
-0.037858
0.061002
0.065639
0.092449
-0.005661
0.071645
0.108834
0.161955
-0.056707
0.092053
-0.047759
0.014751
0.093896
0.062731
0.029243
0.019057
-0.086397
-0.029655
0.009041
0.057006
-0.041981
-0.145966
0.037956
0.008629
0.027596
0.079458
0.019380
-0.007698
0.115349
0.011129
0.013271
0.084035
0.058475
0.008218
0.019496
-0.043685
-0.088413
0.045731
-0.087400
0.103539
0.044749
-0.111927
0.087390
-0.035206
0.055855
0.104424
-0.086047
-0.169902
-0.013856
-0.027476
-0.067651
-0.018005
0.154955
-0.057904
-0.111694
0.098725
-0.157425
0.112294
0.043958
-0.057003
0.008232
0.077606
-0.028397
0.143782
-0.029982
0.153583
-0.073460
-0.245126
0.138559
0.005976
0.072570
0.020105
-0.013607
0.018362
-0.032371
0.004068
0.146181
0.012879
-0.252719
0.057627
-0.074597
0.028726
-0.070132
0.111353
-0.013497
-0.217845
0.031524
-0.070518
0.126921
-0.061361
-0.108791
-0.142471
0.022345
-0.074002
-0.080607
-0.147021
-0.063127
-0.177080
0.189159
0.275983
0.011412
-0.087652
0.121144
0.194080
-0.000772
0.019205
0.095686
0.170374
0.139361
-0.035070
-0.010701
0.092844
-0.098753
-0.075075
-0.115678
-0.028859
0.150789
-0.050080
-0.037193
-0.227036
0.049092
0.110483
0.143498
-0.171847
-0.043169
0.266906
0.083896
-0.266584
0.142690
0.138287
0.068217
-0.185560
0.037421
0.008805
-0.016720
0.084758
-0.082707
0.013287
-0.017984
0.101312
-0.077870
-0.154023
-0.042592
-0.014768
-0.050665
0.070530
0.096568
0.219834
0.019533
0.066840
0.155382
-0.065034
-0.077139
0.180570
0.137432
-0.095276
0.066440
0.000727
0.050954
0.003051
0.007315
0.103915
-0.195794
-0.287735
0.068077
0.055615
-0.018128
-0.020399
-0.134073
0.199581
0.099392
-0.116184
0.162343
-0.027047
-0.213144
-0.015751
-0.071520
0.100354
-0.048794
0.026007
0.010640
-0.101988
-0.053274
0.111797
0.091043
-0.112765
-0.130278
0.052003
0.010147
-0.049368
-0.068145
-0.056395
0.069040
-0.169462
0.274566
0.288430
-0.201422
0.002364
-0.038713
0.079605
-0.034094
-0.032999
0.079023
0.087790
0.066959
0.118651
-0.004845
0.144571
-0.029906
-0.020758
-0.028967
0.049652
0.112677
-0.014763
-0.021321
-0.114169
0.084716
0.136928
0.029654
-0.048749
-0.277260
0.131981
0.262855
-0.379539
0.030671
-0.147383
0.033656
-0.052522
0.044878
0.279600
0.249441
0.018161
-0.024822
0.051565
0.046188
0.084165
0.068356
-0.110362
-0.192427
0.125301
-0.061627
-0.025983
0.021952
0.121317
0.079516
-0.101549
0.162722
-0.233084
0.041629
0.206373
-0.022459
-0.052951
-0.098140
0.067036
-0.112522
0.012261
-0.139765
-0.121593
-0.147184
-0.161111
-0.065038
0.114942
0.190753
-0.123055
-0.054109
0.179273
0.112840
-0.121687
0.152193
0.061695
-0.230743
-0.036049
-0.046231
0.109811
0.060812
0.013975
-0.111849
0.088067
-0.043200
0.180069
-0.085543
0.008808
0.136152
0.061855
0.240103
0.123637
0.076581
0.013866
0.279916
-0.004742
0.274086
0.154910
-0.002784
-0.150179
-0.244326
-0.020218
-0.017439
0.061922
0.001930
-0.120667
0.150534
0.162706
-0.144391
0.006279
-0.170771
-0.031883
-0.068854
-0.079570
-0.001757
-0.040873
0.004834
0.086463
0.148639
0.055986
0.104669
0.148389
-0.369384
-0.053815
0.178176
-0.254250
0.029684
-0.284020
0.046362
0.078642
0.174560
0.195085
0.111397
-0.088974
0.000578
0.140627
0.002966
-0.095609
0.224770
0.164988
-0.050042
0.021717
-0.038580
0.115436
0.159880
0.135344
-0.223614
-0.105351
-0.001416
-0.233362
0.074946
0.142328
-0.157510
-0.047564
-0.171890
-0.082135
-0.202306
0.005515
-0.237555
-0.107132
0.068442
-0.311037
-0.104261
0.172709
-0.046726
-0.113368
-0.145293
0.237797
0.289623
-0.063205
0.178988
0.094109
-0.224290
-0.104723
0.000698
0.117662
0.177637
-0.103135
-0.016460
0.213072
-0.211034
0.194126
0.066454
-0.206865
0.110290
-0.072271
0.291958
0.075670
0.029913
-0.136470
0.235806
0.096075
0.083749
0.379544
0.091096
-0.109410
-0.126570
0.019642
0.071331
0.062522
0.149950
-0.080933
0.066758
0.112159
-0.035650
-0.084781
-0.117491
-0.110052
-0.083318
0.021415
-0.037305
0.137967
0.049953
0.121587
0.146224
0.056790
-0.121861
0.089384
-0.368841
-0.004177
0.156543
-0.104378
-0.117242
-0.203553
-0.106271
0.019224
0.130042
0.001109
0.249446
0.048896
-0.173222
0.122776
0.087995
-0.048376
0.298187
0.133424
-0.110436
-0.228206
0.154438
0.099174
0.110964
0.188103
-0.015322
-0.216225
-0.017405
0.199763
0.079608
0.094383
0.103382
-0.030596
-0.067698
-0.110022
0.084356
0.042188
0.210122
0.139972
0.195615
-0.092849
0.067700
0.073695
0.241183
0.100276
-0.061898
0.035877
-0.048466
0.216363
0.120010
-0.089495
0.010026
0.015236
0.091944
0.019259
-0.000446
-0.108216
-0.088046
0.025706
-0.033328
-0.147308
-0.122770
0.036067
-0.101927
0.120658
0.206349
0.088344
-0.016297
-0.108648
-0.191552
-0.115767
-0.092135
-0.128098
0.024803
-0.040588
-0.072288
0.126580
-0.088996
0.115602
0.054633
0.143303
-0.029622
-0.039221
0.043360
-0.064316
0.111068
-0.060989
-0.074384
0.024659
0.058991
-0.121012
0.122806
0.185143
0.126134
0.026985
0.075523
-0.129073
-0.038608
0.225929
-0.118149
0.041260
-0.024313
0.235636
0.087181
0.063908
0.079110
0.086603
-0.153506
-0.102038
-0.181176
-0.060621
-0.084407
0.113477
0.128396
0.030818
-0.094696
-0.204322
-0.202577
-0.029573
0.042031
-0.044246
0.022607
-0.132849
0.011860
-0.008242
-0.174742
-0.006711
0.264986
-0.032371
-0.089063
-0.055404
0.150528
-0.080823
0.257980
0.178640
0.048284
-0.170762
0.117267
0.050070
0.241404
0.051070
-0.074295
0.003061
0.039680
0.192906
0.109691
-0.040810
0.006796
0.157629
0.009662
0.154283
-0.228797
-0.137124
0.095985
0.005460
-0.216524
0.008510
0.002791
0.083124
-0.093202
0.178503
0.294055
0.023424
0.004150
-0.090160
-0.319517
-0.046912
-0.184680
0.072468
-0.014918
-0.088001
-0.137392
0.194642
0.052576
-0.047774
0.035168
-0.039286
-0.069150
-0.080921
0.054209
0.133823
0.078550
-0.054236
-0.023761
-0.040509
-0.080270
-0.088042
0.016821
-0.317185
0.067864
0.158238
-0.001988
-0.247841
-0.219059
0.225851
0.095247
-0.373898
0.013862
0.223847
0.169315
0.068586
0.170584
-0.050713
0.251531
0.080714
-0.073408
0.059998
0.066783
0.138098
0.075186
-0.074725
-0.125329
0.139214
-0.141045
-0.171841
-0.036627
0.008107
0.118155
-0.049755
0.066889
-0.035116
-0.085252
0.023361
0.117883
-0.095005
-0.175051
0.008686
0.213350
-0.029530
0.202137
0.103184
0.186108
-0.278120
0.004572
0.154704
0.175744
-0.150983
-0.073315
0.131891
0.169781
0.032941
-0.049481
0.068552
0.110151
0.007048
-0.177104
0.188955
-0.149543
-0.199475
0.054745
0.005404
-0.041561
0.124663
0.205052
-0.030563
0.090791
0.026548
0.315077
0.082609
-0.076361
-0.051177
-0.118746
0.030123
-0.167484
-0.005368
0.013714
-0.064611
0.007590
0.142825
-0.039964
-0.059781
0.054554
-0.078425
0.086174
0.073816
-0.074019
0.002102
0.099044
0.025576
-0.063300
-0.107652
0.145133
-0.049487
0.017682
-0.087888
0.144679
0.143125
-0.168593
-0.134961
-0.152189
-0.086471
0.013342
-0.266219
0.158063
-0.119663
0.310330
0.162899
-0.118295
0.092835
0.313373
0.129867
-0.069041
-0.026565
0.113720
0.148927
0.264308
0.197379
-0.105047
0.228071
-0.266134
-0.064740
-0.121932
-0.137247
0.032897
-0.120618
-0.152168
-0.101937
-0.007094
-0.163980
-0.203375
0.090471
-0.118847
-0.076805
0.186720
-0.058625
0.008011
-0.167602
0.050081
-0.189635
-0.032406
-0.024843
0.082027
-0.111803
-0.027481
0.038941
0.118022
-0.177103
-0.160418
-0.087193
0.005354
0.019364
-0.227879
0.019757
-0.157479
-0.238905
0.014709
0.149558
-0.115375
0.165759
0.186902
0.147299
0.140976
-0.039246
0.016614
0.161876
-0.189761
-0.059844
0.013001
0.177417
-0.073843
0.176205
-0.032601
-0.007644
-0.102124
-0.065354
0.007082
-0.128663
-0.007999
-0.078669
-0.113625
-0.048341
-0.001193
-0.090347
-0.065841
-0.058934
0.035317
-0.064937
-0.007193
-0.009614
-0.076945
-0.107687
0.164915
0.287094
-0.220668
0.128942
-0.027835
-0.106441
-0.055805
-0.152513
0.047589
-0.365332
0.257070
0.208467
0.014354
-0.037484
0.271859
-0.077832
0.097500
0.019777
0.171163
-0.045373
0.085550
0.199952
-0.275012
-0.102631
-0.263244
0.260666
-0.287568
-0.044778
0.089378
-0.237243
-0.019371
0.031019
-0.009090
0.044868
-0.159736
0.074150
0.004799
-0.190283
0.040385
0.073233
-0.173327
-0.058832
-0.028962
-0.212510
0.006260
0.142289
-0.140171
-0.135638
0.112282
0.089828
-0.020176
0.023208
0.018142
0.026117
-0.177245
0.001094
-0.108297
-0.164688
-0.019657
-0.200343
-0.018345
0.263811
-0.155417
-0.031908
0.160076
0.180896
0.152526
0.054247
-0.131225
0.166694
-0.138203
-0.046045
0.019091
0.146574
0.042664
-0.009269
0.038361
-0.109818
0.121613
-0.003801
0.111051
-0.005988
-0.058622
-0.098082
-0.087798
-0.034361
-0.141534
0.014269
-0.161054
-0.022277
-0.039137
-0.144183
0.072620
0.037587
-0.114056
0.114657
0.087030
0.166014
-0.156042
0.144712
-0.058424
0.050167
-0.025896
-0.042453
0.033984
0.006646
0.131712
0.308153
0.077434
0.004059
0.143317
-0.134273
0.114928
0.188131
0.175571
-0.128410
0.000152
0.201615
-0.106136
-0.216256
-0.164768
0.015694
-0.162813
-0.023492
-0.094430
-0.095184
0.057370
0.038256
0.259240
0.024983
0.088204
-0.009531
-0.197884
-0.019190
0.070707
0.016644
0.235438
0.160574
0.217197
0.099055
0.062551
-0.215044
0.232504
0.173743
-0.103812
0.042628
0.018734
0.095063
-0.014846
-0.151949
0.141457
0.071180
0.162133
-0.011203
-0.108569
-0.084643
0.014420
-0.052596
0.033943
-0.109829
-0.295145
-0.145382
0.019989
0.075848
0.114034
0.067568
-0.108757
-0.093572
-0.133559
-0.015193
-0.229868
-0.331792
-0.058532
0.072458
-0.223069
0.201257
0.173488
0.124286
0.093251
0.045446
-0.014418
-0.154763
-0.087501
0.062407
-0.020817
-0.097588
-0.041747
0.103153
0.086631
-0.062585
0.077114
-0.138469
0.061415
0.063207
0.112914
-0.092144
-0.028533
0.176942
-0.152754
-0.217447
-0.140755
0.255785
0.056903
0.043858
0.178616
-0.044813
-0.054574
-0.200631
-0.198337
0.086304
0.093723
0.197916
0.206420
-0.078991
0.085070
-0.105935
0.020384
-0.232100
-0.165119
0.002839
-0.072125
0.063309
-0.006847
-0.052012
0.141523
0.180731
-0.080157
-0.079559
-0.226859
-0.017339
-0.039437
0.022157
0.142860
0.001758
0.233794
0.285213
0.138211
-0.192751
0.274925
-0.023468
-0.194999
-0.064300
0.195695
0.003384
-0.099012
0.004245
0.009410
0.105446
0.183620
0.237252
0.018510
-0.229026
-0.041135
0.079736
0.091355
0.006111
-0.028594
-0.042869
0.205281
0.080497
-0.027047
0.146917
0.022864
-0.141495
-0.241492
-0.052410
-0.272241
-0.382870
0.101854
0.187399
-0.228150
0.150518
0.119667
-0.006865
0.102147
0.012965
0.008250
-0.043236
-0.066301
0.109209
0.126822
-0.055985
0.112318
0.147532
0.017357
-0.104138
0.010390
-0.429950
-0.063240
0.183021
-0.197290
0.003974
0.105844
0.217710
-0.148809
-0.436253
-0.130542
-0.049614
0.022857
-0.041164
0.262654
-0.204131
0.086672
0.097632
-0.120643
0.036699
0.182190
0.143977
0.009559
-0.055594
0.049147
0.093558
0.155507
-0.051233
-0.162964
-0.168281
0.129700
0.016872
-0.113248
-0.299372
-0.127556
0.105053
-0.254439
0.049971
0.022854
-0.016912
0.029865
-0.058266
0.135264
-0.131637
0.289701
0.151308
0.151884
-0.071233
0.376801
-0.190448
-0.172234
-0.163746
0.023461
-0.102073
-0.101630
-0.071254
0.073834
-0.084315
0.118098
0.082143
0.123533
-0.116002
0.170258
0.112648
0.010361
0.204803
0.125763
-0.042396
0.267310
0.025984
-0.134071
0.008850
-0.136569
-0.080566
-0.185092
-0.123263
-0.195591
-0.253282
-0.106205
0.109478
-0.185086
-0.104143
0.060158
0.076496
0.027837
-0.035754
-0.118878
-0.016086
-0.075020
-0.026760
0.144697
0.039315
0.038507
-0.033653
-0.031259
0.033489
0.073041
-0.130000
0.060337
0.183391
-0.292275
0.030233
0.136027
0.024652
-0.207724
-0.132240
-0.151890
-0.216954
0.125015
0.261422
-0.006828
-0.226570
0.086811
0.102316
-0.117382
0.100622
0.272644
0.058322
-0.077120
0.042692
0.016848
0.101729
0.048954
0.051127
-0.273459
-0.195490
0.161408
-0.021832
-0.219420
-0.108863
-0.093498
-0.096216
-0.218897
0.068932
0.042308
0.035888
0.179254
-0.045644
0.118809
-0.129815
0.361252
0.041092
0.100489
-0.119428
0.163287
-0.234101
0.052675
-0.175261
-0.085762
-0.080139
-0.225124
-0.061301
0.147427
-0.124589
0.048973
-0.109236
0.097286
-0.058834
0.052261
0.162776
-0.171707
0.079485
0.283729
0.109891
0.252573
-0.046155
-0.074699
-0.005896
-0.024733
0.111762
-0.087345
0.047532
-0.267766
-0.111195
-0.143235
0.071693
-0.204349
-0.009859
-0.112336
-0.090188
-0.114991
-0.054964
-0.128717
-0.042816
-0.073001
-0.120965
0.018126
-0.080035
0.079423
-0.048467
0.063791
-0.068094
0.101076
0.057401
-0.007207
0.250552
-0.139083
0.226286
0.114767
0.166175
-0.090326
-0.001498
-0.150148
-0.063375
0.009113
0.180229
-0.096883
-0.258665
0.049027
-0.012473
0.005080
-0.053849
0.226736
-0.035440
-0.052847
0.110383
0.090429
-0.224607
-0.148617
0.035557
-0.217377
-0.137868
0.159675
-0.088363
-0.076628
0.130302
-0.235819
-0.000652
0.056472
0.072468
0.085159
-0.168880
0.056937
-0.133902
0.121604
-0.034919
0.287742
-0.032037
-0.102259
0.011325
0.061609
-0.016318
0.017930
0.036227
-0.119653
0.090227
0.085045
-0.126175
-0.045118
0.134689
-0.180266
-0.039084
-0.059779
-0.080606
-0.131662
0.248635
-0.267140
-0.040986
0.259867
0.123845
-0.069449
0.063661
-0.060132
0.058825
-0.031498
-0.038466
-0.098498
0.075866
-0.195828
-0.121663
0.034892
0.095267
-0.151705
-0.006574
-0.135094
-0.126746
-0.004756
0.083232
0.061454
-0.021623
0.053890
0.122298
0.031241
-0.149868
0.109510
0.002307
0.055393
0.066098
0.064753
0.231166
-0.101694
0.311736
-0.011619
0.072476
-0.091500
0.190091
-0.092251
-0.243776
-0.043238
0.153688
0.157828
0.089134
0.110412
-0.227706
0.074393
-0.148886
0.094074
-0.034846
-0.050626
0.012098
-0.123298
-0.002875
0.017415
0.031650
-0.171813
-0.238567
-0.226739
-0.209103
-0.031088
0.144133
-0.082362
-0.019604
0.185362
0.086189
-0.205064
0.033844
0.062192
0.100149
-0.129258
-0.032214
-0.088448
-0.001195
0.061065
-0.000140
0.175941
-0.275228
-0.221317
0.138034
0.064912
0.155583
-0.070865
-0.047525
-0.339628
-0.155162
0.068023
0.232209
0.064332
0.088102
0.156420
0.108766
0.096514
-0.131967
0.095187
0.022111
-0.185912
-0.172999
0.240299
-0.002411
0.039610
0.022852
-0.015440
0.041164
0.119339
0.136646
0.004740
-0.037007
0.023378
0.119654
0.187614
0.225313
0.022025
0.119963
-0.025249
0.051335
-0.173856
-0.035116
0.074306
0.110466
0.093341
-0.003075
0.019012
0.066784
0.002403
-0.097251
0.047060
-0.289855
-0.036673
-0.018458
-0.081109
0.048938
0.302753
0.100514
-0.248725
-0.254164
-0.187744
0.056083
-0.106934
-0.111392
0.154533
0.030825
-0.113953
0.110619
0.177057
0.015780
0.237073
0.106884
-0.138399
-0.149663
0.020229
0.167384
0.241466
-0.002423
-0.024247
0.165621
0.136359
0.021768
0.211429
-0.225452
0.152782
0.220512
-0.275235
-0.051260
0.027794
0.057699
-0.087148
-0.052702
0.003197
-0.054084
0.030282
0.033700
0.027652
-0.276248
-0.079148
0.005789
0.131072
-0.034294
-0.067906
-0.019092
-0.301243
-0.147490
0.047893
0.145634
0.169373
0.005677
0.238153
0.111309
0.154990
-0.044414
0.189070
-0.013034
-0.127657
-0.061883
0.168286
-0.095629
-0.148045
-0.064500
-0.015322
-0.021294
0.165804
-0.005934
0.058526
-0.083939
-0.032625
0.050969
0.306575
0.033621
0.033472
-0.020731
-0.165734
-0.064983
-0.000543
-0.026383
-0.049664
-0.005985
0.112251
-0.017684
-0.008673
0.013299
0.010281
-0.158226
0.003635
-0.243645
-0.063112
0.083012
-0.141483
0.198858
0.318258
0.283882
-0.118734
-0.268881
-0.019001
-0.046202
-0.135266
-0.059344
0.227841
-0.161356
-0.150046
0.056367
-0.075235
0.060451
0.199007
-0.005424
-0.128412
-0.205004
0.071718
0.076720
0.143522
0.068956
0.095551
0.268858
0.066288
0.053164
0.263891
-0.193280
-0.039158
0.227315
-0.297432
0.104856
-0.042789
0.210470
0.102823
0.004973
0.070841
-0.201549
-0.052242
0.053764
0.054090
-0.214448
0.106995
-0.121673
0.075114
-0.079225
-0.252162
0.040414
-0.081059
-0.176243
0.066429
-0.114706
0.100954
-0.047502
0.245091
0.180883
-0.038174
0.029046
0.168149
-0.014176
-0.046483
-0.241440
0.015235
0.110758
-0.051449
-0.011555
-0.073003
0.081348
-0.016701
-0.059329
0.101564
-0.036827
-0.018628
0.015675
0.111717
0.037535
0.154282
0.048518
-0.194421
0.051473
-0.118394
0.100239
0.064848
0.062913
0.079643
-0.014575
0.020249
0.141276
0.090523
-0.123779
0.156726
0.088043
-0.278396
0.178612
0.011059
0.133578
0.188241
0.105349
-0.053540
-0.122328
-0.030208
-0.194641
-0.177494
-0.108755
0.144783
-0.046700
-0.043763
-0.022870
0.048747
-0.011970
0.058091
-0.117219
-0.226494
-0.018677
0.019966
-0.135849
0.254093
0.174603
0.120008
0.167762
-0.002106
0.025523
0.322309
-0.017331
-0.131490
0.066328
-0.060965
-0.000398
0.056337
0.144018
0.028590
-0.151046
0.187928
-0.100256
0.098577
0.000018
0.000071
-0.001699
0.078547
-0.169079
-0.196602
-0.102608
-0.163026
0.064762
-0.025009
-0.091223
0.169023
0.096751
0.143429
-0.207209
0.178133
0.122845
-0.105360
0.222073
0.118400
0.057590
0.128563
0.009350
0.126121
0.102955
0.032326
-0.079365
-0.002089
-0.031692
-0.086037
-0.094675
0.008976
0.013699
-0.072691
0.124055
-0.020815
0.043446
-0.106868
0.002459
-0.151459
0.004382
-0.088701
0.030977
0.136831
-0.028844
0.004639
-0.032345
-0.019130
0.084524
0.107563
0.082677
0.118557
0.218358
-0.194793
0.171826
0.179803
-0.094087
0.018807
0.163795
-0.220228
-0.109819
-0.193462
0.039800
-0.203306
-0.050273
0.139561
-0.254391
-0.013618
-0.134640
-0.136234
-0.157027
-0.065478
0.024515
-0.085117
-0.162388
0.008234
-0.028223
0.036102
0.007989
0.240873
0.044426
0.023083
-0.035424
0.235223
0.197008
-0.101656
-0.027946
0.049639
0.027313
-0.139480
0.042142
0.207789
-0.109353
0.165846
-0.128243
0.033111
-0.190533
-0.165683
-0.028199
0.224861
0.005163
-0.032765
-0.058097
0.047058
0.025433
-0.047425
-0.183372
0.223355
0.006257
0.087160
-0.069517
0.139285
0.030062
-0.148932
0.127451
-0.072775
-0.117683
0.136648
-0.065592
0.018504
0.150397
0.279626
-0.048793
0.003927
0.123197
-0.167388
0.092459
-0.032573
-0.069181
-0.021112
0.053332
-0.118890
0.120835
-0.152783
0.015107
0.054102
-0.096005
-0.038960
-0.038998
0.095898
0.002207
0.076979
-0.160559
0.127285
0.102784
-0.144541
0.092126
0.070577
0.121368
-0.087734
0.225572
0.084820
-0.069217
-0.060037
0.234436
-0.213086
-0.145183
-0.197377
0.163366
0.037736
-0.183937
0.180926
-0.280832
0.013412
-0.144146
-0.128630
0.002868
-0.182995
0.109147
0.047540
-0.151832
-0.059024
-0.068604
-0.087163
-0.166681
0.185461
0.146914
0.010871
0.152214
0.028089
