0.377698
0.189230
-0.440169
-0.022929
-0.484104
0.000903
-0.018811
0.492764
-0.301967
0.195065
-0.324069
-0.032648
-0.044376
-0.041654
-0.306913
0.579855
0.256650
0.237587
-0.580754
-0.109610
0.328591
0.488813
0.274242
-0.394426
-0.278997
-0.159534
0.312076
-0.024776
-0.390453
-0.043558
-0.066448
0.042168
-0.268354
-0.247177
-0.208772
-0.307877
-0.201038
0.456963
-0.181003
-0.135168
0.422146
-0.254232
0.327091
0.086883
-0.141900
0.073666
0.314792
-0.128631
-0.218868
0.253619
-0.098892
-0.314107
0.379277
0.029135
0.287053
-0.001336
-0.452334
0.275570
-0.029338
0.189006
0.307465
-0.458216
0.047835
0.347064
-0.093463
0.241139
-0.164782
-0.024238
0.107323
-0.220401
0.379047
-0.286103
-0.155245
-0.067037
0.184374
-0.274496
-0.329224
0.329433
-0.171689
-0.321106
-0.154396
0.198569
0.038979
-0.416226
0.353114
-0.051650
-0.225304
0.550213
-0.309449
0.144624
0.136169
-0.189628
0.319845
-0.401293
0.294913
-0.368010
0.073266
-0.378184
-0.182199
0.141127
0.379420
0.438874
0.438312
-0.006592
-0.192192
-0.472806
-0.196208
0.034944
-0.019305
0.023681
0.113453
-0.302814
0.008675
-0.082918
-0.007037
0.274792
0.095371
-0.077529
0.248849
0.340596
-0.357621
-0.314391
-0.119673
0.473099
-0.063242
-0.188667
-0.231237
0.407626
-0.418023
0.423567
-0.286223
0.448140
0.160834
-0.446340
0.606020
-0.352854
-0.183363
0.448657
-0.339845
-0.565132
-0.038247
-0.087214
0.001854
0.402329
-0.243287
0.572152
0.240475
-0.420455
0.232608
-0.194845
-0.053545
0.341051
0.240669
0.250012
0.124733
0.134439
-0.110723
0.252607
-0.365843
0.049226
0.408049
0.160818
0.438132
0.070026
-0.171196
-0.291196
-0.178889
0.194092
-0.049476
-0.344589
-0.016929
-0.256194
0.426675
-0.332768
0.224614
-0.367951
0.261970
-0.507178
0.069194
0.355059
-0.221679
-0.170278
0.185794
0.200361
-0.436792
-0.115410
0.178130
-0.078580
0.300381
0.483261
-0.397057
0.322666
0.239282
-0.020309
0.099607
0.084468
0.107157
0.074207
-0.460144
-0.253520
-0.389596
0.461822
-0.255179
-0.253870
-0.292140
0.004833
0.304220
-0.329610
0.140563
-0.224808
0.037835
0.090966
-0.060595
-0.569587
-0.061428
0.238520
0.380249
-0.082210
0.354288
0.271237
0.307115
-0.227825
-0.634985
0.133852
-0.312584
-0.178336
0.470956
-0.044554
-0.097767
0.253117
0.161930
0.163670
-0.155903
-0.459959
0.399866
-0.073474
0.015165
-0.545154
0.215645
0.506383
-0.371521
-0.106464
-0.067023
0.237980
0.239849
0.604068
-0.187070
-0.112422
-0.434559
0.068702
-0.328823
-0.120055
-0.500391
0.061238
0.423439
0.086264
-0.296106
0.347529
-0.293358
0.272906
0.000905
0.137152
-0.046386
0.421617
0.184106
-0.655909
-0.229262
0.230797
0.048195
0.273282
0.013015
-0.095633
-0.340044
0.137161
0.195354
-0.315201
-0.286357
0.341548
-0.357647
0.039960
-0.325858
-0.187391
0.207472
-0.320431
0.133806
0.407634
0.200586
-0.138561
0.032299
0.280714
-0.134464
0.385013
-0.345788
-0.271753
0.390713
-0.212860
0.375014
0.049709
-0.487329
0.163211
-0.183547
-0.012383
0.183611
-0.342223
0.086041
0.429804
0.131466
-0.442618
-0.002888
0.255095
0.251040
-0.104809
-0.454000
-0.465925
0.465622
-0.090596
0.045188
-0.397192
-0.436385
0.383232
-0.043840
0.301566
-0.081461
0.296549
-0.445011
0.398485
-0.003454
0.117707
-0.314684
0.104062
0.038734
0.346885
-0.041692
-0.037921
0.034995
0.176044
0.293522
0.317835
-0.272986
-0.273363
-0.301453
0.371423
-0.109539
0.214641
0.133151
-0.331582
0.398120
0.028839
-0.160269
-0.106233
-0.104843
-0.331493
0.470634
0.460733
0.200700
0.278688
-0.184385
0.161844
-0.393034
-0.138468
0.113930
-0.489435
0.515829
-0.296453
-0.192492
-0.186875
0.440310
-0.043377
-0.119470
-0.052896
-0.233735
0.424169
-0.388380
-0.480677
0.605793
0.102022
-0.265734
-0.270101
-0.215447
-0.072761
0.099266
-0.100902
-0.464675
-0.280002
0.360206
0.143145
-0.391982
0.168678
-0.224967
0.601294
0.090742
-0.088882
-0.322210
0.353505
-0.046775
-0.274453
-0.022435
-0.103313
0.137800
-0.333993
0.261735
-0.392054
-0.114893
-0.340263
0.185859
-0.139690
-0.418969
0.384394
0.202556
0.408256
0.008536
-0.186426
0.251933
0.129257
-0.393839
0.400876
-0.093363
-0.070165
0.292199
-0.399488
0.256744
-0.424403
-0.265912
-0.170455
0.121631
0.299256
0.133557
0.213588
0.293103
0.001890
0.373338
-0.224808
-0.135477
-0.308778
0.345439
-0.251553
0.256637
0.302570
-0.240543
-0.352960
-0.110067
0.262546
0.349177
0.041891
-0.405771
0.172793
-0.264551
0.364116
-0.092880
0.105156
0.116261
0.067776
0.482091
0.096724
-0.322048
-0.117914
-0.202055
-0.447113
0.014962
0.414603
-0.214711
-0.109384
-0.307477
-0.119951
0.109907
0.432415
-0.190936
0.387293
0.252152
0.195931
0.507350
-0.239509
0.357878
-0.365319
-0.206688
-0.194027
0.023089
0.013239
0.193915
-0.205134
-0.012238
0.137138
0.235372
-0.320423
0.062940
-0.433440
0.223954
0.032149
0.496883
0.032117
-0.061626
-0.314571
0.323351
-0.007852
-0.291223
0.124981
0.112359
0.486716
0.100094
-0.156114
0.193148
0.234450
-0.121063
-0.278133
-0.293393
0.410132
0.352569
0.308873
-0.343991
-0.393117
-0.240142
0.195365
0.521599
0.325701
-0.216983
0.215704
-0.369685
-0.246953
-0.438617
0.326757
-0.333920
0.229115
-0.259715
-0.306238
-0.241392
0.126396
-0.307387
0.182273
0.129936
0.535045
0.154723
-0.286384
0.102354
-0.166784
-0.321389
-0.084551
0.135990
-0.417102
0.278437
0.438820
-0.335860
0.429822
0.478017
-0.269859
0.171938
-0.593632
-0.534680
0.165491
0.263158
0.295111
0.332639
-0.135550
-0.174703
-0.113772
-0.384724
0.487960
0.078483
-0.093374
0.420689
-0.319123
0.147679
-0.275322
0.598801
-0.457861
0.186209
0.420211
-0.004525
-0.091277
-0.406964
-0.334387
-0.177238
-0.172495
0.020904
-0.312997
0.510334
-0.308683
0.142144
0.089433
-0.175306
-0.514023
0.292655
0.171094
-0.164217
0.097562
-0.342310
0.091027
-0.010406
-0.129573
-0.008608
-0.027863
-0.311316
0.254798
-0.231176
-0.240980
-0.233856
0.525409
-0.214195
0.261999
-0.471832
0.054023
-0.250084
0.380109
0.346504
0.345596
-0.079645
-0.091514
-0.326156
0.344149
-0.177565
-0.298486
0.394904
-0.165930
-0.332983
0.129914
0.456825
-0.411162
-0.074419
-0.310784
-0.374535
0.525257
-0.031547
-0.096540
0.576422
0.147597
-0.321263
0.325606
-0.470991
0.319348
-0.344301
-0.070368
-0.344044
-0.404693
-0.009955
0.264573
0.415963
0.355916
0.213305
-0.476716
-0.054641
-0.100392
0.028800
-0.292704
-0.322097
-0.465679
0.212559
0.315663
-0.026963
0.436481
0.335855
0.253236
0.023602
0.173342
-0.435524
-0.080367
0.028882
0.403536
0.240174
-0.110248
-0.287636
-0.415043
-0.335892
-0.317147
-0.215158
0.049982
0.241023
0.098227
-0.123510
0.155261
0.377575
-0.013371
0.440150
-0.099799
0.126040
-0.408480
-0.256346
-0.246954
0.257025
0.419257
-0.090575
-0.244322
0.145882
-0.382660
0.268685
-0.186700
-0.151813
-0.349304
0.121296
-0.153517
-0.219330
0.426744
0.339975
-0.143946
-0.001607
0.081837
-0.505514
-0.175143
-0.235326
0.358332
-0.349393
0.538658
-0.129849
0.206358
-0.110416
-0.151684
-0.375161
-0.207833
0.147909
0.365776
0.258553
0.175457
-0.324896
0.083013
0.498062
-0.297161
0.032587
-0.184088
0.423065
-0.319976
0.106990
-0.037670
-0.099189
-0.353308
-0.551819
0.028894
0.278878
0.464797
0.434144
-0.051970
0.070532
0.303497
-0.097393
-0.151474
-0.266033
-0.309872
-0.042395
-0.070762
0.229110
-0.150010
0.565270
-0.394022
-0.027442
0.274823
-0.414238
-0.285446
0.201795
-0.218424
0.101912
0.438088
-0.173196
-0.090225
0.136667
0.349410
0.122080
-0.408942
-0.124164
0.198367
0.116946
0.092237
-0.490052
-0.356082
0.275082
-0.453817
-0.413954
0.260144
-0.202962
-0.018820
0.025351
-0.168484
-0.266739
0.210713
-0.477827
-0.326204
-0.026154
0.351889
0.167263
-0.091536
0.303634
0.068290
-0.083987
-0.119074
-0.073002
-0.132441
0.399513
-0.302736
-0.094589
-0.235967
0.370593
-0.333038
0.052403
0.058501
-0.441508
-0.251273
0.155183
0.268297
-0.326541
0.270178
-0.432931
0.297505
0.109089
0.236366
-0.276466
-0.203145
0.130488
0.359265
-0.393634
0.146567
-0.414613
0.275558
0.334773
0.201578
-0.253358
0.409454
0.109087
0.353574
-0.069689
-0.366857
0.276915
0.176634
0.354607
-0.612338
0.072991
-0.140304
0.230961
0.103875
0.185852
0.173871
-0.018989
-0.078635
-0.233397
0.018737
0.280436
-0.295742
0.097565
-0.091278
-0.144701
-0.294706
0.237030
0.232867
-0.382710
0.165645
