0.069993
0.137882
0.016222
0.065584
-0.045706
-0.030251
0.202373
0.017434
-0.155587
-0.079349
-0.144980
-0.056041
-0.085543
-0.116572
0.130445
0.053765
0.159462
-0.010696
0.078908
-0.132980
-0.101284
0.071293
0.195223
0.087792
0.108887
0.040749
-0.082082
0.107597
-0.047023
0.155241
0.063390
0.031813
0.116044
0.153294
0.117008
0.133704
0.018162
-0.188987
0.141904
-0.151964
0.074487
0.153121
0.143160
-0.044125
0.006066
-0.127588
0.122988
0.219870
-0.032275
0.026709
0.139535
0.133916
-0.153457
0.179971
-0.080109
0.174576
0.029413
-0.205164
0.067057
-0.114471
-0.166763
-0.153142
-0.023952
-0.188026
0.115313
0.133017
0.138956
0.130737
0.188455
0.024946
0.109936
-0.155523
-0.104186
0.164420
-0.081002
0.183426
0.139217
0.121956
-0.030891
-0.074771
0.050965
-0.084202
-0.106936
-0.111478
-0.059522
-0.180985
-0.103854
-0.133765
0.172338
-0.155055
-0.010389
0.131063
0.053475
0.087702
0.113862
0.065242
0.169241
-0.130206
0.184174
-0.035452
0.144770
0.112320
-0.005131
-0.212025
-0.171299
-0.115571
0.015569
-0.194008
-0.129254
0.014710
0.174310
0.176759
-0.174810
0.064018
-0.157234
-0.169463
0.059971
-0.132767
0.118892
-0.067923
0.064116
-0.008269
-0.185887
0.041116
0.068779
-0.092905
-0.086932
-0.070531
0.082649
0.068988
-0.008145
-0.033403
-0.121936
0.109448
0.100186
0.014600
0.051234
-0.059487
0.115453
-0.030895
-0.076103
-0.165201
0.086819
-0.170463
0.020174
-0.172776
-0.000355
0.013724
-0.117705
0.098614
-0.024075
-0.067117
-0.137679
-0.111812
0.023144
-0.162552
-0.058422
-0.021311
0.005754
-0.073512
-0.092304
0.057727
0.032864
-0.049422
0.008555
0.193924
0.111462
-0.048788
0.212715
-0.005473
0.163313
0.097213
0.148785
0.062454
0.202562
0.060652
0.022843
-0.080417
0.192647
-0.115472
0.061770
0.142334
-0.058054
-0.173290
0.193918
-0.207635
-0.000468
0.139501
-0.093388
-0.133736
0.155827
-0.152138
-0.083765
-0.204188
-0.032225
-0.140517
-0.155728
0.059001
0.062206
-0.120121
0.014442
-0.107234
-0.044399
-0.141518
0.204072
-0.216643
-0.143942
0.036152
-0.135869
0.184048
0.121610
0.037867
-0.091412
0.034214
-0.123215
0.208165
-0.044174
0.038838
0.222783
-0.075762
-0.113628
0.030203
-0.091762
0.057175
-0.069133
-0.090820
0.202529
0.090919
0.142240
-0.056827
0.060948
-0.221678
-0.098913
0.006431
-0.081355
0.116300
-0.017873
0.219539
-0.013503
-0.018622
-0.204834
0.025285
-0.097406
-0.048832
0.120015
-0.065331
-0.123211
0.008166
-0.051143
-0.015565
-0.087210
-0.005798
0.149774
0.202280
-0.109861
0.174703
0.035323
-0.146597
0.125944
-0.084919
-0.077725
0.119678
0.031729
0.104044
0.065646
0.074701
-0.078815
-0.095403
-0.228701
0.073683
-0.069028
-0.118751
0.137584
0.166950
0.031822
-0.005293
0.132687
-0.053484
-0.168702
-0.130137
0.108848
0.028183
0.004020
-0.028050
0.026557
0.128481
0.184236
-0.043167
0.084560
0.034892
-0.030377
-0.104666
0.072608
-0.139949
-0.006667
-0.061621
0.124610
-0.023553
-0.085078
0.064870
-0.123857
0.157518
-0.054689
-0.104860
-0.157657
-0.120420
-0.135065
-0.033527
0.105219
-0.052383
-0.116708
-0.058537
0.078643
0.027554
-0.067520
0.073241
-0.090595
-0.134502
0.028890
0.154041
-0.004150
-0.125436
-0.120756
-0.086628
0.079941
0.132743
0.093948
0.024778
0.015836
0.180288
-0.005036
-0.046216
-0.007716
-0.041252
0.040188
-0.028358
0.087768
0.158436
0.028659
0.195122
-0.026716
-0.176439
0.147427
-0.070463
0.052449
-0.201090
0.054043
-0.061640
0.069124
-0.101170
0.228099
-0.125609
0.167720
0.008522
0.156500
-0.012096
0.127043
0.170611
-0.068050
-0.236821
0.123520
0.034032
-0.087864
-0.075704
-0.090479
-0.174893
-0.162791
-0.187643
0.108161
0.136349
-0.027672
0.090379
0.055291
-0.213055
-0.179414
0.027199
0.073283
0.075981
-0.118859
-0.081694
-0.044603
-0.134833
0.156545
-0.035927
-0.100138
-0.085978
-0.006716
-0.158848
0.090678
-0.082668
-0.236482
0.225429
0.119035
-0.180483
0.116126
0.184444
-0.039720
-0.192028
0.111437
-0.013632
0.085840
0.020379
0.142069
0.054114
-0.117799
0.130188
0.051707
-0.068708
0.124921
-0.001835
0.101651
-0.096781
0.169493
-0.068234
-0.027590
0.064667
0.181824
-0.010930
0.102196
-0.008947
-0.037337
-0.179988
0.222365
0.091688
0.110208
-0.097160
-0.159240
-0.111047
-0.120595
0.022679
-0.146412
0.185823
-0.080654
-0.154546
0.140001
-0.028196
0.064784
0.158626
-0.122769
0.017847
-0.079099
-0.082782
-0.076588
0.108833
-0.195490
-0.078847
-0.063687
-0.166435
-0.037034
0.024450
-0.055913
0.086274
-0.177376
0.114319
-0.055539
0.006750
-0.150572
-0.013958
-0.132297
0.087346
-0.168778
0.072758
-0.129638
0.043141
-0.198223
0.080231
0.012120
0.089775
-0.139277
-0.068926
-0.004163
0.029793
-0.154696
-0.076616
-0.109366
0.007984
-0.072744
-0.132032
-0.022533
0.056111
-0.112348
-0.038215
-0.002672
-0.155727
0.101103
0.024353
-0.210594
0.186252
-0.081594
0.143364
-0.084061
-0.010378
-0.093571
-0.029147
0.161292
0.133694
-0.082481
0.183302
0.097506
-0.218964
-0.073348
-0.031759
-0.168488
0.085412
0.115758
0.017563
0.084656
0.089345
-0.111291
-0.124047
0.063249
-0.039419
0.038696
0.045753
0.031669
-0.041793
0.115777
-0.108691
0.160305
-0.028906
-0.044249
0.147006
0.185361
0.016107
-0.096817
-0.099596
0.118710
-0.067528
0.092703
-0.155239
0.078437
-0.068463
0.025601
-0.079882
-0.097392
-0.168058
0.052184
-0.177274
0.125400
-0.069389
0.117654
-0.167743
-0.119889
-0.091370
-0.058124
-0.134017
0.111537
0.032516
-0.065835
0.108848
-0.141764
-0.074441
0.121243
0.206050
-0.116821
0.124613
-0.000613
0.200832
0.052025
0.183594
-0.036825
-0.144216
-0.144349
0.070291
0.152740
-0.233711
-0.048906
-0.032946
-0.170760
-0.065185
-0.035111
-0.122415
-0.057433
0.075122
0.095848
-0.027937
-0.160232
-0.018650
-0.147549
-0.061524
-0.000852
-0.091344
0.025116
-0.046200
0.012757
0.195486
0.026905
-0.065691
-0.050582
0.113402
-0.093182
0.148531
0.082949
0.166701
-0.133968
0.114768
-0.069861
0.080606
-0.050227
0.016517
0.075263
0.084960
0.141081
0.133366
0.163851
-0.043546
-0.125090
0.032005
0.103759
-0.201295
-0.117391
-0.144762
0.125339
0.061696
0.083444
0.050463
0.099245
-0.119197
-0.103104
-0.004621
-0.079452
0.050885
-0.111876
0.199999
0.178162
-0.099495
0.055598
-0.174270
0.051638
0.191795
-0.152909
0.082842
0.002192
-0.005269
-0.174500
0.008482
-0.144228
-0.090265
0.182211
0.196639
-0.015466
0.032187
0.009624
-0.125262
0.175689
0.012726
-0.064418
0.095139
0.145510
0.001367
0.070011
-0.165100
-0.165124
-0.090480
0.075104
0.073464
-0.138258
-0.055578
0.087759
-0.063857
0.049965
-0.138890
0.074288
0.165434
-0.168708
-0.104565
0.127766
-0.010754
0.124216
0.058401
-0.011722
0.167748
-0.069786
0.062035
-0.070426
0.138981
-0.206218
0.119026
0.008278
-0.032947
0.195582
0.080421
-0.136622
0.113792
-0.113304
0.092949
0.151735
0.051823
-0.140676
0.103109
-0.114816
0.007271
0.035895
-0.139501
-0.076213
0.099280
0.184165
0.010349
-0.114578
0.132909
0.102727
0.076067
-0.000661
0.133149
0.184039
-0.073818
-0.197250
0.173649
-0.141616
0.008457
0.099633
-0.175544
-0.044571
-0.165102
-0.129099
-0.101845
0.028126
-0.154174
0.181458
-0.040798
-0.125076
-0.181944
-0.058572
0.064063
0.118042
0.003106
0.086308
0.110560
-0.097609
-0.194700
0.001552
0.079606
0.111252
-0.173608
0.027613
-0.055914
0.015465
0.101451
0.189628
-0.016221
0.078469
0.007987
-0.018175
-0.022686
0.014025
-0.057475
-0.070696
0.088693
-0.157978
-0.056102
-0.111437
0.132893
0.198861
0.086789
0.164490
0.037047
0.196658
-0.051235
-0.024726
-0.093374
-0.077766
-0.179637
0.106932
-0.030635
0.169246
-0.027079
-0.037826
-0.110523
-0.090496
0.000247
0.029639
0.092691
0.123294
-0.179885
-0.096666
0.100901
-0.149685
-0.094613
0.173472
-0.236041
0.148976
0.187724
-0.115428
0.127710
0.050807
-0.011093
-0.190497
-0.183514
0.032477
0.095667
-0.010962
0.127664
-0.125942
0.091587
0.090304
-0.093726
-0.097103
-0.108889
0.126803
0.014980
0.055819
0.031226
0.028128
-0.056071
-0.177087
0.028035
0.247195
0.068114
0.057619
-0.180157
-0.030761
0.100975
0.055029
-0.043826
0.159209
0.091603
0.207039
0.066232
0.163678
-0.048490
0.065400
0.162011
0.101835
0.125874
0.086305
0.073487
0.127172
0.066767
0.015533
0.056661
0.016311
0.186062
-0.015292
-0.017716
0.009904
0.099600
0.173860
-0.065395
-0.163379
-0.049378
0.017003
-0.020733
-0.063168
0.172671
-0.020367
0.084410
-0.135562
0.042005
0.034560
0.039426
-0.153481
-0.108242
-0.126990
-0.188110
0.194597
-0.025180
-0.009436
-0.197230
-0.125557
0.087496
0.119222
0.188815
0.051065
-0.043703
-0.044631
0.047154
-0.218797
-0.032662
-0.156276
-0.068282
-0.159253
-0.039200
0.153728
-0.058225
-0.049347
-0.118305
-0.109751
-0.110737
-0.129335
0.088600
0.088040
0.107025
0.216894
-0.095345
0.127802
0.143681
0.116384
0.115062
-0.038592
0.056008
0.131036
-0.116623
0.134200
0.075765
-0.068022
0.296717
-0.202882
-0.148922
0.181538
0.112425
-0.005389
-0.098306
-0.168078
0.062825
0.159247
0.163413
0.001800
0.092703
-0.190407
-0.027305
0.116055
-0.048401
-0.057611
0.165469
-0.051176
-0.021444
0.135002
-0.200194
-0.061542
-0.058432
-0.050039
-0.059873
-0.083527
0.121230
-0.063266
0.032284
0.142369
0.037393
0.147043
-0.164672
0.000300
0.021774
-0.056610
0.143291
-0.098825
0.137971
0.039628
-0.183036
-0.169143
0.049757
0.103524
0.137686
-0.169804
-0.210924
0.046652
0.098505
0.267007
-0.010171
-0.153093
0.223056
0.084541
0.053772
-0.055912
0.025808
-0.100832
0.155574
-0.187937
-0.020947
0.073449
-0.254056
0.047600
0.162517
0.169837
0.010201
0.098549
0.073825
0.119217
0.126727
-0.145262
0.081293
-0.053643
0.099399
0.021451
-0.174109
0.067887
-0.230545
-0.113337
-0.039786
-0.235240
0.066095
-0.003069
0.032146
-0.034324
0.006048
-0.248673
0.207109
-0.233117
0.155075
0.140205
0.163174
-0.163787
0.115068
0.004935
0.161817
-0.166423
0.041551
0.028989
-0.031053
0.188721
-0.014467
-0.086470
-0.069836
0.149983
-0.110781
-0.119510
-0.011809
-0.026405
0.165812
0.129810
-0.208516
-0.102146
0.118967
-0.190271
0.170137
-0.066825
0.075964
0.083441
-0.214879
0.116100
0.088205
0.031014
-0.059374
-0.072893
0.060678
-0.091718
0.087317
0.103507
-0.095570
-0.014517
0.098274
-0.197554
0.182543
-0.060838
-0.038534
-0.027458
-0.092831
0.096075
0.204104
-0.022754
0.075391
-0.085015
0.071836
0.102162
-0.185982
0.093496
0.160481
-0.088877
0.054191
0.166349
-0.217884
0.021470
-0.062568
-0.050939
0.164678
0.167586
-0.083473
0.018279
0.015854
-0.054421
-0.122122
0.057942
-0.042360
0.123599
-0.140897
-0.074657
-0.149905
-0.165294
0.048953
0.010208
0.097606
-0.215917
-0.139567
0.134289
-0.202612
-0.033540
-0.126700
-0.159088
0.040664
-0.024930
-0.029722
0.133188
0.095106
0.061545
0.073575
-0.059581
-0.143045
0.045449
0.046136
0.077330
0.046849
-0.053914
0.053952
0.118668
-0.089778
-0.198254
0.138717
0.046692
-0.054129
0.150391
-0.104518
-0.001735
-0.112901
-0.120315
0.134550
0.065350
-0.191020
-0.050551
-0.058029
-0.165002
-0.119948
-0.086308
0.005927
-0.169982
0.065253
-0.001470
-0.068089
0.117344
0.138876
0.051648
0.163862
0.200273
0.129821
0.170959
-0.131680
0.026277
0.125550
-0.108239
-0.146760
0.131255
-0.022093
-0.020595
-0.080613
0.028708
0.120464
0.197670
-0.099373
0.108248
-0.042584
0.206786
0.130489
0.118235
0.055402
-0.109594
0.121274
-0.040598
-0.065042
0.088519
-0.054478
-0.096294
0.042800
-0.175572
-0.033021
-0.160446
0.037120
-0.028666
0.140462
0.038778
0.087416
0.021798
-0.132441
0.062029
0.111626
0.174755
-0.056810
-0.085357
0.094386
-0.006927
-0.167786
-0.037878
-0.093456
0.161248
0.008628
0.180825
-0.117818
0.044585
0.018939
0.135801
0.171768
-0.109724
-0.105235
-0.025854
-0.049608
0.085394
0.184462
-0.099168
-0.022058
-0.096118
0.102540
0.108095
-0.153151
-0.017986
-0.173220
-0.059728
0.048418
0.068456
-0.203131
-0.155560
-0.197187
0.211396
-0.123582
0.039948
-0.066126
0.118239
-0.080833
-0.040726
-0.034691
-0.110288
-0.028402
-0.008279
-0.015594
-0.040297
-0.095465
-0.054609
-0.204524
0.069483
-0.067095
0.179607
-0.054173
0.122216
-0.077834
-0.185588
-0.133735
-0.022871
0.154971
0.018777
-0.090865
-0.158946
-0.037959
-0.242404
-0.104408
-0.115866
-0.012862
0.059459
-0.056207
0.174548
-0.093707
-0.059855
0.241923
0.089056
0.069991
-0.080248
0.174603
-0.072319
0.129102
0.177432
0.162279
-0.205563
-0.208573
0.087220
-0.092694
0.037818
0.072392
0.210419
0.134001
-0.120768
-0.013902
-0.095116
0.016447
0.062200
-0.017631
0.167310
0.155477
-0.127090
0.144559
-0.233094
0.106581
-0.143005
-0.039122
0.021403
0.081804
-0.023279
-0.184335
0.025522
0.095977
0.105833
0.082912
-0.122842
-0.231107
0.124144
-0.038483
0.116474
-0.189822
0.005401
-0.260477
0.088687
0.070273
0.172455
0.146411
-0.123366
-0.171940
-0.132322
-0.237115
0.170997
0.161792
0.096706
0.047241
-0.063745
0.016129
-0.026229
0.182105
0.102134
0.117008
0.068485
0.123324
0.189986
0.012441
-0.116644
-0.060390
-0.067172
-0.128749
0.032569
-0.109206
0.014199
-0.232963
-0.128251
-0.198339
-0.193846
-0.105207
-0.111309
-0.089865
0.128546
-0.178250
0.143215
0.087438
0.024238
-0.011910
0.074990
0.115975
-0.145125
-0.070737
-0.099459
-0.167542
-0.145120
0.043882
-0.140389
0.053297
-0.136896
-0.021700
-0.134591
0.217189
0.119394
-0.026803
0.005708
-0.049919
0.140166
0.131204
0.221888
0.055059
0.009495
0.018724
0.006611
0.178105
-0.146943
-0.116931
0.060483
-0.208290
0.069485
0.216696
0.169253
0.099599
0.130267
-0.015333
-0.169697
0.062628
0.169634
0.005398
0.029315
-0.166881
-0.003525
0.027697
-0.018576
0.098957
-0.034111
0.093893
-0.189674
-0.110374
-0.091804
0.159299
0.117411
-0.007617
0.084963
-0.139877
0.068491
0.127072
0.068144
-0.011248
-0.067110
-0.025916
0.199052
-0.214913
-0.072294
0.090023
-0.004235
-0.091944
0.071277
0.120885
0.000322
-0.017937
0.045823
0.063033
0.146538
0.127181
0.155518
-0.099291
0.050900
-0.174766
-0.011555
0.017917
-0.118961
-0.039297
-0.147872
0.098209
-0.055401
-0.121929
0.017425
-0.114240
-0.194046
-0.130234
0.212515
0.229260
0.051045
-0.074197
0.146712
0.059795
-0.037176
0.008817
-0.054247
-0.089296
0.050929
0.104827
0.065215
-0.072693
-0.014104
-0.074556
-0.014763
0.089927
0.114590
0.072665
-0.138942
-0.142780
-0.078312
0.131265
0.176256
0.054116
-0.059741
-0.050632
0.130956
0.056338
-0.159209
-0.010375
-0.131893
0.039617
-0.036595
0.078895
-0.040762
0.080925
-0.137344
-0.040813
-0.159804
-0.039286
0.112320
-0.173602
-0.091214
0.169162
0.071355
-0.076020
-0.224958
0.139121
0.064115
-0.131590
-0.080042
0.095302
0.145958
0.145874
0.096950
-0.087035
0.134932
0.205445
-0.130179
0.174422
0.117994
-0.149279
0.182045
0.153382
0.114541
-0.153527
-0.166843
-0.047785
0.099943
-0.223515
0.060435
-0.110823
-0.171924
0.106700
0.055131
0.014598
-0.093580
0.000803
0.150949
-0.094635
-0.091525
0.136763
-0.083777
0.078803
-0.129009
0.084848
0.104451
0.121488
0.115386
0.169511
-0.110636
0.148437
-0.159605
0.094145
0.139863
-0.075362
0.060011
0.219862
0.008803
0.124904
0.227035
0.201116
0.002884
-0.029535
0.111976
0.181726
-0.167556
-0.029335
0.173139
0.160870
-0.188601
0.037992
-0.061733
-0.029379
-0.116952
0.004927
-0.023107
0.098152
-0.003230
0.018992
0.212397
-0.131681
0.064736
-0.131412
-0.147458
-0.013796
-0.134399
0.068941
0.042168
0.122234
-0.007759
-0.168055
0.080150
-0.193262
-0.173213
0.118490
-0.063313
0.059261
0.138793
0.041935
-0.044759
0.152449
0.098451
0.101030
-0.026827
-0.121456
0.171085
-0.251105
-0.000944
0.194776
-0.111309
0.012453
0.115608
-0.092769
0.208370
0.058932
-0.174018
-0.133228
0.024947
0.172223
-0.019084
-0.115143
-0.163017
0.203029
-0.138985
-0.017590
0.171877
0.045470
0.071345
0.145833
0.057182
-0.019149
0.051757
0.090046
0.205787
0.092899
-0.157309
0.130460
0.171787
0.088461
-0.064468
-0.109785
-0.092308
-0.127403
0.036766
-0.016077
0.147255
-0.062896
0.089154
0.094219
-0.073043
-0.103261
-0.074248
0.115131
-0.065792
0.035363
0.016086
0.117594
-0.224137
-0.059597
0.055543
0.122240
-0.076451
0.004446
0.001636
-0.195628
-0.017415
-0.089820
-0.126981
0.091408
-0.001596
0.202443
0.059839
0.048334
-0.119786
-0.132196
-0.145295
-0.017426
-0.135789
-0.018876
0.077544
-0.148962
-0.133652
0.127056
-0.115717
-0.107623
0.084754
0.215176
-0.050828
-0.065159
-0.058957
0.070129
0.251900
-0.094499
-0.052291
-0.000494
0.001737
-0.245013
0.020485
-0.090549
0.132756
0.123258
0.025638
-0.069606
-0.113359
0.036785
-0.068176
0.049459
0.015037
0.096133
-0.009492
0.005416
-0.211415
-0.104410
0.140830
0.164338
0.085679
0.012990
-0.082130
-0.123515
-0.132734
0.147479
0.007573
-0.016071
-0.035081
-0.119369
-0.127695
0.120427
-0.083028
0.114335
0.075179
0.037243
-0.183631
0.159515
0.103806
-0.081032
-0.000110
-0.162910
-0.196558
0.049783
0.133238
0.054044
0.088166
0.140831
0.087652
-0.128594
0.056948
-0.151439
0.126597
-0.055280
0.049234
-0.143370
-0.122573
0.095688
0.205465
-0.094022
-0.003679
0.243367
-0.054505
0.009419
-0.091596
0.106859
0.071472
-0.018064
-0.183005
-0.201896
0.155260
-0.206503
-0.048255
-0.230769
-0.065241
0.164736
-0.149624
-0.100674
-0.039480
-0.163094
-0.030136
0.177120
-0.032785
0.174412
-0.020935
-0.106481
-0.175704
0.074152
-0.053090
0.101827
-0.175397
-0.004850
0.086381
-0.228772
-0.034634
-0.129028
0.173872
0.109046
0.175845
0.012514
-0.189642
-0.079608
0.040766
0.052157
0.009132
-0.053343
-0.032544
-0.207000
-0.144362
-0.048344
0.016461
0.109798
-0.159994
0.077298
0.199860
0.082726
0.177296
0.106983
0.218740
-0.106027
0.012303
0.062664
0.030452
0.029049
0.154621
-0.146670
0.093036
0.169065
-0.195517
0.076121
-0.252129
-0.021215
0.075676
0.042228
0.099106
0.119253
0.059125
-0.062926
-0.084316
-0.158630
0.036435
-0.043836
-0.030311
0.129364
0.081978
-0.196098
-0.050906
0.143990
-0.176567
0.178502
-0.107918
-0.056781
-0.072057
0.140558
-0.160414
-0.026870
0.124941
0.201717
-0.143585
0.195471
-0.009094
-0.204130
0.056678
-0.067036
0.027993
-0.030636
-0.145439
0.119135
0.292088
-0.194749
0.230412
-0.103721
-0.082771
-0.076112
-0.139648
-0.051817
-0.086240
-0.007446
-0.072552
0.195836
-0.211533
-0.054042
-0.144329
-0.097938
-0.223423
-0.066386
-0.050286
0.199568
0.142513
0.244538
-0.087009
-0.114065
0.007889
-0.095349
0.203275
0.133981
-0.094596
0.188005
-0.002448
-0.093832
-0.060610
-0.107915
-0.087414
0.075077
-0.014801
-0.014193
-0.163136
0.142086
0.055321
-0.212347
-0.139884
0.134652
-0.125017
0.074257
-0.181972
-0.113164
-0.051140
-0.077431
-0.095209
0.056598
-0.038413
0.079240
0.000022
0.020912
0.141723
0.122065
0.082419
-0.052326
0.074155
0.137380
-0.092763
-0.002273
-0.145993
-0.028831
-0.218460
-0.113598
0.117058
0.058547
0.026856
-0.130654
-0.152112
0.017546
-0.093867
0.143765
0.148248
0.045618
0.156441
-0.113458
0.167278
0.032884
0.166703
0.159272
0.182849
-0.238977
0.231942
0.056612
-0.118845
0.088455
-0.132409
-0.142023
-0.050447
-0.017635
0.138256
-0.086050
-0.164390
-0.012541
0.012223
0.201848
-0.196363
0.106161
-0.054448
0.159769
-0.057347
-0.152955
0.061022
-0.028872
-0.124437
0.064453
-0.082525
-0.180471
0.074422
-0.061344
-0.176465
-0.120338
0.066782
-0.007425
0.077348
-0.022359
-0.195924
0.104701
-0.150287
-0.128486
0.123651
0.032324
-0.047770
0.145099
-0.062694
0.093458
-0.005688
0.133068
0.089467
-0.144895
0.122969
-0.063257
0.090654
0.039214
0.025639
0.016381
-0.163132
0.139843
0.054575
0.002123
-0.038561
0.266210
0.038822
-0.021115
0.199648
-0.034243
0.088265
0.083756
-0.082067
-0.176992
0.148245
-0.169918
0.059417
-0.065105
-0.193426
-0.006010
0.107957
-0.178692
-0.090142
0.151473
0.153112
-0.113679
-0.038220
0.087294
0.044786
0.141463
0.147247
0.036946
-0.016003
0.093934
-0.128784
0.104056
-0.011119
-0.173126
-0.145252
0.046752
-0.072836
0.176113
0.014013
0.013912
0.017212
-0.132565
0.066096
0.127457
-0.038785
-0.033349
0.040951
-0.172936
-0.075632
0.146622
0.037730
-0.016592
0.160149
0.125598
0.048745
0.002262
-0.120556
-0.150797
-0.003757
-0.144190
0.074869
-0.058103
0.122879
-0.145993
0.046244
-0.205956
0.166984
-0.018603
0.000149
0.119134
-0.038098
-0.231113
0.085961
-0.172729
-0.066831
-0.039999
0.043422
0.102568
0.073574
-0.078742
0.159883
-0.070885
0.138947
0.178783
0.043227
0.006278
0.079320
-0.068266
0.122076
0.218145
-0.091452
0.034944
0.151012
-0.003435
-0.162882
0.065631
-0.164416
-0.039594
0.084855
-0.079766
-0.083158
-0.158621
-0.194260
0.189897
-0.013323
-0.067374
0.049695
-0.008727
0.240640
0.097649
0.142677
0.107538
-0.023081
0.053894
-0.054817
-0.089882
-0.096479
-0.037437
-0.160924
-0.130860
0.034038
-0.021987
0.128007
-0.082699
-0.112822
0.123823
0.078071
0.050037
0.131693
0.145688
-0.055480
-0.003477
-0.064579
-0.026224
-0.049716
0.089735
-0.142097
-0.160338
0.165870
0.145648
0.148701
-0.091096
0.099547
-0.074947
0.125877
0.087166
-0.099837
0.001594
0.162352
0.017181
-0.058175
-0.060784
-0.090312
-0.081608
-0.072699
0.134564
-0.173519
-0.094833
-0.168402
0.181025
-0.215691
0.019926
-0.203185
-0.125922
0.119441
0.131217
-0.004784
0.102578
0.037181
0.107382
0.124649
0.093159
0.165777
-0.175253
0.130508
0.091821
-0.042468
-0.054385
0.135765
-0.105542
0.036581
0.156777
0.011855
-0.208533
-0.125786
-0.156179
0.013527
0.009317
-0.184772
0.131722
0.054956
-0.017548
-0.076367
0.124311
-0.092947
-0.230626
0.150520
0.024653
0.004906
0.101358
0.134244
0.101038
0.019295
0.046775
-0.053924
0.160391
0.084080
0.150022
0.096219
-0.072301
-0.151039
-0.145041
0.023255
-0.103471
0.088710
-0.083722
-0.088905
0.227280
-0.122538
-0.184848
-0.180778
-0.049257
-0.163311
-0.007056
-0.117679
-0.215537
0.048723
-0.037846
-0.053496
-0.152923
0.175580
0.154675
-0.159750
-0.150093
0.003529
0.169431
-0.105730
-0.118462
0.035689
0.106487
0.182183
-0.056426
-0.009805
0.160956
-0.138273
0.032932
0.095532
0.107509
0.000035
0.040457
0.050786
0.155230
-0.096489
0.175184
-0.011219
0.132643
0.083015
-0.075874
-0.131959
-0.078791
0.081456
-0.071925
0.173006
-0.075566
-0.243486
0.045878
0.110786
0.127657
0.019440
-0.207636
-0.086782
-0.161840
-0.034808
-0.135449
-0.022838
0.240904
-0.148504
-0.059138
-0.079424
0.175489
0.051531
0.236851
0.156629
-0.016957
-0.104543
0.117478
-0.002227
-0.005861
0.139108
-0.087027
-0.057012
-0.112086
-0.009893
-0.148482
-0.057165
0.066526
0.107048
-0.167118
-0.060712
-0.235167
-0.066217
0.128588
0.186905
0.147835
0.166620
-0.125013
0.042703
-0.055311
0.152781
0.125715
0.105618
0.023476
0.022800
-0.113370
0.001413
-0.085296
0.079209
0.067646
-0.139314
0.176621
-0.162999
0.032955
-0.133909
0.101604
-0.080825
0.056440
-0.095378
-0.091332
-0.104032
0.201291
0.171657
0.030412
0.180283
-0.156890
-0.027748
-0.101189
0.198605
-0.137212
-0.082404
-0.140191
0.166756
0.150390
0.002616
-0.122526
0.080694
-0.071602
0.142209
-0.177678
-0.123424
-0.062676
0.064948
0.180745
-0.166726
0.165733
-0.039919
-0.146713
0.161858
-0.106952
-0.021414
0.064142
-0.049993
0.002117
-0.090635
0.161533
0.171751
-0.044646
0.093460
0.007972
0.166961
0.055990
-0.194173
0.008406
0.021300
-0.116159
-0.179661
-0.042544
0.091105
0.155376
0.142498
-0.058139
-0.174915
-0.121856
-0.103831
0.164408
0.033877
-0.160791
0.137480
0.063641
-0.072711
0.142025
-0.080764
0.137035
0.068564
-0.043387
0.037370
-0.114185
-0.113971
0.024956
0.025748
0.030754
0.125508
0.009815
-0.214129
-0.167324
-0.002628
0.028629
0.063409
0.065722
0.152062
0.092636
-0.002603
-0.088140
0.067822
-0.062196
0.154975
0.174319
-0.134619
0.068702
0.117826
-0.172501
-0.221406
0.224045
-0.079231
0.129549
-0.182567
-0.196048
-0.123597
0.067288
-0.036662
0.110846
-0.094933
0.037127
-0.129909
-0.190665
0.004548
0.026061
-0.039704
0.104446
-0.137309
-0.059091
-0.012422
-0.101982
0.012224
0.118903
0.009176
0.045525
-0.018349
0.027076
-0.003798
0.113246
0.105476
-0.069421
-0.076825
0.137052
-0.162857
-0.138107
-0.040212
-0.017090
0.090404
0.180732
-0.037651
-0.190036
-0.072919
-0.110462
-0.203769
-0.163283
-0.101386
-0.013003
-0.134946
-0.162967
-0.177444
0.066300
0.086660
-0.120208
-0.177422
-0.139056
0.068443
-0.001417
-0.091522
-0.084710
0.045210
0.035702
-0.100111
0.037702
-0.111834
-0.092561
0.053250
-0.037991
-0.162627
0.018540
-0.177289
0.178907
-0.058524
0.071917
0.150515
-0.155651
0.135211
0.136411
-0.109814
-0.144110
-0.077228
-0.067497
-0.195068
-0.030675
0.145814
-0.106737
-0.005454
-0.133453
0.099253
-0.086122
-0.077706
0.111199
-0.022805
-0.106755
0.071994
-0.066123
0.093095
0.135986
-0.135587
0.087668
-0.006753
0.019737
0.069291
-0.014637
0.027402
-0.076236
-0.056029
0.134830
0.138267
-0.098173
0.073603
-0.140053
-0.073877
-0.244211
0.013792
0.173634
0.088230
-0.100029
0.128562
0.164401
-0.061185
-0.054308
0.044337
-0.158477
-0.098747
0.095294
0.173364
0.118998
0.086837
0.027973
0.012109
-0.109342
0.106261
-0.021750
-0.033664
0.103871
0.153040
0.189862
0.145445
0.222478
0.151143
0.013794
-0.074110
-0.008131
-0.099061
0.147808
0.081952
-0.063946
0.027212
-0.185438
-0.226222
0.123275
-0.158795
-0.061052
-0.055263
-0.059052
-0.166494
0.074797
-0.055750
-0.045139
-0.047952
-0.039117
-0.051995
-0.072533
0.030285
0.127193
-0.010145
0.066369
-0.038200
0.107629
-0.175195
0.102151
0.100159
0.078739
0.065214
-0.141738
-0.177756
-0.169575
-0.115191
0.208245
0.011675
0.045069
-0.037681
-0.183207
-0.139893
-0.166256
0.035508
0.106763
0.041976
0.018439
-0.176077
-0.109319
0.001118
-0.142652
0.136550
-0.017163
-0.080697
0.155157
-0.180140
0.086638
-0.004929
-0.196652
-0.235929
-0.040560
-0.143077
-0.002008
0.091224
-0.064614
-0.140700
0.045312
-0.101698
-0.127174
-0.082558
0.133949
-0.042938
0.015543
-0.048077
0.138976
-0.038870
0.069988
-0.045968
-0.007581
-0.186802
-0.043338
0.192546
0.120469
0.117024
-0.126344
0.149859
0.187692
-0.170251
0.113543
0.154230
0.040880
-0.042741
0.040760
-0.142950
-0.180429
-0.039627
0.159807
0.025126
0.154716
-0.030296
0.192129
-0.012323
-0.039900
-0.127321
-0.012213
-0.010591
0.145658
0.085309
-0.105154
-0.115325
-0.123861
-0.025102
-0.073237
0.145189
-0.215292
-0.155848
-0.052177
0.001949
0.092857
-0.044828
-0.145407
-0.120553
-0.014952
-0.057654
-0.087728
-0.225816
-0.180145
-0.020921
-0.154466
0.107154
0.205332
-0.165432
-0.126549
-0.117170
-0.033363
-0.122214
0.000250
0.003389
-0.007651
-0.130297
0.096585
-0.116565
-0.151808
-0.102965
-0.102056
-0.134884
-0.184185
0.101878
-0.157095
-0.148056
-0.001790
0.089049
0.069637
-0.116692
-0.086644
0.027680
-0.013729
-0.067995
0.125818
0.215708
0.102072
0.227324
-0.107191
-0.079481
-0.066686
0.032126
0.000260
-0.044327
-0.098496
-0.098626
0.214832
-0.060732
0.219908
0.042219
-0.070311
-0.001149
0.189446
0.085851
0.057717
-0.016606
0.009923
0.075082
-0.043867
-0.148227
-0.156226
0.051265
-0.036285
0.080398
-0.077669
0.217910
0.073269
-0.101084
0.199902
-0.038978
0.134769
0.003379
-0.189651
0.025573
0.045199
-0.016680
0.055921
-0.086667
0.048408
0.068173
0.173458
0.169050
0.065798
-0.036867
0.228091
0.139414
-0.179066
0.155781
0.047442
-0.009333
-0.149304
-0.075263
-0.102593
0.174075
-0.182046
0.235558
-0.052319
-0.085022
0.005169
-0.084443
0.105592
0.204697
0.013047
-0.028013
0.208329
-0.186319
-0.230546
-0.132632
0.171005
-0.141082
-0.164614
-0.133606
-0.110460
-0.198794
0.144984
0.178220
0.091657
-0.044149
-0.036682
0.109776
0.230341
-0.164905
-0.002513
-0.002407
0.171297
0.087321
-0.030165
-0.185676
0.021417
0.068051
0.183824
-0.164365
0.121223
-0.057648
-0.150796
0.080783
0.069587
-0.036924
-0.213566
0.105939
-0.099858
-0.154599
0.183503
0.154592
0.058050
-0.051637
0.115498
-0.195551
0.018110
0.135492
0.085201
0.007790
0.196223
-0.062972
-0.039411
-0.079237
0.100803
-0.119895
0.162854
-0.119100
0.113304
-0.046303
-0.167073
-0.053779
0.002978
-0.073150
-0.084577
0.126908
0.089522
0.084465
-0.049003
0.142877
0.020227
0.039575
0.169488
-0.134857
-0.031089
0.054706
0.140081
-0.045403
0.020585
-0.030538
-0.101873
0.122143
0.023931
0.051729
0.052508
0.004932
-0.170268
-0.080812
0.047696
0.083279
-0.037052
-0.040979
0.187692
-0.117891
0.165490
-0.093824
0.126783
-0.064728
0.003777
-0.140377
0.036610
-0.121117
-0.095346
-0.133160
-0.150997
-0.184971
-0.016951
-0.039191
-0.123767
0.106431
-0.030668
-0.162648
0.042601
0.143228
0.042878
0.044761
-0.188305
-0.066474
-0.011459
0.115521
0.094706
0.119862
0.108809
0.032743
-0.072527
-0.105188
-0.107544
-0.021540
-0.120575
-0.121266
0.048287
0.009911
-0.103053
-0.106505
-0.177035
-0.203858
-0.011868
0.045605
0.027303
0.040348
0.126532
0.091660
0.115038
-0.089982
0.043150
0.170161
-0.058112
-0.063322
-0.191595
0.116212
-0.175867
-0.051513
-0.055359
0.078166
0.103269
-0.065221
-0.132588
0.079888
0.113324
-0.159562
-0.008212
-0.033828
0.096752
0.099111
-0.102446
0.018146
-0.140530
-0.057045
-0.156498
-0.181029
-0.156218
0.059961
0.219532
0.062289
-0.130600
-0.048598
0.143619
-0.086468
0.128980
0.052552
0.028298
-0.160222
-0.196894
-0.173395
0.012851
0.026834
-0.149883
-0.070157
0.133458
-0.049913
-0.079789
0.046259
0.071448
-0.082155
-0.140032
0.053647
0.072074
0.087155
-0.123999
0.111045
-0.122489
0.121973
-0.132331
0.178419
0.183445
-0.140655
-0.028860
-0.090180
-0.162376
-0.015910
-0.189406
0.170913
-0.153628
0.005417
0.119685
-0.150603
0.114867
-0.079793
0.056898
-0.012326
-0.098774
-0.065230
0.057935
0.083161
0.094826
0.143161
-0.097749
-0.008879
-0.130733
-0.152903
0.249159
0.125219
0.085333
0.191739
-0.032618
-0.172272
0.161786
-0.152690
0.032132
0.135317
-0.035273
-0.042565
0.145934
-0.139743
-0.047225
-0.210948
0.165656
0.000522
-0.028029
-0.050455
0.226286
-0.027581
0.070171
0.043307
0.192735
0.132445
0.174534
0.137102
0.216509
-0.179056
0.033736
0.102468
-0.131968
-0.199311
0.020046
0.124612
0.081208
-0.086852
-0.085712
-0.157605
-0.204615
-0.070103
-0.090319
0.211264
-0.019158
-0.230523
-0.066420
0.085604
0.111605
0.090423
-0.199435
0.171857
0.074900
-0.062758
0.232887
-0.139837
-0.180389
0.031486
-0.061699
-0.127186
0.161451
0.135619
0.024459
-0.040718
-0.118367
0.161141
0.085415
-0.000102
-0.031932
-0.172644
-0.134756
-0.173932
-0.151410
0.145244
0.048538
0.092318
0.075770
0.192675
0.138490
0.152133
-0.018034
-0.147846
0.183213
0.151055
-0.044343
-0.179565
0.011373
-0.122629
0.137285
0.175962
-0.009939
0.202590
-0.105780
0.003811
0.047814
0.125945
-0.091921
-0.059379
-0.049849
-0.098154
0.173966
-0.135820
-0.112856
0.193259
-0.049828
0.149008
-0.063484
-0.083401
0.012372
0.088866
-0.058315
-0.166530
-0.064131
0.104579
0.081930
-0.081902
-0.027289
-0.146172
-0.040385
-0.077504
-0.066656
-0.175564
-0.007869
-0.013921
0.088743
-0.067227
0.049824
0.044815
0.025381
-0.055269
-0.066883
-0.117447
0.183927
-0.139093
-0.169987
0.066554
-0.110099
0.031066
0.070591
-0.154691
-0.072682
-0.080664
0.142400
0.086397
0.111235
-0.113142
0.064445
-0.221858
-0.137464
0.180665
0.091047
0.028762
-0.007875
0.095857
0.104805
-0.138057
-0.056388
-0.068079
-0.150046
-0.082225
-0.074376
0.167887
-0.010050
-0.074701
-0.146156
-0.023255
-0.123434
0.127417
-0.036642
-0.005779
-0.030389
-0.017078
-0.031548
0.182447
0.068183
0.022307
0.199012
-0.004597
-0.193611
0.180765
0.018355
-0.043944
0.108358
0.166288
0.079930
-0.076615
0.149220
-0.047101
0.067878
-0.017342
-0.024614
0.094935
0.135488
0.058251
0.001089
-0.172410
-0.092363
0.033569
-0.001790
-0.110340
-0.152805
0.171025
-0.182185
-0.120614
0.168605
0.051262
0.020892
-0.065019
0.129493
0.098281
-0.097859
0.064553
-0.072687
0.116163
-0.030717
0.194162
-0.138786
0.101039
0.185184
-0.249273
0.076362
0.174464
0.173011
-0.118679
-0.035672
0.065708
-0.060836
-0.002074
-0.035727
0.130198
-0.135124
0.047340
0.107750
0.030242
0.029501
0.125208
-0.050110
-0.106983
0.033430
0.140792
-0.121546
0.051526
0.090248
0.071471
-0.147988
-0.108173
-0.191133
-0.135203
0.070036
-0.092756
0.100376
-0.034314
0.039587
0.113461
-0.149795
0.149713
-0.094078
-0.139508
-0.109727
0.163351
-0.114663
-0.203665
0.044670
0.151601
0.159619
-0.160266
0.193005
-0.142276
-0.194120
0.075393
-0.020938
-0.158860
0.207519
0.185977
0.191930
0.052596
-0.134580
-0.024112
0.136021
0.205457
0.048220
0.144594
-0.050321
-0.027122
-0.230125
-0.221586
0.079088
-0.164204
-0.075432
0.118835
-0.043879
0.002685
0.021194
-0.055042
0.089701
0.095110
-0.067898
-0.122708
-0.107133
-0.150800
0.179357
0.160443
-0.031643
0.018686
-0.008481
-0.092339
-0.200339
0.162119
-0.033496
0.195431
0.151412
0.014748
-0.099711
0.206585
0.114572
-0.114660
0.075604
0.176155
0.153514
0.012880
0.023954
-0.077968
0.012315
0.176843
0.180592
0.098195
0.029824
0.159596
0.014976
0.015503
0.085229
-0.069838
-0.189910
-0.085307
-0.203134
-0.114644
-0.160784
-0.076161
0.042512
-0.182804
0.190543
-0.150714
0.167853
-0.115420
-0.079885
-0.153005
0.042593
-0.150948
-0.135662
0.128855
0.187600
-0.073404
0.112087
0.021990
0.205834
0.022089
-0.085382
-0.120045
0.038348
-0.178476
-0.118429
0.189492
0.115642
0.055675
0.017893
0.060757
0.092203
-0.169679
0.154755
0.123351
-0.022813
-0.064133
-0.049394
-0.066658
-0.197503
0.186515
0.008581
0.064324
0.038984
-0.120463
0.140894
-0.084095
0.127819
-0.001283
-0.140257
-0.017260
0.224937
0.004433
-0.024208
-0.130807
0.006358
-0.184368
-0.057503
0.222458
0.148396
-0.195943
0.188176
0.017414
-0.068887
0.095573
-0.078764
-0.113436
0.108071
0.097381
0.034882
-0.131548
0.097808
0.158945
-0.171467
0.046288
0.155526
0.071109
-0.083730
0.125494
0.074230
0.050229
-0.070465
0.014364
0.012589
0.058671
0.215691
0.228956
-0.131990
0.065868
-0.194777
0.122201
-0.117756
0.153695
0.033537
-0.091218
0.154820
0.070813
-0.091621
-0.036175
0.103049
-0.178332
-0.172155
-0.113648
-0.074516
0.151108
0.144595
-0.109286
-0.228883
0.196074
0.182744
0.078008
0.227663
0.061090
-0.171483
-0.177584
0.007975
0.069612
0.001069
-0.002797
0.108195
-0.032472
0.139852
0.165467
-0.047590
-0.102833
-0.045969
0.079105
0.053089
-0.042964
0.044872
0.003275
0.142382
-0.033966
0.083432
0.018151
0.021767
0.134843
-0.124227
-0.092877
-0.207860
-0.149758
-0.051759
-0.203683
-0.100103
0.079490
-0.139602
0.030297
0.244314
0.160537
0.135263
-0.171167
-0.078955
-0.028221
0.090622
0.084281
0.158666
-0.017765
0.122138
-0.017294
0.076982
0.018666
-0.018769
-0.015580
-0.042718
0.087115
-0.118659
0.110599
-0.170843
0.016879
-0.260489
-0.164708
0.094818
-0.040091
0.154151
0.102396
0.047115
0.105378
-0.202044
-0.115671
0.026014
-0.086332
-0.010549
-0.018601
0.228568
0.124393
0.142296
-0.028511
0.167250
-0.108329
-0.062900
0.089306
0.163526
-0.108539
-0.227437
0.080510
-0.205962
0.023537
0.110178
0.197329
-0.094914
-0.137312
-0.088785
-0.141466
-0.202596
0.174637
0.086838
0.193344
-0.001552
-0.087014
-0.048915
0.005132
-0.028405
0.124738
0.047067
0.218621
0.054943
0.055430
0.090959
-0.182012
0.163255
-0.116523
-0.095534
0.059096
-0.180375
0.021039
0.047703
-0.053804
-0.022338
-0.024558
0.004938
0.068650
-0.011797
-0.112659
0.177585
0.122807
0.069354
0.105982
0.171107
0.071001
0.114993
0.029847
-0.154175
0.096969
0.114624
0.074120
-0.003675
0.064126
0.025296
0.072722
0.226861
-0.167637
0.014844
0.021728
0.029946
0.004783
0.098999
-0.109062
-0.132146
0.109504
-0.035901
0.144959
0.041550
-0.154482
-0.015211
-0.132807
0.095815
-0.030427
-0.064903
-0.080635
-0.095995
0.169753
0.056484
-0.139049
0.079707
0.002762
0.068632
0.062162
-0.156216
-0.064138
-0.079343
-0.010510
0.126368
-0.170771
-0.161675
0.092151
-0.229698
-0.152787
-0.177390
-0.000339
-0.111545
-0.079262
-0.152543
0.240575
-0.170622
-0.105052
-0.184008
-0.069850
-0.180495
0.036610
0.164831
0.149984
-0.137866
-0.283833
-0.105866
0.082954
0.117955
0.130304
0.193998
-0.126759
-0.027002
-0.027756
0.180362
0.138030
0.186142
-0.102773
-0.088402
-0.075770
-0.153429
-0.011410
0.136744
0.156831
-0.087286
0.061850
-0.028444
0.024028
-0.069768
-0.138549
-0.080500
-0.107713
-0.149548
-0.226240
0.142631
0.028197
-0.050688
0.078652
0.244090
-0.183711
0.177712
-0.124235
-0.194117
0.137902
-0.085241
-0.120590
0.127125
-0.109408
0.039039
0.111756
0.023041
-0.014136
0.099144
-0.020199
-0.085140
-0.018096
-0.163018
-0.167386
0.098616
-0.279037
0.108119
0.165548
-0.099103
0.134104
0.072629
-0.191146
-0.145484
0.087298
0.112481
-0.117331
-0.194480
-0.004787
-0.112110
0.031321
0.100562
-0.117127
-0.097707
0.032640
0.209039
-0.094627
0.102089
0.127193
0.095281
0.042880
0.086523
0.005091
0.035759
-0.103045
-0.020331
-0.047445
-0.104206
0.119500
0.139895
0.054696
0.032829
-0.075337
-0.001967
-0.187562
-0.177275
-0.098934
-0.169282
-0.002131
0.051841
-0.075789
-0.016124
0.159880
0.013239
-0.022217
-0.155528
0.070790
-0.014386
-0.002722
-0.127771
-0.020344
-0.043312
-0.178518
-0.104290
0.011068
0.123668
-0.084349
-0.135739
-0.073444
-0.000971
0.022371
0.003022
-0.138935
0.092651
-0.149622
-0.060474
0.065608
0.157059
-0.067852
0.087263
0.030189
0.111653
-0.165322
0.075083
0.024061
-0.038024
-0.139584
0.192540
-0.101394
-0.113178
0.050096
0.033959
0.098370
0.086262
-0.063674
-0.156689
0.066674
0.135471
-0.158023
-0.104888
0.090375
0.174199
-0.106119
0.006781
-0.039660
-0.021929
-0.130920
-0.139392
-0.007896
0.091562
-0.097149
-0.142229
-0.153621
-0.074543
0.020208
-0.110797
-0.018904
-0.062059
0.084413
0.078753
0.168436
-0.100044
0.042602
-0.048511
-0.009284
-0.224841
0.084771
-0.089317
-0.066373
-0.156246
-0.039338
0.032950
-0.150400
0.082522
-0.137372
-0.010543
-0.098075
-0.022595
-0.075639
-0.011732
0.161449
0.025680
-0.058701
0.097477
-0.154516
0.179564
-0.074645
0.137976
-0.137825
0.200912
0.150534
-0.081503
0.183025
-0.051461
-0.021669
-0.045464
-0.180825
-0.176306
-0.002679
-0.025866
-0.055110
-0.077712
0.119004
0.145751
0.184205
-0.128749
0.203941
-0.040841
0.129125
0.043623
-0.154848
-0.153554
0.068168
-0.096481
-0.048123
0.077222
-0.178047
0.179586
-0.112174
-0.175954
-0.053032
-0.162699
-0.000536
0.178841
0.037798
-0.156340
-0.062284
-0.041473
-0.111627
0.059380
-0.067328
0.055968
-0.021346
0.183727
0.174979
0.106590
0.051708
-0.167500
-0.256445
-0.104545
-0.017247
0.160795
-0.142767
-0.075676
-0.167226
0.028264
0.027435
-0.145723
0.090916
-0.138592
0.106729
0.098063
0.184590
0.057195
-0.165301
0.000056
-0.121438
-0.105577
-0.210591
0.065870
0.130820
0.109472
-0.146216
0.090810
0.158023
0.161334
-0.050878
-0.082610
0.140326
0.054504
-0.043841
0.063153
-0.136089
-0.064945
-0.114514
-0.033981
0.056461
-0.113056
0.004048
0.052350
0.102510
0.030562
0.094780
-0.166331
0.204137
0.044337
-0.139113
-0.075649
-0.007315
-0.117997
-0.137947
0.111387
-0.079532
-0.030892
-0.181024
0.057061
-0.018440
0.088256
-0.098934
-0.063137
-0.010147
-0.189015
-0.017610
-0.049349
-0.042909
-0.008122
-0.017104
0.123542
-0.199336
-0.111011
0.079185
0.003304
-0.213232
0.118647
0.001591
0.046532
0.153492
-0.006543
0.045902
0.062974
0.147505
0.090084
0.006391
0.102658
-0.177034
-0.070837
0.112004
0.007064
0.170862
-0.113218
0.141182
0.101366
-0.160354
-0.052819
-0.117852
-0.000828
0.148148
-0.101528
0.000711
0.189837
0.203801
0.015140
-0.111173
-0.148323
0.171299
-0.071180
0.170354
0.165671
0.266966
0.110386
0.105279
0.115662
-0.232132
0.145374
0.087942
-0.061218
-0.030784
-0.061812
-0.201537
-0.124729
0.035457
0.058129
0.132887
-0.232459
-0.254430
-0.236517
-0.014625
0.066032
0.125513
-0.043169
-0.018906
-0.047851
0.047170
-0.057301
-0.139510
0.268903
0.011712
0.220310
-0.047724
-0.052858
-0.177722
0.060209
0.017143
-0.036935
-0.034932
-0.042234
0.010808
-0.056080
0.114643
-0.128558
-0.107034
-0.051921
0.083644
-0.116777
-0.153756
0.075101
0.000019
0.028651
0.122496
-0.197751
0.203639
-0.191377
0.169099
0.034915
0.169528
-0.076024
0.062420
0.134793
0.143548
-0.015148
-0.090495
-0.182181
-0.112711
0.140141
-0.155878
0.160180
0.026074
0.142171
0.122769
-0.121059
-0.131253
0.056883
0.160653
0.129844
-0.049587
0.017427
0.025882
-0.030397
-0.023743
-0.057079
-0.163412
-0.133694
0.032797
-0.002699
0.153401
0.060400
0.096411
-0.072265
0.129487
0.100061
0.065683
-0.084252
-0.136427
-0.035567
-0.015115
0.108817
-0.154159
-0.053779
-0.095722
0.003096
0.013969
-0.075815
-0.051486
-0.024695
0.143663
0.054901
-0.185100
0.109895
-0.153880
0.106838
0.084687
-0.055803
0.021221
0.090341
-0.033996
-0.198041
0.076142
0.093533
0.134344
-0.090600
0.081990
-0.195208
0.047277
-0.074013
0.012034
-0.018836
-0.035717
0.135269
-0.089420
0.038464
0.111997
0.184492
0.011231
0.139500
-0.243729
0.096529
-0.178430
-0.239506
0.117789
-0.195607
-0.056657
-0.089787
-0.055029
-0.097571
-0.236279
-0.039312
-0.123686
-0.095897
0.147689
-0.110192
-0.098575
0.025685
-0.075780
-0.163825
0.234333
0.230483
0.178450
0.249488
-0.120339
0.065262
-0.176047
-0.195005
0.196675
-0.071684
0.202016
-0.101112
-0.072879
-0.178445
-0.099051
-0.149083
0.070745
0.174829
0.055211
0.017245
0.060399
-0.062952
0.131097
0.055519
0.008320
0.024013
-0.096892
-0.047456
0.113804
0.131786
-0.055293
-0.187475
-0.031141
0.063685
-0.072153
0.239753
0.109691
0.096564
0.037360
-0.090209
-0.082682
-0.094545
-0.139760
0.043085
-0.083245
0.160145
0.211906
-0.184872
0.003710
-0.205293
-0.021535
0.035341
0.119613
0.186727
-0.059151
-0.001615
0.038898
-0.019362
0.111581
0.041496
0.011529
-0.087812
0.155634
0.131210
0.188986
0.232890
0.112528
0.057117
0.171836
-0.014224
0.002364
0.060463
0.118609
-0.117973
0.008305
0.083440
-0.071957
-0.081510
0.055708
-0.144448
0.107363
-0.091846
-0.069303
-0.138870
0.068286
0.106301
0.004378
0.035497
0.035808
0.025733
-0.194890
0.045014
-0.070252
0.190055
-0.169661
0.112860
0.016168
0.114968
-0.140863
0.059719
-0.129233
-0.090765
0.193702
-0.098331
0.063314
-0.122841
0.192617
0.046175
0.101848
0.090087
-0.007104
0.021945
-0.027540
0.100882
0.205957
-0.191299
-0.046929
-0.082369
-0.156565
0.173965
0.118115
-0.137498
0.066118
0.253559
0.137047
-0.122057
-0.066434
-0.172251
0.179395
0.124088
-0.170111
-0.050011
-0.114067
0.116466
-0.121508
-0.207130
0.142302
0.079251
0.145932
0.068842
0.196807
0.146697
0.042149
-0.120852
-0.170309
-0.155679
0.140783
-0.011746
-0.106591
-0.103990
0.055986
-0.003278
0.056476
-0.039693
-0.124586
0.050660
0.056587
0.042251
0.121099
-0.022774
0.168590
-0.131606
0.010122
-0.146967
0.096664
0.188407
0.099540
-0.191569
-0.101687
-0.001421
-0.019002
0.032199
-0.035127
0.055248
-0.033879
0.116904
-0.136637
0.128126
0.097907
0.009635
-0.081958
-0.172560
-0.147124
-0.036337
-0.100526
-0.048267
-0.125032
0.137313
-0.081741
-0.127544
-0.116866
-0.207261
0.106640
0.123388
0.160151
-0.031028
0.177170
-0.139696
-0.194008
-0.168284
-0.066504
-0.081328
0.066895
-0.131200
-0.233356
-0.143545
-0.096493
-0.069608
-0.021451
-0.086754
-0.172962
0.113821
-0.165845
-0.156685
0.163719
0.000224
-0.167534
-0.109471
0.113048
0.223157
-0.056805
0.132352
-0.129030
-0.079065
0.055202
0.009302
0.112090
0.123195
-0.175224
0.256961
0.118490
-0.178592
0.127392
0.037943
0.199664
0.186594
-0.023998
0.164322
-0.092952
0.080460
0.185565
0.167191
0.194858
0.112949
0.046434
0.236614
-0.143445
0.075596
-0.034512
0.136736
-0.037830
0.166243
-0.012917
-0.122451
-0.002573
-0.209341
-0.092161
-0.072147
-0.075412
0.003004
0.113165
0.176722
-0.158591
0.024793
0.079749
-0.080986
-0.053367
-0.034704
0.138687
-0.095794
-0.152699
0.110458
-0.091734
0.068292
-0.005028
0.018691
0.207506
0.082955
0.127545
0.050023
0.091655
0.103465
0.092884
0.141540
-0.123951
-0.130174
0.113010
0.077866
0.243981
-0.125455
0.092514
0.126117
0.059151
0.086059
0.176630
0.042454
0.077912
0.079290
-0.129807
0.040228
0.018264
0.169672
-0.057729
0.091837
-0.079014
-0.188416
0.163750
0.199837
-0.095681
0.051757
0.102894
0.121089
-0.152481
-0.002243
0.019986
0.007534
0.159285
0.125857
0.094718
-0.139192
-0.055050
0.031415
-0.087999
-0.182198
0.148932
-0.115747
0.089646
0.105786
0.014758
-0.192088
0.141122
-0.084678
0.073048
-0.067608
-0.100903
0.058717
-0.151828
0.120539
-0.043060
0.134267
0.072820
0.115609
0.093656
0.091085
0.109636
0.093295
0.052723
-0.044531
0.007967
0.140387
-0.066309
-0.041241
-0.130610
-0.122659
-0.051890
0.170233
0.005487
-0.001205
0.004167
-0.013324
-0.141433
-0.111360
0.134639
-0.102311
0.041202
-0.058457
0.094359
-0.111465
0.021232
-0.059568
0.063615
0.126800
-0.022471
-0.085353
-0.100931
-0.137592
-0.134289
-0.109475
0.092032
-0.130905
0.064964
-0.110300
0.044210
0.054835
0.112971
-0.029516
-0.100128
-0.092153
0.129766
-0.046730
0.065415
0.122076
-0.144138
-0.129374
0.120676
-0.087412
-0.162731
-0.067276
0.100535
-0.098865
-0.139351
0.136142
0.040706
0.068690
0.047163
0.149923
0.027187
0.126419
0.053032
0.064938
0.019273
0.169821
0.095182
-0.128700
-0.067342
-0.165307
-0.046748
-0.109737
0.104194
-0.058468
-0.139937
0.188833
-0.084804
0.117149
-0.127680
0.181866
-0.124755
-0.026606
-0.030851
-0.059288
-0.086339
0.080787
0.056127
0.005615
0.004586
0.058086
-0.114123
0.141590
0.175497
-0.100957
-0.001439
-0.082042
0.140096
0.011629
0.140733
-0.100201
0.151728
-0.120251
-0.081802
-0.083630
-0.106010
0.007480
0.094633
0.001736
0.145012
0.068076
-0.110879
-0.045589
-0.179315
-0.118362
-0.071502
-0.117556
-0.038651
-0.006128
0.223774
-0.033209
0.089354
0.182844
-0.186224
0.183932
0.140304
0.106735
-0.109033
-0.158483
0.191920
0.147862
-0.091188
0.016886
-0.092048
0.178244
-0.027391
-0.188055
0.044404
0.148460
-0.210896
0.129731
0.023762
-0.102598
-0.040173
-0.082954
0.176484
0.047829
-0.140853
-0.096569
0.110708
0.050760
-0.029082
0.161364
0.063398
0.042800
0.018148
0.101774
0.116476
-0.062234
0.099289
-0.131546
0.091488
-0.097925
0.020751
0.083498
-0.132910
-0.119223
-0.022677
-0.201713
-0.020128
-0.194779
-0.116413
-0.158005
-0.123587
-0.136632
-0.001151
-0.212627
-0.026530
-0.126755
-0.157209
0.195858
0.014794
-0.054745
-0.062455
-0.095765
0.044920
-0.067315
-0.108228
0.180567
-0.062457
-0.133780
-0.002709
0.144841
0.015837
0.014320
-0.086739
-0.069444
-0.068886
-0.082855
-0.053690
-0.081767
0.037659
-0.075906
0.120447
0.096077
0.155353
0.021247
-0.169711
-0.153432
-0.009815
0.027197
-0.124746
0.200838
-0.045357
0.052444
-0.139937
-0.001070
-0.122070
-0.069271
-0.117837
0.214842
0.063675
-0.024661
0.110492
0.246773
-0.015418
-0.148369
0.190289
0.081362
-0.045921
-0.072509
0.020254
-0.046776
-0.088844
-0.092271
-0.056806
0.185985
0.021580
-0.145730
-0.134901
-0.079659
0.004513
0.017486
0.146261
-0.099792
0.137363
-0.078124
0.027906
-0.191690
-0.090953
-0.191031
0.066464
-0.063413
-0.007176
-0.215508
0.041221
0.158845
0.143148
0.180513
0.035643
-0.136349
-0.123055
0.169551
-0.163500
0.202606
-0.071525
-0.027486
0.007661
0.161013
-0.060615
-0.013141
0.048488
0.062419
0.146421
0.040789
-0.085259
-0.218311
0.020735
0.063331
-0.112738
0.157612
0.066005
-0.080251
0.088847
0.058009
0.218889
-0.070292
-0.131677
0.219811
-0.123782
-0.031568
-0.174372
-0.122417
0.091396
0.102655
0.151291
0.046523
-0.168974
0.147053
-0.081115
0.227688
-0.106126
0.022789
-0.022733
0.197622
0.008622
-0.098558
-0.003030
-0.046840
-0.176088
-0.046086
-0.104630
-0.027279
-0.034308
0.050621
0.104836
-0.131738
-0.164471
-0.054582
0.058946
-0.145526
0.121077
0.133962
0.003169
-0.160364
0.142317
-0.135509
-0.127674
-0.048041
-0.041062
0.032534
-0.059026
0.116124
-0.104055
0.010288
-0.104740
0.101398
-0.118620
-0.080317
-0.159963
0.064023
0.030409
0.129975
-0.133424
0.089197
-0.191979
-0.009530
0.082360
-0.044707
-0.133271
0.028003
-0.067943
-0.064932
-0.118587
0.187357
0.058757
-0.042156
0.164107
0.162368
0.083230
0.024627
-0.142952
-0.010219
-0.193353
0.021907
0.124871
0.033749
0.155545
-0.186211
-0.106636
0.113104
-0.143591
-0.172321
0.050115
0.028350
-0.137493
0.177465
0.116492
0.179898
-0.049678
-0.111338
-0.089587
-0.076162
-0.095268
-0.153158
-0.096835
0.046777
0.049111
0.169380
-0.034096
0.062530
0.115053
-0.133596
0.038479
-0.192496
0.049803
0.127875
0.022661
0.063660
-0.025216
0.047256
0.114370
0.200845
0.131283
-0.080661
0.087516
-0.216759
0.133609
-0.126848
-0.061377
-0.162348
-0.078542
0.075902
-0.099141
0.067073
-0.145764
-0.194250
0.089069
-0.143121
0.139890
-0.113324
-0.133575
0.024457
-0.216950
-0.227236
0.037435
-0.025432
0.192257
-0.060508
-0.099230
0.149306
0.184880
0.085885
0.148208
-0.137812
-0.019049
0.127834
0.125251
0.239541
-0.098312
-0.113537
-0.095857
-0.095857
-0.037549
0.210101
-0.157964
0.202618
-0.035226
-0.028354
0.079234
-0.214164
-0.165683
-0.163629
0.124465
0.193981
-0.092538
-0.215303
0.133762
-0.037993
-0.128070
-0.118591
0.069069
0.015742
0.097314
0.162471
-0.125958
-0.236608
0.082388
-0.057238
0.035519
0.058996
-0.098161
-0.039382
0.071908
0.020822
-0.100863
-0.097762
-0.037033
0.047046
-0.023945
-0.102982
-0.122656
0.035908
0.031653
-0.168469
0.134789
0.102358
-0.009134
-0.006188
-0.065373
0.072302
0.038767
0.004057
-0.214105
-0.234916
0.061088
-0.125762
0.105304
0.018898
-0.130969
-0.143964
0.108937
0.174820
0.093307
0.102963
-0.129880
0.124909
-0.063820
-0.087009
-0.190508
-0.204180
-0.127514
0.056383
-0.030136
-0.109168
0.118142
-0.100450
-0.080934
-0.083651
-0.141280
0.120631
-0.003317
0.134844
-0.103268
-0.179576
-0.218623
0.042936
-0.089215
0.024600
0.208444
0.066714
-0.008381
0.110103
-0.001401
-0.078227
0.023200
0.098470
-0.202744
-0.143071
0.066905
-0.096060
-0.033756
0.111871
-0.104746
-0.114387
-0.101479
0.035949
0.087925
-0.037611
-0.011596
-0.141373
0.034197
-0.088067
-0.131908
-0.002395
-0.149637
0.113504
0.057316
-0.120202
-0.049149
0.064423
-0.054748
-0.133781
0.218108
-0.181838
-0.016951
0.094636
0.027051
-0.051809
0.105436
0.083702
0.102382
-0.044671
0.155921
0.083017
-0.133079
-0.187662
0.010547
-0.021672
0.017401
-0.026546
0.171374
-0.142684
-0.162173
-0.007905
-0.205487
-0.102878
0.048852
0.185650
0.118302
0.066066
-0.042539
0.198948
-0.071740
0.072191
0.091348
-0.053551
-0.030160
-0.061438
0.066797
-0.073757
0.033650
0.032689
-0.118731
0.009427
0.163293
0.116692
-0.129640
0.059091
0.179962
0.074404
0.221036
-0.028840
-0.011040
0.191172
0.124506
0.076394
0.083491
0.184405
-0.090049
-0.144332
0.070344
-0.138845
0.050002
-0.130773
0.169966
0.208923
0.043581
-0.079523
0.133529
-0.032262
0.175491
0.114408
0.048634
0.055653
-0.136129
-0.134136
0.142137
0.151767
0.149156
-0.141390
-0.031252
-0.041493
-0.040881
0.168408
-0.177223
-0.035030
-0.004739
0.038023
0.075439
-0.060435
-0.125316
-0.172422
-0.100824
0.044356
0.157421
0.058266
0.002261
0.186613
-0.049886
-0.007096
0.107932
0.022090
-0.077878
-0.041814
-0.127346
-0.120421
0.171512
-0.011122
-0.054304
-0.001095
-0.064854
0.159947
-0.161741
-0.195376
0.119006
0.149009
-0.096729
-0.118418
0.044370
-0.200581
-0.106646
0.051311
0.138130
-0.119388
0.119895
-0.010394
-0.035881
-0.000747
0.168883
-0.071987
0.004499
-0.049574
0.101154
-0.054949
-0.004282
-0.080029
0.088803
-0.019126
-0.123342
-0.147905
-0.145042
-0.028324
-0.128909
0.121170
0.110298
-0.137493
0.115527
-0.111366
0.054731
0.006522
-0.048067
0.123981
0.022729
-0.135257
-0.177649
0.055223
0.128811
-0.093137
0.192338
0.153197
-0.092541
0.133819
-0.087841
-0.038203
-0.068225
-0.110288
-0.235016
0.086921
-0.141824
-0.040494
-0.106425
0.033687
0.098501
-0.006552
-0.125326
-0.020164
-0.195043
0.056238
-0.120500
-0.207963
0.107166
0.183676
-0.089077
0.120699
-0.054611
-0.021177
-0.069001
-0.026656
-0.089702
-0.124100
0.038730
0.111366
-0.196326
-0.039683
-0.067921
0.145864
-0.067425
0.096247
0.163694
0.123104
0.072296
-0.126784
-0.072436
-0.034856
0.092123
-0.108446
-0.144437
-0.021649
-0.179021
-0.119397
0.058564
0.168554
-0.149326
-0.014124
0.013390
-0.062771
-0.213873
0.198641
-0.147455
0.180401
0.157242
0.149158
-0.075788
-0.063007
-0.023549
0.035830
0.031407
0.093094
-0.095458
0.249511
-0.028175
-0.120420
0.103418
0.018195
-0.014847
0.006994
-0.211760
0.227177
0.166058
-0.180400
-0.105594
-0.006026
0.118538
0.111152
-0.085153
0.069184
-0.053393
0.160320
-0.126332
-0.083766
0.029693
0.186110
-0.130285
0.090560
0.121551
0.029459
0.121684
-0.113674
-0.135860
0.165620
-0.115323
0.144462
-0.079206
-0.022827
0.130509
-0.007142
-0.155556
0.174360
-0.043179
0.054971
0.063654
0.014502
0.076428
0.067733
-0.103181
-0.052832
-0.199685
0.053663
0.204218
0.203652
0.183788
0.199462
-0.103427
-0.035366
0.124349
0.151112
0.165735
0.060205
-0.141580
-0.013504
0.113273
-0.099655
0.200904
0.016727
0.006873
0.005405
0.029447
0.008540
-0.067883
0.048327
0.050260
-0.136960
-0.200828
-0.028937
-0.204857
-0.047330
0.191877
-0.007020
0.102136
0.004814
-0.134589
0.167597
0.090934
0.200961
-0.112346
0.051017
0.119942
0.048730
0.162202
0.090341
-0.163595
0.174366
0.144287
0.079002
-0.101972
-0.114559
0.038648
-0.023649
0.153503
0.013508
-0.222555
-0.051275
0.205954
0.073852
0.061436
0.095279
0.023182
-0.162050
0.053474
-0.123209
-0.165358
-0.038634
-0.130366
0.012880
-0.087271
0.108102
0.131080
0.130031
-0.098875
-0.093292
-0.033482
0.118588
-0.014538
-0.122674
-0.116374
-0.050145
-0.101292
-0.139798
-0.176931
-0.084501
-0.116052
-0.158358
0.101645
-0.059700
0.099228
0.054142
0.164086
-0.024296
-0.030148
-0.093320
-0.105480
-0.067898
-0.163981
-0.066665
-0.096989
-0.123146
0.005765
0.034677
0.063761
-0.017888
0.087770
-0.008726
0.182388
-0.014908
0.129693
-0.088296
0.127135
-0.102573
-0.089337
-0.055549
0.079238
-0.128609
0.118318
0.079352
-0.032349
-0.051855
0.122605
-0.041166
-0.153912
0.027755
0.173475
0.183247
0.014507
-0.078742
0.071039
-0.106081
0.092957
-0.041905
0.038050
0.124541
-0.030857
0.036761
-0.168689
-0.069581
0.050820
-0.039017
-0.097811
0.127164
-0.216055
0.148269
-0.031300
-0.014990
0.109270
-0.062212
0.033671
0.134830
0.172534
-0.078471
-0.180677
0.139862
0.052911
0.185606
0.056635
0.053727
-0.065283
-0.008907
-0.196096
0.022662
-0.120494
0.138171
0.108982
0.096359
0.165231
0.131188
-0.140104
0.219537
0.173213
0.163414
0.002361
-0.141354
-0.069219
0.123259
0.150956
0.075295
0.140924
0.218356
0.041387
0.024135
-0.170566
-0.104368
0.102266
0.205815
-0.179302
-0.146257
0.126727
-0.214573
-0.036576
-0.085623
0.194972
-0.162811
-0.069186
-0.119740
-0.131716
0.101666
-0.005389
0.142802
-0.176534
0.029089
0.140529
0.070669
0.140201
0.212011
0.132765
0.143934
-0.108984
0.052868
0.042359
-0.241766
0.050087
0.080744
0.089711
0.001747
-0.053288
-0.035173
-0.096448
0.108373
-0.079007
-0.117251
0.010503
0.124984
-0.106500
0.056330
-0.152331
0.036111
-0.070773
-0.046061
-0.065268
0.102410
0.008799
0.115953
-0.096335
0.102572
-0.171248
0.168334
-0.237834
0.025573
-0.102825
0.046358
0.085650
-0.075086
-0.131677
0.209610
-0.031727
-0.020255
-0.144517
-0.149828
-0.021619
-0.090804
-0.191033
0.118717
0.163650
-0.052126
-0.067692
0.133633
-0.126056
0.224553
-0.068620
0.142591
0.158561
-0.082797
-0.069392
-0.161380
0.009052
0.069195
0.079922
0.116905
0.127329
-0.079907
0.005809
0.158083
-0.172706
0.063177
0.210827
-0.002961
0.100531
-0.083756
-0.176105
0.125600
0.213474
0.001742
0.121999
0.031967
-0.106093
0.067346
0.147309
0.141617
0.025311
0.128418
0.060207
0.168654
0.004809
-0.210968
-0.059614
-0.051365
0.147091
-0.020698
-0.064727
0.236828
-0.016530
0.016372
0.137546
0.079752
-0.047811
-0.084695
0.107895
0.102534
-0.051539
-0.231408
-0.080291
-0.120002
-0.064564
0.110219
0.175908
0.002644
-0.219309
0.099724
0.042952
-0.147618
-0.239870
-0.218697
-0.039603
-0.238919
-0.121490
0.114634
0.150698
-0.163165
0.055556
-0.140977
0.119414
-0.001924
-0.122036
-0.134370
0.042510
-0.194748
-0.151475
-0.216586
-0.003479
-0.237082
0.008291
-0.050036
-0.226807
0.043449
0.191749
-0.149751
-0.190854
0.178840
0.055080
0.122548
-0.064812
0.136984
-0.218770
-0.062275
-0.164307
-0.066857
-0.060790
-0.123105
-0.066224
-0.049634
-0.186147
0.213794
-0.041266
0.081440
0.034346
0.099988
0.137385
-0.165851
0.022340
-0.091485
-0.174723
-0.010201
0.168014
-0.182867
-0.035988
0.159240
0.148079
-0.117475
-0.171051
-0.143436
-0.032413
0.070984
-0.189214
-0.040192
0.052309
0.145792
0.178045
0.098563
-0.071872
0.103052
0.146113
-0.115705
-0.058850
-0.184911
0.088902
0.111742
-0.094225
-0.084461
0.100594
-0.123913
0.011466
-0.037248
-0.101439
0.085870
-0.160470
-0.111529
0.133447
-0.129456
0.114606
0.184173
0.030480
-0.124551
0.007963
0.052605
-0.083878
0.103543
-0.108534
-0.097024
-0.166010
-0.001156
0.159777
-0.177660
-0.092463
-0.100331
0.082432
0.064617
-0.076777
0.070635
0.129598
0.012424
-0.090074
0.082914
0.006133
0.225502
0.157427
-0.203831
0.017596
-0.003622
0.106518
0.182735
0.176276
-0.029874
-0.085527
0.125571
-0.111529
0.193687
0.153708
0.066354
-0.037069
-0.022194
0.129360
-0.196740
0.113280
-0.000175
0.178116
-0.088135
0.051651
-0.020339
0.013847
0.103016
0.113640
0.195560
-0.129923
-0.036858
-0.165474
-0.030608
-0.134523
-0.080469
-0.110366
-0.054052
-0.037488
0.069353
-0.151566
0.188454
0.047488
-0.099220
-0.027623
-0.030098
0.089089
0.055848
-0.066841
0.083909
0.053662
-0.009856
0.065973
-0.044943
0.002751
-0.017739
-0.089739
-0.044142
0.076987
0.090790
0.155957
-0.121707
-0.063194
-0.155816
-0.107566
0.042141
0.154822
-0.074400
-0.082877
-0.029009
-0.176915
0.091673
-0.019777
0.227220
-0.123186
0.103948
0.060801
-0.119478
-0.197003
-0.183703
-0.082240
-0.115126
0.046536
-0.031399
0.168183
-0.040164
0.061432
0.044298
0.073723
-0.025745
0.108600
-0.047118
0.145328
0.097492
0.036549
0.060391
0.201562
-0.074845
-0.128030
-0.120817
0.194723
-0.132996
0.082687
0.118604
-0.103825
-0.151070
0.043723
-0.191192
0.100890
0.111238
-0.073782
0.042566
-0.045630
0.176009
0.155663
-0.061930
0.131867
-0.072299
0.151192
-0.051328
-0.078709
-0.182138
-0.049554
-0.080081
0.155478
-0.008572
0.044042
0.012524
-0.036923
-0.069958
0.081466
0.125491
-0.134053
-0.086594
-0.130724
0.125392
-0.131213
0.051907
-0.133594
0.035343
0.128493
-0.184114
0.057071
-0.163152
-0.066354
-0.106712
0.162334
0.001826
0.081737
0.051998
-0.007859
0.144984
-0.040354
0.074881
-0.120868
-0.110810
0.010074
-0.030771
-0.187903
0.007159
-0.104048
-0.197277
-0.090655
0.075216
0.126154
0.070546
-0.103005
0.012455
0.033466
0.036794
0.042423
-0.036830
-0.039631
-0.056842
-0.122733
-0.029428
0.154775
-0.178417
-0.144393
-0.207116
-0.096648
0.153707
0.092462
-0.129190
-0.034192
0.151288
0.061430
-0.139221
-0.146666
-0.045252
-0.107603
-0.045014
0.027684
-0.054757
0.161901
-0.146594
-0.155704
0.092036
-0.096403
-0.110347
0.158569
0.195688
0.152121
-0.244163
-0.133747
0.016421
-0.163366
-0.121707
0.070921
0.156535
-0.054802
-0.142925
-0.163496
0.041437
0.127027
-0.175412
0.138781
0.121028
-0.032870
-0.204296
-0.242897
-0.015778
-0.157659
0.165491
-0.152371
-0.246836
0.170136
-0.139212
0.054251
0.012041
0.067482
-0.039856
-0.139318
0.068365
-0.103002
-0.039909
0.147020
-0.042800
-0.167111
0.049027
-0.112132
-0.256868
-0.125062
-0.070773
-0.071075
-0.171927
0.069783
0.053653
-0.153625
-0.227600
0.038029
0.053019
-0.112290
0.139582
-0.035706
0.069185
0.006420
0.097991
0.131725
-0.125551
0.075103
0.195334
-0.171027
-0.066325
0.078357
-0.121109
-0.103821
0.162389
0.143384
-0.147957
0.014725
-0.161128
-0.037564
-0.136991
-0.149583
0.184153
0.013632
-0.191168
-0.130771
0.076454
-0.154191
0.141652
-0.008592
-0.141852
-0.071277
0.189663
-0.211914
-0.072225
-0.055593
-0.044999
0.059851
0.213615
0.198767
0.246997
-0.016616
0.052075
0.226412
-0.169368
-0.098186
0.101259
-0.125928
-0.128774
0.166358
0.119224
0.119571
-0.171222
-0.116744
0.042210
-0.002532
-0.192602
-0.184228
-0.124206
-0.114163
-0.222769
0.117990
0.051996
-0.207157
0.069658
0.043069
-0.014392
0.044659
0.125086
0.109537
0.002098
-0.155733
-0.075044
0.064565
0.020207
-0.104828
0.133224
-0.183574
-0.170088
-0.135524
0.024176
0.237763
-0.019016
0.032151
-0.113392
-0.062931
0.119313
-0.015885
0.001021
-0.025425
0.006512
0.042708
-0.197746
0.131684
-0.155670
-0.130666
-0.120577
-0.112390
0.082655
-0.013621
-0.079853
-0.086145
-0.089759
0.063876
0.194927
-0.015884
-0.183702
0.130442
-0.024825
0.090115
0.092785
0.045000
-0.021685
0.085112
-0.247045
-0.105581
-0.096345
0.096059
-0.002958
0.148302
-0.073615
-0.188567
0.061284
-0.102845
-0.000252
0.150673
-0.026796
-0.046442
0.005075
-0.130221
0.026361
0.029278
0.048943
0.026845
-0.041669
-0.055613
0.020356
-0.177630
0.046018
0.237202
-0.192285
-0.141226
0.016018
0.120023
0.083805
0.195948
-0.129176
-0.075326
-0.059755
-0.041525
0.010504
-0.021471
-0.105040
-0.081887
-0.062437
-0.065276
-0.221910
-0.063300
0.017480
-0.017900
-0.190670
-0.135431
0.081135
0.132585
0.118369
0.110726
-0.186423
0.135273
0.025210
0.023374
-0.185448
0.160186
0.193429
0.092032
0.012141
0.009778
0.079763
0.002835
0.058768
0.206928
-0.103113
0.153224
-0.001507
0.084163
-0.074452
0.166584
-0.050692
-0.044158
-0.023734
0.017871
0.122804
0.009102
-0.036098
0.060104
-0.163047
-0.036256
-0.001508
-0.147725
-0.022821
-0.120285
0.005593
-0.003287
-0.044115
-0.145068
0.063901
-0.097957
-0.019239
0.159106
0.032247
-0.028480
0.128617
-0.106620
-0.046681
-0.124982
0.070821
0.083792
-0.047252
0.189641
-0.100224
-0.189860
-0.031465
-0.135633
-0.098776
0.157328
0.018526
0.212944
0.020594
-0.232857
-0.124014
-0.110743
-0.170798
-0.104668
0.133024
0.113317
0.179897
0.028668
0.136987
-0.113396
-0.065095
0.152235
0.067917
-0.098305
-0.105480
-0.008414
-0.143812
-0.204488
-0.025511
-0.046512
-0.022382
0.127040
0.030693
0.046662
0.157448
0.035560
-0.121567
-0.024480
0.044975
0.190633
-0.035850
0.033175
0.012332
-0.076978
0.138444
-0.132838
0.035618
-0.184825
0.201355
-0.152669
-0.213548
-0.097389
0.093579
-0.234815
0.077989
0.087023
0.199501
0.226203
-0.109804
0.074808
-0.012501
0.005647
-0.153618
-0.140827
0.097450
0.112937
0.111414
0.026257
-0.113844
-0.052578
0.175356
-0.070925
0.029763
0.168287
0.037660
-0.131763
-0.154898
0.020760
0.256694
0.166774
-0.198559
0.228907
-0.081290
-0.020792
-0.125253
-0.251052
0.132084
-0.075112
-0.028346
0.082119
-0.170694
0.004657
0.078062
-0.074588
0.047391
-0.061258
0.161768
-0.002448
-0.172915
-0.186737
-0.004791
0.161119
-0.137651
-0.091478
-0.048594
-0.014510
0.016889
0.191666
0.042288
0.031061
0.196374
-0.035160
0.199342
0.097187
0.149716
-0.205420
0.112475
-0.191230
-0.023457
-0.007441
-0.176355
0.074029
0.176584
-0.124970
0.083565
-0.230497
0.028001
0.188277
-0.032009
0.031404
-0.107754
-0.220822
-0.092762
0.266808
0.094472
0.066511
0.238935
0.017990
-0.221717
0.168715
-0.056223
-0.141443
-0.047694
-0.057300
0.008837
-0.103797
0.093304
-0.101173
0.031230
-0.084071
-0.044343
-0.158497
0.191024
0.117832
0.034504
0.128954
0.112717
-0.176184
0.046889
0.163560
-0.039666
-0.076441
-0.108741
-0.091574
0.173079
0.026136
0.108128
0.237443
0.155065
-0.079659
-0.028101
0.168297
0.063226
0.097181
0.054556
0.106899
0.180882
0.078859
0.154625
-0.130821
-0.143598
-0.195632
-0.137285
0.035397
-0.050811
0.003977
0.146410
0.019309
0.087250
-0.121111
-0.041068
-0.023511
-0.065385
-0.059446
-0.036826
-0.066978
0.044470
-0.031756
0.047461
0.026719
-0.075564
-0.058907
-0.033737
-0.145458
0.024308
0.146110
-0.024752
-0.060484
0.082465
-0.206589
0.079967
-0.011044
0.064185
0.009924
0.033271
0.145835
-0.093823
0.164623
0.011179
0.017460
-0.076753
0.184545
-0.152425
0.085890
0.015794
0.016847
-0.055651
-0.061513
-0.117881
-0.007616
0.079097
-0.088459
-0.015542
-0.157275
0.032602
-0.049126
-0.127459
0.066419
-0.030972
-0.098847
0.198647
-0.102076
0.057049
-0.009443
-0.139961
-0.141183
-0.039146
0.048184
-0.048713
0.027786
0.179995
0.020789
0.038380
0.144348
0.173592
-0.141448
0.030466
-0.163416
-0.133352
0.013047
-0.168511
-0.060935
0.214962
-0.237390
-0.024368
-0.162818
0.098673
-0.142486
0.161241
0.053487
0.154700
-0.090641
0.133076
-0.059014
0.009122
0.026534
0.223006
-0.004802
-0.061381
-0.015067
-0.057202
-0.128682
0.209700
0.150275
-0.070275
0.007412
0.090495
0.035475
0.151140
-0.041915
0.033445
0.046143
0.097115
0.098420
-0.092408
0.104462
-0.140347
0.030027
0.156697
-0.090203
0.099923
0.090513
-0.064711
-0.020425
0.030614
-0.145660
0.033130
-0.019571
-0.117755
0.048116
0.029673
0.136401
-0.046975
0.096671
0.140111
-0.213591
0.099269
0.034750
0.039400
-0.014620
0.015386
-0.005674
-0.168105
0.066824
-0.053534
-0.200595
-0.032250
0.110690
0.181652
0.019044
0.005019
0.055345
-0.000408
-0.071983
0.031359
0.091054
-0.025345
0.011743
0.054356
0.047525
0.102470
0.148952
0.049443
0.057545
-0.046328
0.075230
-0.176191
-0.128056
0.114808
-0.056144
-0.160117
0.041260
0.004167
0.121297
0.039062
-0.155843
-0.021018
0.067109
0.077837
-0.027968
-0.028247
0.016679
-0.144040
-0.050625
0.111817
-0.170095
0.183012
-0.103987
-0.171465
-0.138787
0.064057
0.145879
0.118114
-0.070808
-0.011748
-0.089742
-0.019241
0.035145
-0.150851
0.055356
-0.081072
0.060766
0.008047
-0.159598
-0.014921
0.014356
0.150987
-0.025402
0.126306
0.159476
0.064849
0.127990
0.164192
-0.064761
-0.102676
-0.034684
-0.202910
-0.094352
-0.064230
-0.175182
0.112495
-0.015270
0.146268
-0.106159
-0.076285
-0.057359
0.182610
0.021179
0.137904
-0.136370
-0.170807
-0.037849
-0.235311
0.169152
-0.078897
0.023173
-0.058658
0.115692
0.154366
0.206484
-0.027972
-0.077228
0.062936
0.121086
0.145434
-0.174954
0.026857
-0.005883
-0.151400
0.162896
-0.092322
0.004230
-0.099639
0.113190
0.005820
-0.083243
-0.105145
-0.077081
-0.148564
-0.215155
0.080608
-0.126361
0.067282
0.043730
-0.247054
-0.066244
0.160152
0.034099
0.018013
-0.024336
0.009407
-0.189180
-0.016789
0.038917
0.161616
-0.086868
-0.073160
0.052841
0.030179
-0.063312
0.170852
0.056780
0.071044
0.111831
-0.153213
-0.008835
0.161069
-0.138452
0.034516
0.210519
-0.198615
0.102074
-0.060836
0.028541
-0.224981
-0.134213
0.050107
0.009362
0.044609
-0.074837
0.003482
-0.001802
0.087195
0.143264
0.076453
-0.133652
0.099411
-0.006153
-0.068792
0.027465
0.013436
-0.125328
0.146813
0.167673
-0.097501
0.078043
0.009650
0.022816
0.189661
0.053435
0.122017
-0.106697
-0.096866
-0.124681
0.067165
-0.134023
0.161628
-0.074854
0.142274
-0.049467
0.118998
-0.008411
0.105734
-0.102691
0.096833
0.127273
-0.111002
-0.042317
-0.010168
-0.185529
0.088230
0.117189
-0.130763
-0.059825
-0.172136
0.181224
0.146332
0.124278
0.225655
0.064375
0.080632
0.082926
0.046385
0.134636
-0.093577
0.159594
-0.178987
0.063013
0.112568
0.109614
0.136403
0.026648
-0.021454
-0.141746
-0.075187
-0.069233
-0.140870
-0.108943
0.197862
-0.168192
0.181243
0.037025
-0.182447
0.022384
0.121611
0.091006
0.190800
-0.048169
-0.092389
-0.087075
-0.165589
0.214314
0.156375
-0.035794
-0.068033
0.064098
0.131980
-0.158463
0.108907
-0.038824
-0.153537
0.049061
0.080082
-0.012043
-0.090152
0.132749
0.134833
-0.059319
-0.208479
0.084183
-0.017887
-0.024659
-0.090949
-0.169580
-0.059938
0.151301
0.115553
-0.104532
0.133236
-0.123587
0.105074
-0.066869
0.040683
-0.047542
-0.085069
0.010164
0.135023
0.013121
-0.041615
-0.098295
0.111718
-0.188438
-0.160547
0.006840
0.228840
0.087601
0.110051
-0.181269
0.236961
0.041916
-0.084022
0.065900
0.231525
0.006209
-0.041656
-0.165872
-0.044249
-0.197362
0.114584
0.103042
0.126335
-0.103760
0.035668
-0.076599
-0.163430
-0.049692
0.172052
0.090889
0.056733
-0.084402
-0.040952
-0.140321
-0.027320
0.062816
0.047952
-0.167306
0.108422
0.236511
-0.159398
0.008674
0.106803
-0.164964
0.193749
-0.004719
0.115267
-0.123778
0.195997
0.154498
-0.195920
0.214557
-0.085341
-0.239218
-0.114265
-0.006124
-0.191379
-0.088953
0.011529
0.169291
0.087145
0.121553
0.110310
-0.128954
-0.248077
0.177984
-0.150286
-0.209314
-0.206849
0.034219
-0.007987
-0.086709
0.150005
0.002168
-0.121824
0.092886
0.225715
-0.116203
-0.148042
0.089677
-0.021366
-0.152676
0.016446
0.063667
0.115561
-0.073422
-0.130796
-0.063011
-0.176351
-0.189274
0.199822
0.123168
-0.135734
-0.102135
-0.108757
-0.078441
-0.096159
0.071436
0.063050
-0.142982
0.120659
-0.019740
-0.052157
0.142079
0.133948
0.039159
0.163381
0.068216
-0.071415
-0.113026
0.045274
-0.173504
0.126060
-0.032328
0.122714
-0.012527
0.027047
0.109427
0.089856
-0.231006
0.083448
0.003528
-0.103441
-0.050452
-0.070436
0.153350
-0.196169
-0.038129
-0.122145
0.157841
0.193266
-0.143440
0.081746
0.014449
0.123602
0.124925
-0.103349
0.085799
-0.037354
-0.005162
0.067747
0.062135
0.138623
-0.154517
0.044757
-0.054591
0.064357
0.057575
0.120866
0.005135
0.101264
0.085264
0.105478
-0.037005
0.089944
0.060543
-0.052597
-0.069098
-0.105070
-0.030959
-0.115296
-0.124656
-0.090849
-0.134778
0.140935
0.118721
-0.097242
0.042332
-0.074229
0.040053
-0.053446
0.086369
-0.009349
-0.164687
0.083326
-0.097053
0.108240
0.133511
0.082746
-0.142957
-0.005118
-0.193210
-0.012673
0.071207
0.138429
-0.119624
-0.094801
0.130307
0.086656
-0.126584
0.140077
0.055681
0.036099
0.131329
0.090087
0.055238
-0.010195
0.091991
0.046604
0.033335
-0.075666
-0.179822
-0.114174
-0.125849
0.036797
0.074034
-0.031283
0.068109
0.151449
0.075255
-0.128908
0.079388
-0.217923
0.011933
0.016589
0.180291
-0.186823
-0.040199
-0.055086
-0.048593
0.139643
0.074508
-0.111764
-0.115803
-0.129274
-0.081011
0.004608
-0.177042
0.086606
0.143339
-0.140843
0.100364
0.130069
-0.156968
0.052456
0.012407
0.167886
-0.021221
-0.045683
-0.078976
-0.188166
0.115706
-0.078856
0.049306
0.017802
-0.150229
0.015861
-0.019002
0.113936
-0.057364
0.060874
-0.207055
0.097473
-0.063259
-0.027308
0.231526
0.228027
0.152493
-0.063250
0.076866
-0.063977
-0.055614
-0.032400
0.144879
0.002143
-0.077573
0.144397
0.186633
0.106993
0.175539
-0.132321
0.023204
-0.042785
-0.082443
-0.077106
-0.120648
-0.051379
0.060073
-0.083386
-0.138276
0.096734
0.030784
0.023731
0.188681
-0.077039
0.248221
-0.066780
-0.012123
0.050636
-0.207024
0.182680
-0.069192
-0.037818
0.068236
0.209669
0.076327
-0.110507
-0.009106
0.063991
-0.113128
0.081881
0.102053
-0.041573
-0.011092
-0.137724
0.058022
0.199981
0.207117
0.160441
0.117726
-0.086667
-0.114788
-0.026380
0.115129
0.074169
-0.190101
0.015985
-0.032242
0.083625
0.131932
0.119582
0.060997
0.129268
-0.083312
-0.135239
0.008215
0.075269
-0.082195
-0.122640
0.117563
-0.042277
-0.037710
0.002710
0.085352
0.199934
-0.062085
-0.034262
-0.189443
-0.018828
-0.033227
0.010642
0.072607
-0.277425
0.024130
0.129104
-0.087869
0.069751
0.054674
-0.188888
-0.194657
-0.215030
0.102372
0.116226
0.073671
0.173498
-0.036307
-0.137014
-0.170981
0.129651
-0.178840
0.033173
0.023778
-0.029327
0.058906
-0.192715
-0.237923
0.130286
-0.126560
0.018508
0.149168
-0.145369
-0.067446
-0.107492
-0.159440
0.060388
0.142400
0.098373
-0.103378
-0.027617
-0.021691
-0.220051
0.209115
-0.196190
-0.206284
-0.036956
-0.044223
-0.075110
-0.159751
-0.017764
0.029137
-0.089203
-0.101386
-0.054816
0.083422
0.054300
-0.069574
-0.137257
-0.089080
0.180933
0.060966
-0.129145
-0.031424
0.072948
0.010546
0.100013
-0.144986
-0.133519
-0.108988
0.095222
0.008401
0.031897
0.044511
0.057176
-0.118330
-0.040812
-0.021631
0.010202
-0.122766
0.051372
-0.098827
-0.063450
-0.076494
-0.066392
0.030292
-0.144378
0.177403
-0.017796
-0.020782
0.105578
-0.069735
-0.004697
0.130481
0.019780
0.094935
0.192417
0.018171
0.153280
-0.032864
-0.196514
0.105573
0.108547
-0.042874
0.122653
-0.054401
0.104870
-0.117558
-0.052520
-0.052185
-0.249750
0.016903
-0.200641
0.030757
-0.058321
0.030424
0.000731
-0.015083
-0.061562
-0.073876
-0.037205
-0.191737
-0.110778
0.160345
0.007926
0.025085
-0.110061
-0.166089
-0.160235
-0.095788
0.010817
-0.128200
0.033996
0.142604
0.023252
0.037317
0.051391
0.034987
-0.150675
0.146519
-0.080222
0.160337
0.041785
0.022777
-0.084329
-0.043674
0.078619
-0.176252
-0.142947
-0.023036
0.010733
-0.109662
-0.127767
-0.068444
-0.000599
0.163014
0.210571
-0.029301
0.122753
0.002225
0.013960
0.130317
0.128771
0.027695
0.074728
0.022550
-0.007604
-0.083694
-0.178518
-0.016701
-0.027533
-0.126809
0.073334
-0.007730
0.059904
0.055070
0.176569
-0.010861
-0.058735
-0.125591
-0.107367
0.022110
-0.067560
0.109295
-0.007936
-0.254768
0.141459
-0.122888
-0.036502
0.174132
-0.108698
-0.034280
-0.222650
0.207198
0.144343
0.130631
0.087724
-0.017724
0.057833
-0.154874
0.196536
0.126995
-0.056898
0.212070
-0.159012
-0.125367
0.065737
0.173101
0.116447
0.179979
0.084520
0.189868
0.059094
-0.072251
-0.051194
0.038007
-0.120742
-0.151981
0.127307
-0.081358
-0.191662
-0.141929
-0.104567
-0.005391
0.090342
0.097529
0.085292
-0.221537
0.237561
0.147836
-0.025459
0.024630
-0.203813
0.179501
0.068677
-0.068646
-0.004078
-0.182916
0.091166
-0.138941
0.044431
-0.031193
-0.213598
-0.008823
-0.143925
0.127087
-0.017896
-0.114347
-0.121979
0.142767
0.060331
-0.080145
-0.029117
-0.003275
0.067034
0.194608
0.021766
0.034115
0.004344
0.194985
0.146747
0.082697
0.145387
-0.198042
0.080657
-0.012957
0.119713
0.118588
0.104731
-0.212117
-0.116743
0.074263
0.196898
0.145457
-0.111314
-0.031876
-0.166527
-0.077485
-0.160772
0.055249
-0.138120
-0.094441
-0.171896
0.030082
0.161106
0.012779
0.113352
-0.124710
-0.019912
0.013967
0.020236
0.167339
0.127241
0.127036
0.206690
-0.149369
0.029184
0.152898
0.049976
-0.109533
-0.026777
0.078977
-0.082534
-0.072930
-0.050075
-0.139394
0.035788
0.189987
0.007221
0.037474
-0.034819
-0.230590
0.086043
0.050049
0.047576
-0.179190
-0.150275
0.180737
0.009438
-0.058325
-0.026559
0.037518
-0.215085
0.143915
0.031528
-0.190891
-0.112155
0.196387
-0.074501
-0.078844
0.043008
0.132557
0.131954
0.004857
0.107855
0.045268
-0.158647
-0.098990
0.129984
0.005876
-0.100255
-0.101280
0.066356
-0.059151
0.162967
-0.149665
0.127112
0.084754
-0.127631
-0.050321
-0.118563
-0.068966
-0.108506
0.168947
0.117241
-0.072663
-0.023446
-0.011632
-0.104901
-0.113750
0.175597
-0.108928
0.102045
-0.048216
-0.139599
-0.091475
0.069610
0.216366
0.117005
-0.197379
0.032955
-0.086881
0.087695
-0.070539
0.048979
0.033692
-0.133387
0.034284
0.090240
0.053106
-0.061478
-0.068076
0.180799
-0.000646
0.093537
-0.097221
0.003433
-0.007510
-0.163979
0.138245
-0.134983
-0.052100
0.040318
0.163505
0.073766
-0.108765
-0.073433
-0.134787
0.072770
-0.070164
-0.074276
-0.105175
0.196363
0.003652
0.014452
0.162294
0.182381
-0.152700
0.115321
-0.099502
-0.005543
0.032914
0.018013
0.176083
0.033220
0.056458
0.212326
-0.081479
0.031272
0.171657
-0.078558
-0.149908
-0.265613
-0.056838
-0.047487
0.129375
0.076903
0.034690
0.000508
-0.063335
0.157611
-0.173054
0.061741
0.180102
0.155045
-0.015800
-0.045511
0.162477
-0.228319
-0.017915
-0.132178
-0.154183
-0.011479
0.071985
0.231150
-0.054976
-0.118106
0.141931
-0.060465
0.050046
0.188519
0.015355
0.035012
-0.186810
-0.212000
-0.079236
-0.159983
0.026980
0.032932
-0.126579
-0.152052
0.050561
-0.149494
-0.090593
-0.119084
-0.107788
0.028543
-0.080251
0.144936
-0.044289
-0.062239
0.140862
-0.034854
0.045753
-0.164759
0.027612
-0.042389
0.087347
0.159875
-0.198727
-0.135160
-0.120494
-0.125088
-0.114892
0.241995
0.096211
0.012898
0.212506
-0.081562
0.063299
0.167292
-0.041850
-0.094139
0.013422
0.226282
0.290092
-0.095987
-0.083431
0.009149
-0.118424
-0.026835
-0.080749
0.075807
0.213873
-0.158149
-0.110050
-0.172822
0.213142
0.091844
-0.299797
0.056019
-0.049629
0.095130
-0.169120
-0.161959
-0.215711
-0.170104
-0.230809
0.126324
0.102731
-0.218125
0.051868
-0.193469
-0.097062
0.124647
0.158021
0.053791
-0.171934
0.111334
-0.135767
0.278312
-0.170139
0.058037
0.192214
-0.087932
-0.171736
0.051428
-0.126477
0.038338
0.174758
-0.119812
-0.025324
-0.143392
-0.083169
-0.258274
0.016322
0.160885
-0.162154
-0.238440
-0.192998
-0.127118
0.036413
0.179033
0.238984
0.268036
0.067681
0.093350
-0.209056
-0.053110
0.076548
-0.002954
-0.101249
0.149558
0.145137
0.021652
0.101488
-0.012123
-0.067084
0.037159
-0.014250
-0.084219
0.182450
0.025007
-0.055849
-0.060466
-0.021789
-0.218385
0.136037
-0.097695
-0.184272
-0.024819
-0.187808
-0.048393
0.029289
-0.063534
0.097302
0.134455
0.034902
0.190364
-0.014276
0.145331
-0.160458
-0.013796
0.066134
0.174766
-0.173892
-0.033659
0.047475
0.177943
0.088033
-0.061700
0.093944
0.185976
0.014476
-0.150388
0.137932
0.204231
-0.141587
-0.175577
-0.149418
-0.151630
0.089971
-0.118618
0.050746
0.041507
0.000845
-0.175139
-0.144615
0.041536
0.106165
-0.153632
-0.167902
-0.092198
-0.099544
0.233146
0.120641
0.094014
0.006641
0.142275
0.095525
-0.023115
-0.132727
0.004798
-0.001361
0.214880
0.114716
0.078802
-0.150382
-0.226734
-0.146695
0.106386
-0.087280
0.075956
0.184557
0.212370
-0.085776
0.074786
0.132244
-0.053236
-0.090585
-0.150395
0.135591
-0.028479
0.096015
-0.172919
-0.169228
0.173040
-0.112904
-0.165535
-0.168973
0.032496
0.132777
0.127774
-0.156500
0.100139
-0.026327
0.035059
0.090034
-0.014551
0.048512
0.074788
-0.122037
0.103322
-0.085019
0.101922
0.215940
-0.104277
-0.196088
0.198235
-0.162861
-0.077515
-0.076776
0.210515
-0.118378
0.136104
-0.164591
-0.043856
0.154364
-0.159760
-0.004145
-0.068926
0.148097
0.112438
0.199125
-0.096965
0.091388
0.160700
-0.114193
-0.198623
-0.034126
-0.004553
0.118952
0.003214
-0.060992
-0.265242
-0.101360
0.049860
-0.147913
0.120973
0.092625
0.072057
-0.072069
-0.102297
-0.089633
0.106983
-0.230775
-0.087757
0.100868
0.080813
-0.122838
0.045879
-0.031741
0.094733
-0.059148
0.114506
-0.083461
0.038096
0.197416
0.026400
0.035749
0.164831
0.025567
-0.247751
0.026298
-0.005573
0.102169
-0.101220
-0.011403
-0.077698
0.022214
0.086125
-0.062727
-0.064286
0.041848
0.116910
-0.022884
0.107336
0.240840
-0.188562
0.057036
0.153875
-0.035258
-0.104930
0.250205
0.014791
0.140119
-0.074719
-0.216668
-0.066483
-0.192904
0.131867
-0.066734
-0.019704
-0.018531
0.001557
0.151656
-0.135546
0.009653
-0.008278
-0.139022
-0.003037
0.006022
0.119716
0.195210
0.025550
-0.088560
-0.099620
0.238394
-0.070349
-0.075558
-0.108541
0.194408
0.263839
-0.202817
0.023758
0.045968
0.018571
0.092524
0.171481
-0.124475
0.164636
0.238194
-0.163186
0.252656
-0.127322
-0.183574
0.013332
-0.030454
0.131493
0.187893
-0.068008
-0.098519
-0.156187
0.089704
0.077491
0.154950
0.040477
-0.061598
-0.068832
-0.143918
-0.158694
-0.070379
0.139842
-0.183592
0.018098
0.215530
0.002295
0.135603
-0.026537
-0.095545
0.045340
-0.172564
0.087033
0.156867
0.203321
-0.011946
-0.067034
0.058726
0.103025
0.094980
0.202828
-0.043773
-0.068209
-0.202323
0.107248
-0.022767
0.030842
0.160825
0.070165
0.077797
0.018538
-0.013017
-0.125779
0.003059
-0.116629
-0.035105
-0.037980
0.112338
0.194436
-0.094265
-0.065337
-0.209223
0.055494
-0.256020
-0.077467
-0.048983
0.049011
0.094246
0.045687
-0.157478
0.124838
0.155696
0.004272
0.047525
0.180429
-0.127443
-0.151749
-0.152187
0.157300
0.171801
-0.088038
0.056012
-0.182127
0.029829
0.036816
-0.017003
-0.046523
-0.129683
0.163119
0.030727
-0.223720
-0.008854
0.089259
0.101391
0.096637
0.063331
0.046188
-0.006550
0.033806
-0.120626
-0.170210
0.099093
0.142517
-0.151476
0.229041
0.147454
-0.081590
0.005490
-0.109294
-0.055277
-0.121050
0.011464
0.156882
-0.113550
-0.083494
0.135318
0.160351
-0.106356
-0.035003
0.043896
0.062944
0.140871
-0.114520
-0.056071
-0.048079
0.081833
-0.194941
0.167619
-0.140664
-0.093433
-0.029300
0.048721
-0.139830
0.031252
0.087768
-0.129192
0.092375
-0.052929
-0.026985
0.106861
0.137944
-0.143147
0.083660
-0.080570
0.004550
0.124419
-0.037265
-0.123871
0.060479
0.003858
0.158425
-0.040828
-0.154543
0.204498
-0.145981
0.121451
0.017255
-0.160272
-0.170749
0.054025
0.168747
-0.002815
-0.018649
-0.171386
-0.029451
-0.054513
0.122154
-0.047699
0.066909
0.066586
-0.096877
-0.153525
-0.124835
0.133636
-0.059033
0.087438
0.098081
0.151130
0.039405
-0.184325
-0.104046
0.023916
-0.030700
-0.060195
0.266650
-0.162555
-0.197139
0.027596
-0.162632
-0.102104
-0.058057
0.233769
0.073635
-0.040503
0.086378
0.127264
-0.242160
0.108804
0.141817
0.143624
0.016008
0.003629
0.109374
0.060473
-0.033673
-0.147529
0.053857
0.074273
-0.004198
0.022004
0.141247
-0.057189
-0.072634
0.186417
0.070179
-0.093277
0.152797
0.267460
-0.131962
0.032213
-0.043264
0.047222
-0.013026
0.038479
-0.179534
-0.058705
-0.067190
0.080477
-0.203955
-0.007595
-0.222091
0.061105
0.024761
-0.070040
0.149184
-0.100282
-0.113410
-0.211578
-0.161013
-0.057263
0.107803
-0.117234
-0.079488
0.067997
0.199151
-0.062842
-0.081321
0.021430
0.074183
0.113364
-0.072524
-0.144900
0.147734
0.077916
0.025220
-0.039543
0.063550
0.124054
-0.069050
0.212353
0.018301
0.188940
-0.185910
0.046596
-0.059717
-0.050098
0.129095
-0.037614
0.069396
-0.013232
-0.046889
-0.060055
-0.169976
0.100069
0.024139
0.014650
0.076787
0.135687
0.237606
-0.013219
0.217424
0.124421
0.074018
-0.149027
0.040091
-0.116943
-0.169436
-0.055506
0.048584
-0.024788
0.140854
-0.077596
0.036338
-0.098671
-0.043325
-0.172885
0.045792
0.093288
0.167453
0.094732
-0.121553
-0.026377
-0.001125
-0.028553
-0.143354
-0.161269
-0.055617
0.090829
-0.134809
-0.085747
-0.002044
-0.083003
0.062740
0.013518
-0.160100
-0.080640
0.100996
-0.193588
0.187328
-0.158983
0.197398
0.092559
0.095800
-0.023121
0.039400
0.121569
-0.170578
0.055005
-0.089673
-0.036596
-0.001623
0.109880
-0.165805
0.121416
-0.085090
-0.105995
-0.145076
-0.068661
0.198145
0.081621
-0.014848
0.065189
-0.087901
-0.132390
-0.214820
0.032280
0.176597
-0.023423
-0.005743
0.058501
-0.132725
-0.100945
-0.136598
-0.114270
-0.130889
0.041373
-0.113105
0.025360
0.016045
0.032875
0.089611
0.125529
0.004351
0.038715
0.139899
0.040699
-0.189627
0.173488
0.165015
0.104888
-0.026846
0.026307
0.036491
-0.145099
-0.061526
0.077383
-0.058755
0.001208
0.218732
0.091878
0.010011
0.014305
0.046683
-0.048489
0.107898
-0.145895
-0.204831
-0.029145
0.143589
-0.028421
0.135979
0.102162
0.177711
0.108071
0.132138
0.074158
0.006820
-0.024876
0.202214
0.013925
-0.002484
0.131082
0.013715
-0.076109
0.134577
0.153662
-0.123597
0.060969
-0.019131
0.053586
0.126918
-0.091873
0.052384
0.091508
0.088155
0.025099
0.016780
0.097080
-0.034868
0.089901
0.216846
-0.168973
-0.123243
-0.096253
-0.164360
-0.132656
0.051493
-0.042039
-0.082187
-0.063951
-0.014731
0.228018
-0.096643
0.032845
0.104208
0.165076
0.007829
0.118400
-0.059729
0.124183
-0.103636
-0.028854
-0.125475
0.188216
0.010211
0.076640
-0.000588
0.047602
-0.178913
-0.083879
0.072715
0.064218
0.071731
0.016873
-0.136210
-0.059281
-0.103444
-0.144570
-0.119366
-0.137531
0.211052
-0.055687
-0.011071
0.005188
-0.162534
-0.157245
0.093385
-0.188471
0.102735
-0.042533
0.038844
-0.089824
0.181902
0.032892
0.181348
-0.189100
0.023156
-0.114713
0.000326
0.077607
0.039689
0.191057
0.142438
-0.050990
-0.050964
0.008402
-0.150563
0.134781
0.078013
0.202629
-0.058420
-0.060162
-0.062610
0.081990
0.161791
-0.034259
0.209527
-0.012739
0.102789
0.097595
-0.142549
-0.043058
0.191267
0.087209
0.190111
0.019697
0.106013
-0.005757
-0.116350
-0.057527
0.022141
-0.185809
0.065664
-0.014204
0.076451
-0.022743
0.137112
0.062544
-0.135205
0.013704
0.048472
0.053940
0.010619
-0.000594
-0.056692
-0.108590
0.150106
-0.124052
-0.104371
-0.028378
-0.003007
0.111342
0.016606
-0.142087
0.174852
0.138480
0.044082
0.165771
0.092278
-0.125869
0.059344
-0.183135
-0.030587
0.191364
-0.193233
0.003919
-0.121578
-0.150716
0.175067
-0.226956
-0.144909
-0.090618
0.079911
0.105224
0.157220
-0.071166
0.084329
0.045987
-0.097024
-0.094431
0.123582
0.133794
-0.140549
0.058659
0.221907
-0.087971
0.039927
0.050019
0.047705
-0.132998
0.116147
-0.097279
0.035356
0.066541
-0.112783
0.147079
0.044131
-0.050682
0.084174
0.017530
-0.157608
0.190264
0.046778
0.083446
0.096984
0.159674
-0.116096
0.204712
0.015237
0.007264
0.042711
0.060100
-0.002142
-0.046026
0.016231
-0.045364
0.078956
-0.079996
-0.030111
0.151671
0.177311
0.092644
0.161068
-0.143385
0.047255
0.030730
-0.079747
-0.036958
0.008301
0.278555
0.200807
-0.165420
-0.224288
-0.067903
0.024822
-0.121329
0.034494
-0.113319
0.142381
0.066172
0.221173
-0.108294
0.146181
0.115755
0.083675
-0.013834
0.077112
-0.075970
-0.146801
-0.096575
0.058960
-0.068869
-0.198425
0.235693
-0.184911
0.006742
0.071021
0.017899
-0.153516
0.166159
0.163404
0.272052
-0.000607
0.028100
-0.119771
-0.066452
-0.029582
0.022331
-0.184442
0.029377
-0.123333
0.031700
0.158653
-0.154215
-0.061683
0.040822
-0.211737
-0.041141
0.146288
-0.122161
0.126118
0.209321
0.024213
0.058813
0.121962
0.012412
-0.148156
-0.231157
0.012126
0.221456
0.008694
0.181512
0.155830
-0.263269
0.154280
0.105608
-0.055131
0.071295
0.137773
0.038105
0.066058
0.036017
-0.098824
0.181250
-0.129088
-0.006296
0.105255
-0.193440
0.009985
0.178226
-0.048098
0.049291
0.049229
-0.071100
0.012065
-0.109499
-0.130750
0.125085
0.123485
0.140378
0.025695
0.025411
0.133559
0.169437
0.211753
-0.019643
0.224158
-0.199768
0.192170
0.104555
0.083382
0.184216
-0.052364
-0.107350
-0.117807
0.091880
-0.004336
-0.052711
0.038934
-0.071362
-0.224528
-0.037753
0.060877
-0.133297
0.109296
-0.115212
-0.057314
-0.114155
0.241931
-0.126628
0.207188
0.087140
-0.088616
-0.072130
-0.003243
0.112160
0.175850
0.024216
-0.151575
-0.063435
0.151273
0.162767
-0.018092
0.136762
-0.128760
0.022466
-0.097671
0.134631
-0.149741
0.212689
0.103996
0.060294
0.039479
0.019143
-0.023899
0.179372
0.017105
-0.024153
-0.060061
-0.224088
0.138024
-0.154741
-0.070356
0.106214
0.028032
-0.051065
-0.023910
0.159612
0.079678
0.228657
0.011027
-0.157324
-0.081260
0.075515
0.040112
0.184873
0.129331
0.109492
0.007758
0.037070
0.136391
-0.194822
-0.001038
0.120421
-0.102083
-0.037692
0.108599
-0.069660
-0.100035
-0.155998
0.097076
0.030111
0.147530
0.122516
0.033114
0.098607
0.132375
0.008103
0.163354
0.088195
0.113333
0.032536
-0.011040
0.137557
-0.067736
-0.107172
-0.057979
-0.205460
-0.199669
-0.236106
0.027616
-0.088568
0.099458
0.135695
-0.016973
-0.169002
0.069380
0.112276
0.141228
0.103155
0.025539
-0.101367
-0.044511
-0.139137
-0.043928
0.038809
0.195454
-0.072935
0.141553
0.022178
0.195996
0.150965
-0.096824
0.098824
0.092081
-0.017444
0.114751
0.079234
-0.001557
-0.190684
-0.076053
-0.041717
-0.042571
0.128355
0.133373
0.006413
0.059216
-0.113319
-0.080124
0.173314
0.039259
0.093791
0.016668
0.171043
0.047883
0.002439
-0.044566
0.109364
-0.150990
-0.100870
0.029403
0.088957
-0.112039
0.006524
0.150743
0.110339
0.102400
0.086576
-0.118441
0.035873
-0.007150
0.030341
0.062784
-0.029421
-0.024847
-0.183108
-0.112961
-0.176802
-0.126135
-0.066722
-0.110349
-0.064216
-0.080240
0.083789
-0.161726
0.143433
0.055064
-0.173922
0.166441
0.003971
-0.051687
-0.124647
0.161896
0.005369
-0.047820
-0.047823
-0.044807
0.188410
0.117019
-0.120804
-0.149073
0.021634
-0.145693
0.159704
-0.183323
0.146076
-0.065476
0.081619
-0.138718
-0.127605
0.064132
0.001139
-0.009159
0.038445
0.136354
-0.081794
0.149242
-0.113729
0.044274
-0.107399
-0.147834
0.026106
-0.119686
0.156632
0.129913
0.180589
-0.046507
-0.059261
-0.211143
0.036425
0.042583
0.105097
0.094795
-0.114759
0.073627
0.109437
-0.168087
-0.133848
-0.007138
-0.023131
0.133302
-0.064210
-0.062185
0.114497
-0.165212
0.061184
0.026492
-0.070501
0.090663
0.040252
0.069117
0.153676
0.026806
0.103887
0.066712
0.210119
-0.064858
0.084249
0.170700
0.142781
-0.146275
-0.052942
0.156938
-0.065512
-0.032680
0.219516
-0.109663
0.104663
-0.146145
0.101661
0.081094
-0.084995
-0.036644
-0.199767
-0.128280
0.071034
0.169277
-0.008718
0.144229
-0.019547
-0.105704
-0.190642
-0.126615
-0.153919
0.056391
0.079999
0.102938
0.039946
0.086963
-0.140359
-0.201317
0.048276
0.179650
0.073722
-0.007729
0.089965
-0.190947
-0.066816
0.040554
-0.078265
0.056592
-0.135465
0.172938
-0.050699
-0.079355
-0.097248
-0.190756
0.110501
-0.106871
-0.033228
-0.104884
0.121458
-0.092318
0.021055
0.134782
-0.061111
0.113125
-0.096293
-0.220431
0.063229
-0.080544
-0.132713
-0.014002
-0.088674
0.107857
0.047705
-0.182336
-0.041015
-0.054142
-0.012660
-0.007787
-0.113747
-0.224152
-0.017349
-0.127268
-0.048262
-0.176173
-0.180773
0.002310
-0.022773
-0.142742
-0.066641
0.083617
0.153569
-0.069038
-0.033543
0.105907
-0.113162
0.124850
0.057463
-0.006989
-0.106117
0.154204
-0.064809
-0.155720
0.108418
0.064050
0.053147
0.082926
0.087939
0.019814
0.153581
0.094884
-0.085861
-0.084267
0.117578
0.087640
-0.176059
-0.079532
-0.072679
-0.168621
-0.179578
0.191734
0.103985
0.039677
-0.025974
-0.047894
-0.108724
0.114411
-0.133379
0.176764
0.024320
0.022449
-0.032311
-0.167545
-0.050451
-0.030755
0.022588
-0.159347
-0.109908
-0.172809
0.000928
-0.071951
-0.046280
-0.040016
-0.162105
-0.005609
0.107912
-0.209499
-0.035656
-0.098599
-0.046199
0.082054
-0.187764
0.139025
0.065006
-0.042877
-0.022514
-0.167218
0.183082
0.037158
0.044647
0.082381
0.002628
-0.054531
-0.007191
0.185859
0.012218
0.127796
0.040038
0.224455
-0.085229
-0.012380
0.069584
0.042796
0.032729
-0.001809
-0.076480
-0.043005
0.067556
0.041314
-0.112471
-0.175809
-0.067516
-0.032075
-0.139142
0.077262
-0.097600
-0.049972
0.106580
-0.207865
0.158240
0.132332
0.093481
0.166484
-0.060216
-0.072278
-0.050123
-0.139452
0.131673
-0.062507
0.010357
0.048643
-0.114315
-0.017636
-0.092839
0.138599
-0.144975
0.022016
0.010562
0.152455
-0.172221
-0.194901
0.111757
-0.079800
-0.064299
-0.011059
-0.160934
-0.134160
0.107332
-0.028741
0.122433
0.129491
0.141512
-0.094158
0.050041
-0.042873
0.166985
-0.157450
-0.164578
0.161898
-0.133983
-0.012504
0.031196
-0.236789
0.060866
0.032832
0.226024
-0.067658
0.142198
-0.103445
-0.226459
-0.033809
-0.052501
0.004135
0.098485
0.086091
-0.002580
0.045745
0.066448
0.196007
-0.054862
-0.017724
-0.019287
0.012482
0.050212
-0.099294
0.126734
0.032351
0.080008
-0.143140
0.094448
-0.092347
-0.110234
-0.050793
0.070121
0.018289
0.045225
-0.014492
-0.078795
-0.057013
0.016846
0.090098
-0.103820
0.105945
-0.107407
-0.006120
-0.072357
0.095919
-0.126017
-0.039780
0.157466
-0.080117
0.124248
-0.089855
0.129592
-0.047731
0.049523
0.073408
0.106997
0.057277
-0.100875
0.066383
-0.027831
0.077266
0.049683
-0.048324
0.158321
0.115519
0.106856
0.100355
0.018359
-0.067098
0.036658
0.136006
0.109026
0.076795
0.005302
-0.099452
0.125270
-0.019641
0.067578
-0.041779
-0.095704
-0.059343
0.088277
-0.119209
0.142147
0.145522
-0.158473
-0.127995
0.000500
0.101123
-0.064752
0.080260
-0.141483
0.099037
0.031135
-0.082820
0.161254
-0.053494
0.189555
-0.016200
-0.119716
-0.175375
-0.110558
-0.059601
0.137891
-0.019423
-0.150217
0.086478
-0.012368
-0.095303
0.178158
0.051042
-0.107470
-0.049029
0.116635
-0.198248
0.007360
0.109209
-0.026209
0.156536
-0.178107
0.064628
-0.034071
-0.175296
-0.196094
0.070945
0.177592
-0.023658
-0.112884
0.072643
0.019402
0.203693
-0.106485
-0.081084
-0.099587
-0.198125
-0.068504
0.075757
0.021156
0.092878
0.141666
-0.059759
-0.163800
-0.067532
0.178171
0.165704
0.095936
-0.192951
0.136981
0.000112
0.074432
-0.146610
-0.144850
0.021305
0.055372
0.180534
0.157190
0.033117
-0.030995
0.062706
0.238474
-0.103973
0.067102
0.008469
0.220495
-0.183197
0.046268
-0.021632
-0.178222
-0.158426
-0.187613
0.031452
0.183467
0.066580
0.052452
-0.076378
0.041867
-0.060985
0.130166
0.188799
-0.030092
0.190021
0.035576
0.186143
-0.009044
-0.158319
0.181959
0.107669
0.029398
-0.091543
-0.170344
0.059147
0.104317
-0.109655
0.088540
-0.170900
-0.134263
-0.060685
0.013432
-0.215914
0.106879
0.112101
-0.143265
-0.156404
-0.066058
0.046890
0.154287
-0.038339
-0.133521
-0.073364
0.010728
0.084352
0.170845
0.084943
0.039576
0.045062
0.081464
0.153124
0.054573
0.004997
-0.099472
0.116475
0.112098
0.155597
0.119387
0.035179
0.203404
-0.196413
-0.139079
-0.107464
-0.021913
0.087125
-0.165733
-0.098918
0.051049
-0.184298
0.081358
0.115343
0.103987
-0.014675
0.174947
-0.149160
-0.034895
-0.027143
-0.005609
-0.119787
0.148843
-0.141172
-0.206479
0.048278
0.188471
0.000226
0.080171
-0.183308
-0.176904
-0.019954
-0.065280
0.124545
0.100160
-0.080157
0.117335
0.011583
0.101282
0.045089
0.097492
0.085913
-0.125103
-0.133821
-0.028036
0.157156
-0.116886
-0.097649
0.095121
-0.036450
-0.161393
-0.219501
-0.032380
0.051786
-0.167748
0.006018
0.158303
0.002320
-0.058045
0.080043
0.030968
0.106555
-0.149994
-0.120889
0.000787
-0.016210
-0.031099
-0.144034
-0.091916
-0.091847
0.108630
0.119640
-0.057614
0.011753
-0.021956
-0.092138
0.180394
-0.147695
0.020265
0.020760
0.054860
-0.121525
-0.022383
-0.174171
0.032751
-0.133816
-0.169372
-0.076888
0.159082
-0.142490
0.019143
0.080616
0.035768
-0.068513
-0.096966
-0.067754
0.104674
0.042285
0.048060
-0.155082
0.000317
0.228059
-0.178944
0.156176
0.115147
0.099818
-0.159338
0.132240
0.201394
-0.105381
0.059174
0.072100
0.146682
-0.091875
0.179355
-0.106183
0.034976
0.070061
0.051008
-0.044511
0.133805
-0.073419
0.193904
0.024789
0.162110
-0.105664
-0.143697
0.138211
0.175661
-0.020082
0.161343
0.244537
0.218759
-0.180727
-0.067385
0.064580
0.185285
-0.072983
0.148862
0.131041
0.036709
0.195031
-0.046963
0.186536
0.168424
0.160159
0.175649
-0.015489
-0.156407
-0.040019
-0.208412
0.059134
0.005799
0.176652
0.090811
-0.135737
0.007630
0.046454
-0.004424
-0.039940
-0.108889
0.149269
0.029399
0.151790
-0.183614
0.101968
0.102837
-0.028698
-0.004704
-0.042945
-0.036230
-0.145451
0.057781
0.021053
-0.060566
-0.111994
0.174993
0.118606
-0.010745
0.050690
0.111789
0.183071
0.100025
0.039123
-0.095660
0.063648
-0.010588
0.015904
0.104949
0.047058
-0.107793
-0.073519
0.027824
0.086208
-0.073611
-0.178584
0.149241
-0.004243
-0.081148
0.113662
-0.077226
0.085073
0.023809
0.205109
0.165718
-0.102610
0.151738
0.160388
-0.132641
0.068908
0.037694
0.185673
0.011209
-0.185618
0.117407
0.000456
0.011206
0.014474
0.122906
0.063819
-0.153431
-0.176267
0.075233
-0.016833
0.052103
-0.026494
-0.018106
0.201618
-0.058589
0.120374
0.018045
0.127966
-0.209737
0.257304
-0.050498
0.098330
0.164915
0.136670
-0.171474
-0.048224
0.135358
0.036722
-0.182532
-0.018550
-0.157693
-0.091932
-0.099821
0.013970
0.019676
0.057334
0.045635
-0.005243
-0.154598
-0.036271
-0.093668
0.013186
-0.056849
0.007403
0.136593
-0.125260
-0.008710
0.090355
-0.139726
0.122300
0.113169
-0.120134
-0.151606
0.110987
-0.037132
-0.089764
0.013307
0.126421
-0.059973
-0.146797
0.102264
0.048774
0.168856
-0.004441
-0.057916
-0.066774
0.172701
0.154368
-0.113960
-0.066664
0.162101
0.062111
-0.111590
0.227211
-0.103915
0.025777
-0.097846
0.027894
-0.190834
0.048916
0.141428
-0.041604
0.089162
-0.186184
0.126911
-0.176888
-0.073138
0.084276
-0.008686
0.162054
-0.222851
-0.149061
-0.187680
0.026753
-0.191620
0.100703
-0.028690
-0.133580
-0.076835
-0.144362
-0.198204
0.070978
-0.056760
-0.091236
-0.030304
-0.070500
-0.206803
0.113354
-0.149985
-0.073960
-0.087415
0.066631
-0.176050
-0.075869
0.193763
0.061166
-0.116521
0.024163
0.072319
-0.189708
0.122242
-0.135943
0.134344
-0.203492
-0.209416
0.092307
-0.146027
-0.002880
0.030733
0.155119
0.140924
-0.025046
0.212224
-0.162152
-0.138402
-0.072203
0.234079
-0.098991
-0.196295
0.009875
0.006524
-0.080810
-0.089224
-0.048885
-0.141685
-0.016431
0.001065
-0.001915
0.122866
0.010790
0.006700
0.046377
0.078050
0.111312
0.053172
-0.106824
0.216350
-0.280119
0.037968
-0.141100
0.092246
-0.153636
0.070277
0.021983
-0.103588
-0.186321
-0.076202
-0.001942
0.128399
0.081983
0.115060
-0.049009
0.053213
-0.167450
-0.088643
-0.158105
0.055273
0.087516
0.087046
-0.158422
-0.085099
-0.098013
0.002372
-0.172698
0.071517
-0.152876
0.246300
-0.059471
-0.074866
0.157477
0.198809
-0.045664
-0.076344
-0.063515
-0.047704
-0.186803
0.074639
-0.016062
0.159865
-0.046648
0.124527
-0.052288
-0.035830
-0.085572
-0.014473
-0.171708
0.187831
-0.167453
0.015715
0.182184
-0.124584
0.047396
0.056375
-0.078537
0.087651
-0.124593
-0.207322
-0.180931
0.187713
0.158471
0.060024
-0.065256
-0.092316
0.126346
0.016110
0.168875
-0.095398
-0.165400
-0.193219
0.064943
0.091471
-0.184328
0.099779
0.093123
-0.058548
0.001991
0.105717
-0.083030
-0.058906
0.086857
0.077662
0.042883
0.125393
0.131052
0.122061
-0.205444
-0.173454
-0.176250
-0.139735
-0.186118
0.082298
0.081230
-0.097542
0.043433
0.193318
-0.075604
0.147050
0.074817
0.104784
0.063176
-0.008416
0.133200
0.136435
-0.136746
0.133403
0.084811
-0.014140
0.084959
-0.164727
0.063479
0.171388
0.046197
-0.128792
0.047786
0.145069
-0.135236
0.218887
0.020423
0.012462
0.162160
-0.024832
0.019687
0.147578
0.071664
-0.135031
-0.169484
-0.001776
-0.016504
-0.134574
0.133158
0.153309
-0.108613
-0.009376
0.003967
-0.046506
0.153519
0.121293
-0.145078
0.106174
0.020735
0.048093
0.192568
0.116972
-0.035807
-0.027382
0.036635
0.043152
0.170594
0.030793
0.134311
0.028217
0.128174
-0.023421
-0.033874
0.170197
-0.041063
0.180696
0.126601
-0.030966
-0.132827
0.063524
0.021998
0.058814
0.164988
-0.088099
-0.111592
0.146900
0.235306
0.165925
-0.210094
0.157230
-0.081279
0.121331
0.101956
0.068947
-0.050581
0.008864
-0.014340
-0.146300
0.017779
-0.032857
0.137182
0.034523
-0.017721
0.013187
-0.108185
0.159689
-0.135122
0.137466
-0.151640
-0.246101
-0.079228
-0.050769
-0.109356
0.210809
-0.273052
0.118660
0.013016
-0.175168
-0.022746
0.159447
-0.202666
-0.141941
-0.072263
-0.010689
0.004047
-0.206481
-0.163000
-0.031342
0.134344
-0.145003
-0.180714
-0.168644
-0.063099
0.174433
0.028896
-0.052845
-0.194336
0.095296
0.001494
0.055296
-0.041939
0.052767
0.214346
-0.061076
0.067194
-0.065426
-0.162308
-0.131534
0.050431
-0.033846
0.133519
-0.126373
0.113095
0.108724
0.120352
-0.143614
-0.110790
-0.079227
-0.023277
0.037688
-0.047863
-0.136011
0.217659
0.037078
-0.074952
0.092690
-0.101123
0.180534
0.018057
-0.076668
0.013524
-0.109249
0.057243
0.048195
0.098853
0.110451
0.036170
0.212443
0.170339
-0.060470
0.177338
0.138332
0.057263
-0.117849
-0.188061
-0.105488
-0.127630
-0.009597
-0.198454
0.011055
-0.238937
0.202972
0.042581
-0.198802
-0.092847
0.169646
-0.043307
-0.194194
-0.074947
0.092524
0.099866
0.150000
-0.072265
0.167023
-0.157959
0.007025
-0.059275
0.017315
0.053449
-0.101160
-0.268465
0.019093
-0.201352
0.053059
-0.203444
0.178231
0.105250
0.031981
0.077041
-0.160712
-0.095498
0.181895
-0.070934
-0.284236
-0.129050
-0.198743
0.197354
-0.097657
-0.159369
0.099005
0.129571
-0.051921
0.183582
-0.010006
0.054155
0.165441
-0.188351
0.084218
0.164765
0.014380
0.163750
-0.085406
-0.217523
0.196285
0.053629
-0.079211
-0.134290
0.079533
0.006296
-0.103077
0.142221
-0.138094
-0.087426
0.037247
-0.068579
0.177929
0.072424
0.094439
-0.060399
0.051953
0.044772
-0.047056
-0.054285
0.188947
-0.071168
0.107222
0.114122
-0.101144
-0.180817
